svm_type epsilon_svr
kernel_type rbf
gamma 0
nr_class 2
total_sv 33906
rho -0.01181
SV
1 0:0.0062097 1:0.05021 
1 0:0.008675 1:0.012536 
1 0:0.0048188 1:0.044407 
1 0:0.0050668 1:0.041201 
1 0:0.0048346 1:0.038202 
1 0:0.0060762 1:0.017372 
1 0:0.0042208 1:0.049729 
1 0:0.005164 1:0.042205 
1 0:0.0057022 1:0.039403 
1 0:0.0071546 1:0.04262 
1 0:0.0060116 1:0.040119 
1 0:0.0053699 1:0.042122 
1 0:0.0050537 1:0.036316 
1 0:0.0060823 1:0.013193 
1 0:0.00465 1:0.052091 
1 0:0.0054424 1:0.041208 
1 0:0.0056081 1:0.041298 
1 0:0.0051788 1:0.043411 
1 0:0.0059191 1:0.041099 
1 0:0.0054528 1:0.036447 
1 0:0.0051002 1:0.041011 
1 0:0.0054294 1:0.043237 
1 0:0.005027 1:0.040904 
1 0:0.0049331 1:0.032609 
1 0:0.0047286 1:0.072487 
1 0:0.0054217 1:0.041354 
1 0:0.0052831 1:0.043109 
1 0:0.005153 1:0.040924 
1 0:0.0065435 1:0.089448 
1 0:0.0056174 1:0.028251 
1 0:0.0084801 1:0.046394 
1 0:0.0041216 1:0.073391 
1 0:0.0051255 1:0.041016 
1 0:0.0055684 1:0.042578 
1 0:0.0069746 1:0.071686 
1 0:0.0053791 1:0.041082 
1 0:0.0045059 1:0.048714 
1 0:0.0055617 1:0.023354 
1 0:0.0079767 1:0.042524 
1 0:0.0076938 1:0.050756 
1 0:0.0051567 1:0.042287 
1 0:0.01111 1:0.057445 
1 0:0.0070027 1:0.042086 
1 0:0.0040358 1:0.045603 
1 0:0.0050849 1:0.04079 
1 0:0.0059047 1:0.036343 
1 0:0.0047375 1:0.016896 
1 0:0.004558 1:0.042059 
1 0:0.0077588 1:0.040444 
1 0:0.008084 1:0.042175 
1 0:0.0066975 1:0.039101 
1 0:0.0050975 1:0.041883 
1 0:0.0051156 1:0.036665 
1 0:0.0063748 1:0.012011 
1 0:0.0059357 1:0.041638 
1 0:0.0063844 1:0.041812 
1 0:0.005998 1:0.04537 
1 0:0.0049841 1:0.040579 
1 0:0.005359 1:0.035625 
1 0:0.0050785 1:0.040501 
1 0:0.0066155 1:0.043193 
1 0:0.005315 1:0.0414 
1 0:0.0053239 1:0.032522 
1 0:0.0087858 1:0.066926 
1 0:0.0082663 1:0.069234 
1 0:0.0051203 1:0.04119 
1 0:0.0060712 1:0.042899 
1 0:0.0050753 1:0.040547 
1 0:0.0069139 1:0.077886 
1 0:0.0050175 1:0.027391 
1 0:0.0048672 1:0.045678 
1 0:0.0054246 1:0.04452 
1 0:0.0060047 1:0.071406 
1 0:0.0055771 1:0.041918 
1 0:0.0056768 1:0.042513 
1 0:0.0073891 1:0.06505 
1 0:0.0052463 1:0.040903 
1 0:0.0045471 1:0.048746 
1 0:0.0060403 1:0.022358 
1 0:0.0057046 1:0.042748 
1 0:0.0077675 1:0.048162 
1 0:0.0051146 1:0.042178 
1 0:0.0067418 1:0.050413 
1 0:0.0052757 1:0.042265 
1 0:0.0044148 1:0.045303 
1 0:0.0053198 1:0.041254 
1 0:0.005734 1:0.035335 
1 0:0.0056286 1:0.016567 
1 0:0.0050045 1:0.042394 
1 0:0.0071247 1:0.040527 
1 0:0.0062628 1:0.042138 
1 0:0.0061419 1:0.039351 
1 0:0.0050995 1:0.041989 
1 0:0.0051427 1:0.036958 
1 0:0.0052978 1:0.01124 
1 0:0.0055196 1:0.041332 
1 0:0.0060565 1:0.042615 
1 0:0.0049393 1:0.040551 
1 0:0.0050681 1:0.034831 
1 0:0.0051993 1:0.040676 
1 0:0.0069426 1:0.04329 
1 0:0.0051431 1:0.041585 
1 0:0.0057003 1:0.031779 
1 0:0.010441 1:0.061069 
1 0:0.0051085 1:0.040972 
1 0:0.0073551 1:0.04298 
1 0:0.0051654 1:0.040717 
1 0:0.005238 1:0.071678 
1 0:0.0050151 1:0.027324 
1 0:0.0050151 1:0.04544 
1 0:0.0074104 1:0.044842 
1 0:0.009607 1:0.061908 
1 0:0.0052426 1:0.042107 
1 0:0.009446 1:0.086594 
1 0:0.0070544 1:0.042282 
1 0:0.0049147 1:0.063079 
1 0:0.0050876 1:0.04046 
1 0:0.0056553 1:0.04584 
1 0:0.0055012 1:0.021089 
1 0:0.0053249 1:0.043173 
1 0:0.0047938 1:0.046862 
1 0:0.0054797 1:0.043112 
1 0:0.0051132 1:0.048967 
1 0:0.0063775 1:0.042095 
1 0:0.0065652 1:0.043894 
1 0:0.0053646 1:0.041419 
1 0:0.0050844 1:0.035651 
1 0:0.0057263 1:0.01574 
1 0:0.0062282 1:0.043119 
1 0:0.0056856 1:0.03965 
1 0:0.0053547 1:0.042325 
1 0:0.005082 1:0.039724 
1 0:0.0052002 1:0.042232 
1 0:0.004996 1:0.036975 
1 0:0.017868 1:0.014508 
1 0:0.0050834 1:0.040642 
1 0:0.0053003 1:0.042922 
1 0:0.0051618 1:0.041013 
1 0:0.0050706 1:0.034771 
1 0:0.005387 1:0.041155 
1 0:0.0054298 1:0.043557 
1 0:0.0050758 1:0.041349 
1 0:0.0054976 1:0.030643 
1 0:0.0075088 1:0.054887 
1 0:0.0051062 1:0.040833 
1 0:0.0045831 1:0.042072 
-1 0:0.0038249 1:0.049558 
-1 0:0.0066084 1:0.073647 
-1 0:0.0065437 1:0.12135 
1 0:0.0066572 1:0.045113 
1 0:0.0037316 1:0.044986 
1 0:0.0051884 1:0.10566 
1 0:0.0051187 1:0.14021 
1 0:0.0056192 1:0.17555 
1 0:0.0051053 1:0.17235 
1 0:0.0044808 1:0.27409 
1 0:0.0070555 1:0.089625 
1 0:0.0051232 1:0.091395 
1 0:0.006941 1:0.092922 
1 0:0.0059158 1:0.076052 
1 0:0.0052484 1:0.13876 
1 0:0.0065207 1:0.15316 
1 0:0.0082882 1:0.11473 
1 0:0.00619 1:0.082696 
1 0:0.0053563 1:0.13701 
1 0:0.0049946 1:0.15031 
1 0:0.0079485 1:0.073512 
1 0:0.0037237 1:0.038807 
1 0:0.0061284 1:0.056021 
1 0:0.0038229 1:0.026191 
1 0:0.004969 1:0.024479 
1 0:0.0038451 1:0.064351 
1 0:0.0049591 1:0.096545 
1 0:0.0061177 1:0.24877 
1 0:0.0059686 1:0.14441 
1 0:0.006629 1:0.24586 
1 0:0.0061725 1:0.32958 
1 0:0.0053182 1:0.51839 
1 0:0.0044032 1:0.086824 
1 0:0.00458 1:0.12066 
1 0:0.0071362 1:0.074524 
1 0:0.0045289 1:0.13853 
1 0:0.0044398 1:0.1885 
1 0:0.0063746 1:0.046897 
1 0:0.006849 1:0.071352 
1 0:0.0048904 1:0.09142 
1 0:0.0053142 1:0.12421 
1 0:0.0051793 1:0.17878 
1 0:0.0061538 1:0.24115 
1 0:0.0049786 1:0.07862 
1 0:0.0054429 1:0.094367 
1 0:0.0062542 1:0.24164 
1 0:0.0053405 1:0.035203 
1 0:0.0057243 1:0.052239 
1 0:0.0045704 1:0.070264 
1 0:0.00755 1:0.043208 
1 0:0.0061524 1:0.022762 
1 0:0.0069186 1:0.1411 
1 0:0.0051046 1:0.16446 
1 0:0.0077537 1:0.31667 
1 0:0.0059699 1:0.13632 
1 0:0.0045527 1:0.21249 
1 0:0.0057191 1:0.094974 
1 0:0.0055425 1:0.095083 
1 0:0.0050731 1:0.075138 
1 0:0.0056698 1:0.10437 
1 0:0.0055472 1:0.13045 
1 0:0.0054679 1:0.040108 
1 0:0.003962 1:0.28191 
1 0:0.0052955 1:0.10277 
1 0:0.0051552 1:0.15883 
1 0:0.0063554 1:0.24667 
1 0:0.0053689 1:0.091669 
1 0:0.0050987 1:0.074155 
1 0:0.0060889 1:0.038987 
1 0:0.0067177 1:0.0085305 
1 0:0.0045033 1:0.055154 
1 0:0.005398 1:0.11409 
1 0:0.0054249 1:0.14656 
1 0:0.0050525 1:0.56058 
1 0:0.0069357 1:0.14439 
1 0:0.0063398 1:0.18903 
1 0:0.0064505 1:0.29955 
1 0:0.0049958 1:0.084141 
1 0:0.006011 1:0.094844 
1 0:0.0050887 1:0.086262 
1 0:0.0060783 1:0.088139 
1 0:0.0053965 1:0.14528 
1 0:0.0044293 1:0.15562 
1 0:0.0051911 1:0.086477 
1 0:0.0051041 1:0.092577 
1 0:0.0052685 1:0.14293 
1 0:0.0050459 1:0.16501 
1 0:0.0042726 1:0.04015 
1 0:0.0039278 1:0.043243 
1 0:0.0090721 1:0.14609 
1 0:0.0048857 1:0.064198 
1 0:0.0080939 1:0.017304 
1 0:0.0063868 1:0.024895 
1 0:0.0042388 1:0.087513 
1 0:0.0071019 1:0.18202 
1 0:0.0048593 1:0.15295 
1 0:0.0044119 1:0.26382 
1 0:0.0055253 1:0.33677 
1 0:0.0048849 1:0.40507 
1 0:0.0047372 1:0.088722 
1 0:0.0042375 1:0.12264 
1 0:0.0056346 1:0.084043 
1 0:0.0071493 1:0.14132 
1 0:0.00634 1:0.20806 
1 0:0.0053267 1:0.13496 
1 0:0.0047029 1:0.043878 
1 0:0.0050522 1:0.079612 
1 0:0.0059898 1:0.08526 
1 0:0.0050898 1:0.13405 
1 0:0.005867 1:0.19228 
1 0:0.0050707 1:0.17487 
1 0:0.0056267 1:0.073302 
1 0:0.0048883 1:0.11776 
1 0:0.0041583 1:0.17382 
1 0:0.0040091 1:0.038044 
1 0:0.0066725 1:0.055968 
1 0:0.0071015 1:0.079479 
1 0:0.004946 1:0.025798 
1 0:0.0048312 1:0.13248 
1 0:0.0050507 1:0.17897 
1 0:0.004558 1:0.24353 
1 0:0.006007 1:0.14163 
1 0:0.0065973 1:0.23617 
1 0:0.0059375 1:0.45891 
1 0:0.0057923 1:0.092421 
1 0:0.0052687 1:0.092529 
1 0:0.0059146 1:0.072889 
1 0:0.0055011 1:0.11774 
1 0:0.0047237 1:0.12994 
1 0:0.0053317 1:0.071631 
1 0:0.0061096 1:0.043818 
1 0:0.0076209 1:0.18235 
1 0:0.0053204 1:0.11505 
1 0:0.0057855 1:0.17111 
1 0:0.0047953 1:0.15966 
1 0:0.0051308 1:0.085583 
1 0:0.0058933 1:0.085719 
1 0:0.0066026 1:0.033583 
1 0:0.0051935 1:0.010619 
1 0:0.0037833 1:0.059294 
1 0:0.0063094 1:0.23627 
1 0:0.0055142 1:0.11915 
1 0:0.0049811 1:0.15318 
1 0:0.0061114 1:0.46958 
1 0:0.004765 1:0.13256 
1 0:0.0044903 1:0.20278 
1 0:0.0048731 1:0.31323 
1 0:0.0041807 1:0.47438 
1 0:0.0061711 1:0.088506 
1 0:0.0051553 1:0.093676 
1 0:0.0051399 1:0.081418 
1 0:0.0056441 1:0.097704 
1 0:0.0059666 1:0.14917 
1 0:0.0057153 1:0.051517 
1 0:0.0060308 1:0.069744 
1 0:0.0054822 1:0.10126 
1 0:0.0060488 1:0.15163 
1 0:0.0050543 1:0.23137 
1 0:0.0052815 1:0.18204 
1 0:0.0089827 1:0.019668 
1 0:0.0039415 1:0.05217 
1 0:0.0048952 1:0.078957 
1 0:0.007497 1:0.071403 
1 0:0.005282 1:0.018062 
1 0:0.0047129 1:0.044387 
1 0:0.0042153 1:0.093844 
1 0:0.0043441 1:0.61014 
1 0:0.0051961 1:0.14542 
1 0:0.0069112 1:0.16675 
1 0:0.0062028 1:0.28688 
1 0:0.0058233 1:0.26385 
1 0:0.0045528 1:0.099765 
1 0:0.0057407 1:0.11178 
1 0:0.0048575 1:0.098332 
1 0:0.004428 1:0.14594 
1 0:0.0051297 1:0.21792 
1 0:0.0065636 1:0.10222 
1 0:0.0066061 1:0.04601 
1 0:0.0049856 1:0.090855 
1 0:0.005868 1:0.13959 
1 0:0.0051226 1:0.13203 
1 0:0.0051072 1:0.066575 
1 0:0.0055312 1:0.14878 
1 0:0.0077476 1:0.10778 
1 0:0.0035006 1:0.044678 
1 0:0.0046386 1:0.055515 
1 0:0.0047638 1:0.08758 
1 0:0.0055681 1:0.016378 
1 0:0.0047025 1:0.39864 
1 0:0.0054679 1:0.13573 
1 0:0.0055425 1:0.19467 
1 0:0.0066658 1:0.18044 
1 0:0.0048415 1:0.15438 
1 0:0.0045964 1:0.24897 
1 0:0.0040945 1:0.34153 
1 0:0.0051768 1:0.090237 
1 0:0.0063318 1:0.094237 
1 0:0.0057199 1:0.072778 
1 0:0.0055264 1:0.12144 
1 0:0.0067541 1:0.13654 
1 0:0.0063832 1:0.049172 
1 0:0.0046184 1:0.047247 
1 0:0.004573 1:0.12068 
1 0:0.0061172 1:0.1251 
1 0:0.0069113 1:0.18377 
1 0:0.0055401 1:0.10992 
1 0:0.0052454 1:0.080427 
1 0:0.0049043 1:0.10363 
1 0:0.0061954 1:0.025645 
1 0:0.0028265 1:0.03654 
1 0:0.0059053 1:0.053408 
1 0:0.003975 1:0.15946 
1 0:0.0049999 1:0.1221 
1 0:0.0050764 1:0.16958 
1 0:0.0059026 1:0.38253 
1 0:0.006445 1:0.13905 
1 0:0.0067004 1:0.22218 
1 0:0.0056258 1:0.33945 
1 0:0.0065885 1:0.33725 
1 0:0.0050636 1:0.088116 
1 0:0.0052648 1:0.094946 
1 0:0.0051162 1:0.07614 
1 0:0.0063629 1:0.11284 
1 0:0.004743 1:0.14849 
1 0:0.0071942 1:0.047132 
1 0:0.0056791 1:0.07166 
1 0:0.0060054 1:0.11128 
1 0:0.0051222 1:0.17201 
1 0:0.0050207 1:0.19811 
1 0:0.006456 1:0.017352 
1 0:0.0068264 1:0.057545 
1 0:0.007179 1:0.051601 
1 0:0.0044588 1:0.08144 
1 0:0.0044717 1:0.14496 
1 0:0.0076168 1:0.020237 
1 0:0.0056749 1:0.046914 
1 0:0.005526 1:0.09258 
1 0:0.0052019 1:0.06826 
1 0:0.0074577 1:0.43145 
1 0:0.0051331 1:0.11338 
1 0:0.0044232 1:0.18484 
1 0:0.0051419 1:0.30222 
1 0:0.005322 1:0.22645 
1 0:0.0050681 1:0.082753 
1 0:0.0058841 1:0.092407 
1 0:0.0054196 1:0.13929 
1 0:0.0066634 1:0.15837 
1 0:0.0051205 1:0.065659 
1 0:0.0045642 1:0.056092 
1 0:0.0040149 1:0.32862 
1 0:0.0070447 1:0.098337 
1 0:0.0070605 1:0.14508 
1 0:0.0051103 1:0.11024 
1 0:0.0052399 1:0.067825 
1 0:0.0055266 1:0.17157 
1 0:0.0040141 1:0.058208 
1 0:0.004279 1:0.049373 
1 0:0.0067838 1:0.057851 
1 0:0.0060719 1:0.10348 
1 0:0.0068134 1:0.016191 
1 0:0.0056614 1:0.30866 
1 0:0.0054076 1:0.13819 
1 0:0.0049407 1:0.2043 
1 0:0.0048702 1:0.56082 
1 0:0.0058454 1:0.14853 
1 0:0.0065 1:0.17072 
1 0:0.00621 1:0.27435 
1 0:0.0074662 1:0.21912 
1 0:0.0058136 1:0.093493 
1 0:0.0053006 1:0.09116 
1 0:0.0054108 1:0.077799 
1 0:0.0053425 1:0.12658 
1 0:0.0044942 1:0.13961 
1 0:0.0067326 1:0.041913 
1 0:0.0046256 1:0.10848 
1 0:0.0069797 1:0.13233 
1 0:0.0074483 1:0.19621 
1 0:0.005263 1:0.099144 
1 0:0.0051431 1:0.072381 
1 0:0.0058004 1:0.1306 
1 0:0.0048239 1:0.015843 
1 0:0.0028737 1:0.041317 
1 0:0.004549 1:0.054314 
1 0:0.0069999 1:0.09543 
1 0:0.0052521 1:0.12926 
1 0:0.0052777 1:0.18498 
1 0:0.0053051 1:0.28501 
1 0:0.0045678 1:0.14829 
1 0:0.0046074 1:0.23629 
1 0:0.0039116 1:0.22393 
1 0:0.0051399 1:0.090768 
1 0:0.005487 1:0.095469 
1 0:0.0053952 1:0.072585 
1 0:0.0057792 1:0.12054 
1 0:0.007249 1:0.15128 
1 0:0.0044693 1:0.04576 
1 0:0.0042363 1:0.23415 
1 0:0.0059039 1:0.0747 
1 0:0.0064577 1:0.12146 
1 0:0.0053689 1:0.14966 
1 0:0.0020578 1:0.030452 
1 0:0.0048145 1:0.05719 
1 0:0.0073971 1:0.046482 
1 0:0.0068188 1:0.096425 
1 0:0.007325 1:0.089665 
1 0:0.0047714 1:0.02195 
1 0:0.0037369 1:0.054644 
1 0:0.0048786 1:0.091704 
1 0:0.0053433 1:0.068957 
1 0:0.0051055 1:0.34381 
1 0:0.006633 1:0.11899 
1 0:0.00655 1:0.20886 
1 0:0.006387 1:0.15044 
1 0:0.005575 1:0.078256 
1 0:0.0055632 1:0.10973 
1 0:0.0047775 1:0.13683 
1 0:0.0048895 1:0.1657 
1 0:0.0074732 1:0.054602 
1 0:0.0086419 1:0.20905 
1 0:0.0070206 1:0.10602 
1 0:0.0076846 1:0.15412 
1 0:0.0054561 1:0.096935 
1 0:0.0056827 1:0.070579 
1 0:0.011412 1:0.022377 
1 0:0.0037707 1:0.053858 
1 0:0.0047616 1:0.059131 
1 0:0.0056897 1:0.11698 
1 0:0.007695 1:0.018437 
1 0:0.0055128 1:0.2024 
1 0:0.0049923 1:0.14332 
1 0:0.0051207 1:0.22435 
1 0:0.0064484 1:0.4675 
1 0:0.0056644 1:0.12812 
1 0:0.0045049 1:0.18188 
1 0:0.0052176 1:0.28875 
1 0:0.0037465 1:0.14855 
1 0:0.0051119 1:0.092848 
1 0:0.0050123 1:0.088206 
1 0:0.0059015 1:0.083429 
1 0:0.0060694 1:0.1306 
1 0:0.0066597 1:0.15033 
1 0:0.0048729 1:0.037637 
1 0:0.0076412 1:0.094169 
1 0:0.0073536 1:0.13929 
1 0:0.0071361 1:0.2086 
1 0:0.0050743 1:0.097513 
1 0:0.0051946 1:0.065662 
1 0:0.005165 1:0.15245 
1 0:0.0046093 1:0.10888 
1 0:0.01154 1:0.0093955 
1 0:0.0046345 1:0.046362 
1 0:0.0065049 1:0.056791 
1 0:0.0045206 1:0.094163 
1 0:0.0051283 1:0.13303 
1 0:0.0050233 1:0.19568 
1 0:0.0075737 1:0.23511 
1 0:0.006938 1:0.16061 
1 0:0.0060677 1:0.26353 
1 0:0.007845 1:0.1299 
1 0:0.005339 1:0.093372 
1 0:0.0055633 1:0.092587 
1 0:0.005448 1:0.069849 
1 0:0.0058574 1:0.13443 
1 0:0.0044532 1:0.14829 
1 0:0.005601 1:0.1706 
1 0:0.0076495 1:0.077662 
1 0:0.0072919 1:0.12995 
1 0:0.00551 1:0.14779 
1 0:0.0023729 1:0.033005 
1 0:0.0043383 1:0.050067 
1 0:0.0049741 1:0.041392 
1 0:0.0055008 1:0.023878 
1 0:0.0046203 1:0.060259 
1 0:0.0057189 1:0.1388 
1 0:0.005342 1:0.091148 
1 0:0.0049928 1:0.079029 
1 0:0.0051795 1:0.24618 
1 0:0.0045148 1:0.12905 
1 0:0.0048239 1:0.22309 
1 0:0.0063197 1:0.11524 
1 0:0.0055789 1:0.07406 
1 0:0.005843 1:0.11891 
1 0:0.0066013 1:0.1387 
1 0:0.0058894 1:0.18124 
1 0:0.0044601 1:0.047561 
1 0:0.0046081 1:0.12442 
1 0:0.0068234 1:0.1144 
1 0:0.0073613 1:0.16583 
1 0:0.0066175 1:0.29081 
1 0:0.0053764 1:0.088863 
1 0:0.005022 1:0.080773 
1 0:0.0058562 1:0.3449 
1 0:0.0044624 1:0.01093 
1 0:0.0044359 1:0.058684 
1 0:0.0060603 1:0.064706 
1 0:0.0049163 1:0.1352 
1 0:0.0049275 1:0.020962 
1 0:0.0051486 1:0.16136 
1 0:0.0051421 1:0.15688 
1 0:0.005324 1:0.24132 
1 0:0.0051554 1:0.38328 
1 0:0.0063742 1:0.13172 
1 0:0.0065871 1:0.20044 
1 0:0.0053137 1:0.31411 
1 0:0.0072365 1:0.1083 
1 0:0.0052226 1:0.095003 
1 0:0.0049582 1:0.082448 
1 0:0.006563 1:0.096996 
1 0:0.004767 1:0.12878 
1 0:0.0049308 1:0.15684 
1 0:0.0071434 1:0.037921 
1 0:0.0064665 1:0.38488 
1 0:0.0082528 1:0.095103 
1 0:0.0069484 1:0.14785 
1 0:0.0067585 1:0.33361 
1 0:0.0050214 1:0.09288 
1 0:0.0051767 1:0.066297 
1 0:0.0089659 1:0.056358 
1 0:0.0058833 1:0.0074237 
1 0:0.0036799 1:0.050406 
1 0:0.0057253 1:0.10375 
1 0:0.0050157 1:0.13811 
1 0:0.0042149 1:0.17434 
1 0:0.0044276 1:0.17182 
1 0:0.0055007 1:0.27847 
1 0:0.0041966 1:0.089867 
1 0:0.0053639 1:0.092683 
1 0:0.0060522 1:0.09074 
1 0:0.0055887 1:0.075322 
1 0:0.0055574 1:0.14192 
1 0:0.006439 1:0.15371 
1 0:0.0062364 1:0.10786 
1 0:0.0086545 1:0.083769 
1 0:0.0072495 1:0.1369 
1 0:0.0051099 1:0.15173 
1 0:0.006912 1:0.063747 
1 0:0.0030926 1:0.039331 
1 0:0.0069001 1:0.056821 
1 0:0.0057682 1:0.024307 
1 0:0.0047525 1:0.024358 
1 0:0.0040626 1:0.064434 
1 0:0.0050089 1:0.095146 
1 0:0.005168 1:0.08678 
1 0:0.0056876 1:0.09575 
1 0:0.0076682 1:0.1872 
1 0:0.0066617 1:0.14457 
1 0:0.0058708 1:0.24778 
1 0:0.0046597 1:0.46788 
1 0:0.0054357 1:0.09379 
1 0:0.0052959 1:0.074848 
1 0:0.0053597 1:0.12813 
1 0:0.0046025 1:0.13717 
1 0:0.0070698 1:0.048437 
1 0:0.0048918 1:0.088803 
1 0:0.0064282 1:0.12399 
1 0:0.0061882 1:0.17912 
1 0:0.0073054 1:0.22031 
1 0:0.0051307 1:0.081114 
1 0:0.0056573 1:0.10058 
1 0:0.0047191 1:0.22751 
1 0:0.0030305 1:0.036385 
1 0:0.0047453 1:0.051159 
1 0:0.0058235 1:0.071286 
1 0:0.006513 1:0.037779 
1 0:0.0057642 1:0.13778 
1 0:0.0052314 1:0.1686 
1 0:0.0062386 1:0.29006 
1 0:0.0046321 1:0.13508 
1 0:0.0048625 1:0.21303 
1 0:0.0047396 1:0.093355 
1 0:0.0054894 1:0.096106 
1 0:0.0051415 1:0.075897 
1 0:0.0057259 1:0.10451 
1 0:0.0069555 1:0.13266 
1 0:0.0045552 1:0.091978 
1 0:0.0044183 1:0.040031 
1 0:0.0052227 1:0.27812 
1 0:0.0066978 1:0.10382 
1 0:0.0060762 1:0.15835 
1 0:0.0079468 1:0.22949 
1 0:0.0060414 1:0.091465 
1 0:0.0052923 1:0.073495 
1 0:0.0062195 1:0.037562 
1 0:0.0050459 1:0.0090083 
1 0:0.0043032 1:0.055912 
1 0:0.0048947 1:0.11302 
1 0:0.0052328 1:0.14861 
1 0:0.0053313 1:0.56284 
1 0:0.0080291 1:0.13914 
1 0:0.0064218 1:0.1923 
1 0:0.0051532 1:0.30075 
1 0:0.0068394 1:0.085451 
1 0:0.0054359 1:0.093233 
1 0:0.0055438 1:0.086595 
1 0:0.0057259 1:0.088695 
1 0:0.0047676 1:0.14413 
1 0:0.0052742 1:0.15703 
1 0:0.0088475 1:0.081783 
1 0:0.0064291 1:0.092697 
1 0:0.006073 1:0.143 
1 0:0.0049697 1:0.16443 
1 0:0.0062466 1:0.038413 
1 0:0.0049039 1:0.045283 
1 0:0.0091277 1:0.12115 
1 0:0.0048396 1:0.064272 
1 0:0.0084391 1:0.016426 
1 0:0.006489 1:0.025353 
1 0:0.0049851 1:0.08612 
1 0:0.0050226 1:0.078378 
1 0:0.0058647 1:0.56847 
1 0:0.0040626 1:0.1392 
1 0:0.0047188 1:0.15493 
1 0:0.0056168 1:0.26317 
1 0:0.0059128 1:0.37421 
1 0:0.0053733 1:0.092757 
1 0:0.0055254 1:0.075671 
1 0:0.0061686 1:0.13465 
1 0:0.0066161 1:0.14365 
1 0:0.0048308 1:0.049376 
1 0:0.0075141 1:0.085237 
1 0:0.0058972 1:0.13263 
1 0:0.0052254 1:0.19387 
1 0:0.0059233 1:0.17019 
1 0:0.0051922 1:0.072432 
1 0:0.0051228 1:0.11971 
1 0:0.005212 1:0.16986 
1 0:0.0043577 1:0.039998 
1 0:0.0062367 1:0.055012 
1 0:0.0051417 1:0.081438 
1 0:0.006837 1:0.024921 
1 0:0.0054769 1:0.13491 
1 0:0.0049715 1:0.1788 
1 0:0.0062631 1:0.24068 
1 0:0.0069017 1:0.14606 
1 0:0.0057737 1:0.23744 
1 0:0.0052443 1:0.4355 
1 0:0.0058175 1:0.093414 
1 0:0.0054472 1:0.093456 
1 0:0.005287 1:0.07044 
1 0:0.0056758 1:0.11772 
1 0:0.0045647 1:0.12991 
1 0:0.0076306 1:0.067917 
1 0:0.0064667 1:0.044541 
1 0:0.0061522 1:0.15949 
1 0:0.0058524 1:0.11512 
1 0:0.0052427 1:0.17164 
1 0:0.0061054 1:0.15342 
1 0:0.0049956 1:0.084817 
1 0:0.0053998 1:0.09068 
1 0:0.00611 1:0.03181 
1 0:0.010336 1:0.011885 
1 0:0.0049567 1:0.059471 
1 0:0.0045465 1:0.22322 
1 0:0.0055791 1:0.12199 
1 0:0.0053175 1:0.15671 
1 0:0.0051802 1:0.45756 
1 0:0.0042848 1:0.13257 
1 0:0.0051207 1:0.20455 
1 0:0.0062979 1:0.31902 
1 0:0.00485 1:0.4671 
1 0:0.0053847 1:0.086829 
1 0:0.0057639 1:0.09501 
1 0:0.0054295 1:0.079659 
1 0:0.0063346 1:0.10047 
1 0:0.0062928 1:0.15002 
1 0:0.004307 1:0.050775 
1 0:0.0054862 1:0.069429 
1 0:0.0053816 1:0.1014 
1 0:0.0052462 1:0.15222 
1 0:0.0062736 1:0.22695 
1 0:0.0050958 1:0.18523 
1 0:0.0061257 1:0.017678 
1 0:0.0038111 1:0.052241 
1 0:0.0080233 1:0.077526 
1 0:0.0067285 1:0.07526 
1 0:0.0047491 1:0.017979 
1 0:0.002984 1:0.045423 
1 0:0.0041843 1:0.094071 
1 0:0.0045596 1:0.60626 
1 0:0.0073522 1:0.14443 
1 0:0.0062526 1:0.17126 
1 0:0.0049781 1:0.28624 
1 0:0.0041728 1:0.25129 
1 0:0.0041202 1:0.10324 
1 0:0.0054392 1:0.10731 
1 0:0.0048872 1:0.09849 
1 0:0.005274 1:0.14694 
1 0:0.0063478 1:0.22324 
1 0:0.0079027 1:0.094546 
1 0:0.006148 1:0.045523 
1 0:0.0061743 1:0.090684 
1 0:0.0051907 1:0.14007 
1 0:0.0053618 1:0.13162 
1 0:0.0052224 1:0.066837 
1 0:0.0049038 1:0.14978 
1 0:0.0064113 1:0.095021 
1 0:0.0034076 1:0.044764 
1 0:0.0055043 1:0.056417 
1 0:0.0068752 1:0.08953 
1 0:0.0055666 1:0.016405 
1 0:0.0040377 1:0.39835 
1 0:0.0050102 1:0.13371 
1 0:0.0053385 1:0.19699 
1 0:0.0046186 1:0.17558 
1 0:0.0045723 1:0.15423 
1 0:0.0058257 1:0.25442 
1 0:0.0053433 1:0.32805 
1 0:0.0052457 1:0.090628 
1 0:0.0057727 1:0.092465 
1 0:0.0054537 1:0.072277 
1 0:0.0056051 1:0.12454 
1 0:0.0061489 1:0.13627 
1 0:0.0042462 1:0.048162 
1 0:0.0049435 1:0.04748 
1 0:0.0045257 1:0.12043 
1 0:0.0051712 1:0.12607 
1 0:0.0052446 1:0.1859 
1 0:0.0049088 1:0.11026 
1 0:0.0053068 1:0.078139 
1 0:0.0055681 1:0.1068 
1 0:0.0083552 1:0.023616 
1 0:0.0030539 1:0.036745 
1 0:0.0051701 1:0.054184 
1 0:0.0055432 1:0.15021 
1 0:0.0051067 1:0.12279 
1 0:0.004949 1:0.16837 
1 0:0.0068119 1:0.36348 
1 0:0.0066312 1:0.14076 
1 0:0.0055355 1:0.22542 
1 0:0.0045613 1:0.3364 
1 0:0.0053173 1:0.30709 
1 0:0.0054315 1:0.089479 
1 0:0.0052231 1:0.093902 
1 0:0.0051059 1:0.076287 
1 0:0.0054187 1:0.11277 
1 0:0.0049042 1:0.14877 
1 0:0.0074526 1:0.046959 
1 0:0.0054567 1:0.071759 
1 0:0.0052165 1:0.11197 
1 0:0.0051007 1:0.1714 
1 0:0.0053897 1:0.20476 
1 0:0.0056163 1:0.02319 
1 0:0.0073962 1:0.056375 
1 0:0.0049621 1:0.049087 
1 0:0.0054147 1:0.08191 
1 0:0.0041738 1:0.14435 
1 0:0.0060546 1:0.020888 
1 0:0.0050339 1:0.04931 
1 0:0.0049507 1:0.11398 
1 0:0.0044538 1:0.4724 
1 0:0.0046281 1:0.12514 
1 0:0.0054988 1:0.18291 
1 0:0.0062062 1:0.30229 
1 0:0.0064909 1:0.17556 
1 0:0.0043305 1:0.10677 
1 0:0.0057133 1:0.099805 
1 0:0.0057153 1:0.11491 
1 0:0.0054868 1:0.15699 
1 0:0.0043114 1:0.070895 
1 0:0.0059409 1:0.047178 
1 0:0.0051066 1:0.32174 
1 0:0.0052409 1:0.098902 
1 0:0.0053363 1:0.14655 
1 0:0.0053439 1:0.10785 
1 0:0.0052754 1:0.064749 
1 0:0.0057341 1:0.17978 
1 0:0.0062096 1:0.055662 
1 0:0.0040524 1:0.050372 
1 0:0.005221 1:0.058462 
1 0:0.0045798 1:0.10408 
1 0:0.0049598 1:0.01592 
1 0:0.0070481 1:0.27823 
1 0:0.0053809 1:0.14091 
1 0:0.0053677 1:0.20945 
1 0:0.0050984 1:0.56175 
1 0:0.0079328 1:0.1458 
1 0:0.0061896 1:0.1726 
1 0:0.0048653 1:0.27483 
1 0:0.0058646 1:0.19977 
1 0:0.005571 1:0.092612 
1 0:0.0058913 1:0.092044 
1 0:0.00551 1:0.077556 
1 0:0.0048621 1:0.12588 
1 0:0.0056648 1:0.14173 
1 0:0.007874 1:0.040484 
1 0:0.0057245 1:0.10452 
1 0:0.0054489 1:0.13467 
1 0:0.0059748 1:0.19938 
1 0:0.0050485 1:0.09854 
1 0:0.00513 1:0.072355 
1 0:0.0050618 1:0.13318 
1 0:0.0063895 1:0.015358 
1 0:0.0034 1:0.041632 
1 0:0.0058403 1:0.054595 
1 0:0.0067181 1:0.093323 
1 0:0.0051547 1:0.12753 
1 0:0.0051665 1:0.18729 
1 0:0.0045494 1:0.28232 
1 0:0.0049559 1:0.14911 
1 0:0.0060287 1:0.24024 
1 0:0.0050133 1:0.21694 
1 0:0.0050795 1:0.089931 
1 0:0.0053251 1:0.094735 
1 0:0.0053488 1:0.072711 
1 0:0.006693 1:0.12624 
1 0:0.0061783 1:0.14962 
1 0:0.005158 1:0.046092 
1 0:0.0044395 1:0.2333 
1 0:0.0053577 1:0.074963 
1 0:0.0052756 1:0.12329 
1 0:0.0049925 1:0.14649 
1 0:0.0021722 1:0.030588 
1 0:0.0050253 1:0.057577 
1 0:0.0071805 1:0.048191 
1 0:0.005721 1:0.097905 
1 0:0.0084262 1:0.0764 
1 0:0.0057423 1:0.022242 
1 0:0.0042091 1:0.054623 
1 0:0.0041421 1:0.13051 
1 0:0.0040806 1:0.38852 
1 0:0.006535 1:0.13214 
1 0:0.0052888 1:0.20931 
1 0:0.004447 1:0.30733 
1 0:0.0046856 1:0.10417 
1 0:0.0041251 1:0.11571 
1 0:0.0054947 1:0.082846 
1 0:0.0048514 1:0.12293 
1 0:0.0061199 1:0.16934 
1 0:0.007256 1:0.056292 
1 0:0.0050831 1:0.049833 
1 0:0.0063783 1:0.1843 
1 0:0.0058144 1:0.10813 
1 0:0.0061743 1:0.1565 
1 0:0.0050062 1:0.091853 
1 0:0.0052072 1:0.071986 
1 0:0.0094306 1:0.017722 
1 0:0.0043301 1:0.05476 
1 0:0.0065907 1:0.05966 
1 0:0.0066659 1:0.12076 
1 0:0.0067907 1:0.018822 
1 0:0.0037828 1:0.20304 
1 0:0.0051907 1:0.14502 
1 0:0.004918 1:0.22227 
1 0:0.0053044 1:0.4521 
1 0:0.0044345 1:0.12633 
1 0:0.0054899 1:0.18463 
1 0:0.0065308 1:0.29504 
1 0:0.0047764 1:0.14605 
1 0:0.0055147 1:0.093995 
1 0:0.0051571 1:0.087139 
1 0:0.0063096 1:0.085659 
1 0:0.0062265 1:0.13081 
1 0:0.0050732 1:0.15109 
1 0:0.0046636 1:0.037561 
1 0:0.0051606 1:0.095065 
1 0:0.0063051 1:0.14247 
1 0:0.0068595 1:0.21163 
1 0:0.005138 1:0.098046 
1 0:0.0052054 1:0.065939 
1 0:0.0058078 1:0.15971 
1 0:0.0057008 1:0.10732 
1 0:0.0051287 1:0.0090798 
1 0:0.0037947 1:0.047674 
1 0:0.0049184 1:0.056067 
1 0:0.0045045 1:0.094304 
1 0:0.0051968 1:0.13473 
1 0:0.008123 1:0.21369 
1 0:0.0059679 1:0.16414 
1 0:0.0047676 1:0.26181 
1 0:0.0071778 1:0.11556 
1 0:0.0051794 1:0.092966 
1 0:0.0056034 1:0.093883 
1 0:0.0058239 1:0.072858 
1 0:0.0050335 1:0.13219 
1 0:0.0057463 1:0.14945 
1 0:0.006604 1:0.15413 
1 0:0.0054495 1:0.07918 
1 0:0.0058828 1:0.132 
1 0:0.0051539 1:0.1466 
1 0:0.002868 1:0.033563 
1 0:0.0050605 1:0.049962 
1 0:0.0038246 1:0.041122 
1 0:0.0050953 1:0.023851 
1 0:0.0041685 1:0.060821 
1 0:0.0046246 1:0.13046 
1 0:0.0050941 1:0.089878 
1 0:0.0052945 1:0.079806 
1 0:0.0045496 1:0.24467 
1 0:0.0049328 1:0.12937 
1 0:0.0060937 1:0.22907 
1 0:0.0069782 1:0.11025 
1 0:0.0051782 1:0.073253 
1 0:0.0057252 1:0.12255 
1 0:0.005857 1:0.13737 
1 0:0.0045905 1:0.18095 
1 0:0.0053488 1:0.047891 
1 0:0.0062602 1:0.12178 
1 0:0.0061962 1:0.11787 
1 0:0.0071759 1:0.1688 
1 0:0.0049809 1:0.28797 
1 0:0.0052802 1:0.086999 
1 0:0.0055832 1:0.082179 
1 0:0.0065861 1:0.31626 
1 0:0.0049529 1:0.010803 
1 0:0.0036721 1:0.059241 
1 0:0.004491 1:0.064848 
1 0:0.0046269 1:0.13518 
1 0:0.006095 1:0.021416 
1 0:0.0074922 1:0.15498 
1 0:0.0050288 1:0.15565 
1 0:0.0052251 1:0.24412 
1 0:0.0065882 1:0.36964 
1 0:0.0067291 1:0.13254 
1 0:0.0051657 1:0.20244 
1 0:0.0044727 1:0.31188 
1 0:0.0073675 1:0.1034 
1 0:0.0051895 1:0.093964 
1 0:0.004993 1:0.08201 
1 0:0.0056074 1:0.096997 
1 0:0.0050744 1:0.12915 
1 0:0.0065578 1:0.15972 
1 0:0.0066711 1:0.038574 
1 0:0.0047115 1:0.36906 
1 0:0.0070941 1:0.095679 
1 0:0.0071759 1:0.15084 
1 0:0.0050118 1:0.32633 
1 0:0.0051034 1:0.092854 
1 0:0.0051918 1:0.066358 
1 0:0.00627 1:0.05204 
1 0:0.0081197 1:0.0073486 
1 0:0.0043422 1:0.050753 
1 0:0.0056855 1:0.1066 
1 0:0.0051074 1:0.14002 
1 0:0.0052983 1:0.17379 
1 0:0.0057114 1:0.17356 
1 0:0.006509 1:0.28659 
1 0:0.0045679 1:0.089391 
1 0:0.0054791 1:0.094626 
1 0:0.0052323 1:0.088583 
1 0:0.005937 1:0.075671 
1 0:0.0060159 1:0.14463 
1 0:0.0051172 1:0.15236 
1 0:0.0041707 1:0.10836 
1 0:0.0076478 1:0.086661 
1 0:0.0073134 1:0.13775 
1 0:0.005306 1:0.1556 
1 0:0.0046311 1:0.060028 
1 0:0.0029301 1:0.039357 
1 0:0.0057689 1:0.057245 
1 0:0.0082457 1:0.020936 
1 0:0.005153 1:0.024465 
1 0:0.0046196 1:0.065146 
1 0:0.0052508 1:0.093412 
1 0:0.0053092 1:0.0868 
1 0:0.0074655 1:0.17513 
1 0:0.0058488 1:0.14521 
1 0:0.0046117 1:0.24762 
1 0:0.0042373 1:0.46614 
1 0:0.0054484 1:0.093481 
1 0:0.0054081 1:0.074548 
1 0:0.0050459 1:0.12772 
1 0:0.0058019 1:0.13937 
1 0:0.0056846 1:0.048332 
1 0:0.0050238 1:0.086344 
1 0:0.0067695 1:0.12683 
1 0:0.0076634 1:0.18121 
1 0:0.0057089 1:0.20681 
1 0:0.0051636 1:0.081145 
1 0:0.0051144 1:0.10346 
1 0:0.0040608 1:0.22562 
1 0:0.0026049 1:0.036481 
1 0:0.0055366 1:0.052053 
1 0:0.0068366 1:0.07268 
1 0:0.0045665 1:0.035932 
1 0:0.0046396 1:0.13576 
1 0:0.0051788 1:0.17133 
1 0:0.0042452 1:0.28389 
1 0:0.005109 1:0.13621 
1 0:0.0064131 1:0.21727 
1 0:0.0056149 1:0.55851 
1 0:0.0048657 1:0.093597 
1 0:0.0052919 1:0.09558 
1 0:0.0051119 1:0.076029 
1 0:0.0066703 1:0.10893 
1 0:0.0059058 1:0.13089 
1 0:0.0044935 1:0.09158 
1 0:0.0054617 1:0.04047 
1 0:0.0073138 1:0.2595 
1 0:0.0071447 1:0.10604 
1 0:0.0075002 1:0.15994 
1 0:0.0067606 1:0.21618 
1 0:0.0053099 1:0.088754 
1 0:0.0052096 1:0.073908 
1 0:0.0056629 1:0.036998 
1 0:0.0047312 1:0.0091418 
1 0:0.0039872 1:0.056287 
1 0:0.0062494 1:0.32598 
1 0:0.0049869 1:0.11331 
1 0:0.0049892 1:0.14781 
1 0:0.0060222 1:0.55781 
1 0:0.0060317 1:0.13794 
1 0:0.005131 1:0.19209 
1 0:0.0044805 1:0.29973 
1 0:0.0066152 1:0.086498 
1 0:0.0052131 1:0.092701 
1 0:0.0057784 1:0.08511 
1 0:0.0057434 1:0.089107 
1 0:0.0050587 1:0.14523 
1 0:0.0065446 1:0.16018 
1 0:0.0071887 1:0.060024 
1 0:0.0096549 1:0.074674 
1 0:0.0079315 1:0.095167 
1 0:0.0077267 1:0.14394 
1 0:0.0052658 1:0.27382 
1 0:0.0050467 1:0.16527 
1 0:0.0083111 1:0.033703 
1 0:0.0041624 1:0.047619 
1 0:0.0053315 1:0.10698 
1 0:0.0059641 1:0.06542 
1 0:0.0057017 1:0.016683 
1 0:0.0054666 1:0.025095 
1 0:0.0050111 1:0.086657 
1 0:0.005043 1:0.078537 
1 0:0.0051862 1:0.5552 
1 0:0.0053851 1:0.13774 
1 0:0.0058917 1:0.15842 
1 0:0.0066323 1:0.2697 
1 0:0.0059759 1:0.35451 
1 0:0.0053831 1:0.091672 
1 0:0.0057206 1:0.077599 
1 0:0.0061584 1:0.13564 
1 0:0.0049053 1:0.14279 
1 0:0.0062007 1:0.050503 
1 0:0.0062756 1:0.087507 
1 0:0.007221 1:0.13267 
1 0:0.006943 1:0.19425 
1 0:0.0062389 1:0.15664 
1 0:0.0051533 1:0.071727 
1 0:0.005712 1:0.12605 
1 0:0.0066598 1:0.15783 
1 0:0.0032204 1:0.041206 
1 0:0.004654 1:0.054114 
1 0:0.004536 1:0.08165 
1 0:0.0079576 1:0.021986 
1 0:0.005823 1:0.1363 
1 0:0.0052233 1:0.18272 
1 0:0.008084 1:0.22419 
1 0:0.0057032 1:0.1482 
1 0:0.0045448 1:0.23584 
1 0:0.0041704 1:0.42979 
1 0:0.0053492 1:0.092264 
1 0:0.005592 1:0.095214 
1 0:0.0054324 1:0.071466 
1 0:0.0052461 1:0.11575 
1 0:0.0060217 1:0.13199 
1 0:0.0076754 1:0.062342 
1 0:0.0054234 1:0.044688 
1 0:0.0042657 1:0.15112 
1 0:0.0072991 1:0.11631 
1 0:0.0068337 1:0.17133 
1 0:0.0079249 1:0.14056 
1 0:0.0055743 1:0.085153 
1 0:0.0049606 1:0.092007 
1 0:0.0051609 1:0.031165 
1 0:0.013956 1:0.017035 
1 0:0.0066911 1:0.059126 
1 0:0.0040267 1:0.22269 
1 0:0.0051135 1:0.12143 
1 0:0.0054269 1:0.16096 
1 0:0.0049718 1:0.45653 
1 0:0.0059628 1:0.13176 
1 0:0.0063598 1:0.21025 
1 0:0.0064379 1:0.32504 
1 0:0.0058089 1:0.44126 
1 0:0.0050622 1:0.086214 
1 0:0.0060203 1:0.094959 
1 0:0.0050135 1:0.078557 
1 0:0.005917 1:0.10419 
1 0:0.0053501 1:0.14873 
1 0:0.0060351 1:0.050878 
1 0:0.0066814 1:0.069754 
1 0:0.0067893 1:0.10235 
1 0:0.0070341 1:0.15285 
1 0:0.0064507 1:0.20896 
1 0:0.0049627 1:0.18524 
1 0:0.0041993 1:0.017572 
1 0:0.0044366 1:0.052682 
1 0:0.010277 1:0.067785 
1 0:0.0048716 1:0.075898 
1 0:0.0069099 1:0.018281 
1 0:0.0035779 1:0.045343 
1 0:0.0052908 1:0.089618 
1 0:0.0053323 1:0.070741 
1 0:0.0064763 1:0.48496 
1 0:0.0065719 1:0.11408 
1 0:0.0048345 1:0.17514 
1 0:0.0044832 1:0.28644 
1 0:0.0045022 1:0.27576 
1 0:0.0049903 1:0.088013 
1 0:0.0061442 1:0.086836 
1 0:0.0051464 1:0.13663 
1 0:0.0068951 1:0.14969 
1 0:0.0065452 1:0.082673 
1 0:0.0047029 1:0.053787 
1 0:0.0088354 1:0.090746 
1 0:0.0067434 1:0.13878 
1 0:0.0055926 1:0.12792 
1 0:0.0053365 1:0.066742 
1 0:0.0048734 1:0.15019 
1 0:0.004406 1:0.090909 
1 0:0.0041718 1:0.045046 
1 0:0.006628 1:0.057076 
1 0:0.006953 1:0.094142 
1 0:0.0066726 1:0.016743 
1 0:0.0049543 1:0.38751 
1 0:0.0050425 1:0.13392 
1 0:0.0049212 1:0.19544 
1 0:0.0046232 1:0.17494 
1 0:0.0061027 1:0.15666 
1 0:0.006577 1:0.2617 
1 0:0.0064519 1:0.29965 
1 0:0.0054455 1:0.092816 
1 0:0.0053246 1:0.091272 
1 0:0.005722 1:0.070565 
1 0:0.0056604 1:0.12675 
1 0:0.004685 1:0.13513 
1 0:0.0051891 1:0.048065 
1 0:0.0061379 1:0.048611 
1 0:0.0047386 1:0.11827 
1 0:0.006732 1:0.1261 
1 0:0.0057253 1:0.18561 
1 0:0.0053327 1:0.1071 
1 0:0.0052055 1:0.07707 
1 0:0.0058362 1:0.11227 
1 0:0.007488 1:0.021189 
1 0:0.0030446 1:0.036897 
1 0:0.0046055 1:0.053998 
1 0:0.0077335 1:0.13 
1 0:0.0055198 1:0.12616 
1 0:0.0051331 1:0.1701 
1 0:0.0061247 1:0.34643 
1 0:0.005399 1:0.14037 
1 0:0.0044874 1:0.22499 
1 0:0.0040142 1:0.30134 
1 0:0.0057506 1:0.090094 
1 0:0.0053259 1:0.094015 
1 0:0.0053362 1:0.075609 
1 0:0.0054642 1:0.113 
1 0:0.0060366 1:0.15079 
1 0:0.0055115 1:0.046212 
1 0:0.0062879 1:0.071959 
1 0:0.0060017 1:0.11199 
1 0:0.0058972 1:0.17047 
1 0:0.004025 1:0.027605 
1 0:0.0062193 1:0.054662 
1 0:0.0059105 1:0.049413 
1 0:0.0072119 1:0.085516 
1 0:0.0060785 1:0.13813 
1 0:0.0047833 1:0.020916 
1 0:0.0032928 1:0.050633 
1 0:0.0050009 1:0.091599 
1 0:0.005112 1:0.067276 
1 0:0.0047019 1:0.39429 
1 0:0.0057956 1:0.11509 
1 0:0.006728 1:0.19088 
1 0:0.0062117 1:0.31522 
1 0:0.0068359 1:0.19555 
1 0:0.0049341 1:0.082281 
1 0:0.0070441 1:0.097661 
1 0:0.0058884 1:0.13959 
1 0:0.0044019 1:0.15686 
1 0:0.006348 1:0.064568 
1 0:0.0063648 1:0.058236 
1 0:0.0069943 1:0.29866 
1 0:0.0062401 1:0.099327 
1 0:0.0056626 1:0.14624 
1 0:0.0058723 1:0.10855 
1 0:0.0051992 1:0.066417 
1 0:0.0053151 1:0.18476 
1 0:0.0092367 1:0.047277 
1 0:0.0037095 1:0.050357 
1 0:0.0045362 1:0.058236 
1 0:0.004761 1:0.10423 
1 0:0.0060771 1:0.016254 
1 0:0.0055468 1:0.25654 
1 0:0.0050427 1:0.14026 
1 0:0.005539 1:0.21474 
1 0:0.0059041 1:0.55952 
1 0:0.007204 1:0.14044 
1 0:0.004822 1:0.17183 
1 0:0.0045898 1:0.27453 
1 0:0.0037802 1:0.1976 
1 0:0.0051278 1:0.091412 
1 0:0.0069463 1:0.092689 
1 0:0.0058034 1:0.075612 
1 0:0.0052868 1:0.12725 
1 0:0.0067525 1:0.14459 
1 0:0.006583 1:0.038896 
1 0:0.0070197 1:0.099025 
1 0:0.0056541 1:0.13481 
1 0:0.0051618 1:0.20045 
1 0:0.0050792 1:0.098117 
1 0:0.0051986 1:0.07189 
1 0:0.004956 1:0.13339 
1 0:0.0054738 1:0.15264 
1 0:0.0098281 1:0.013757 
1 0:0.0039301 1:0.042551 
1 0:0.0068687 1:0.055513 
1 0:0.0046637 1:0.096488 
1 0:0.0049845 1:0.12641 
1 0:0.005 1:0.18634 
1 0:0.006226 1:0.2734 
1 0:0.006157 1:0.15264 
1 0:0.0066505 1:0.24654 
1 0:0.0069396 1:0.19441 
1 0:0.0051929 1:0.090375 
1 0:0.0053171 1:0.093742 
1 0:0.0054036 1:0.073705 
1 0:0.0059775 1:0.12789 
1 0:0.004571 1:0.14794 
1 0:0.0068028 1:0.047048 
1 0:0.0054951 1:0.22439 
1 0:0.0069178 1:0.075097 
1 0:0.0055188 1:0.12317 
1 0:0.0051521 1:0.1476 
1 0:0.0021415 1:0.030595 
1 0:0.0050155 1:0.048468 
1 0:0.0044688 1:0.098086 
1 0:0.0060687 1:0.067056 
1 0:0.0061249 1:0.022918 
1 0:0.0049571 1:0.055308 
1 0:0.0047577 1:0.13028 
1 0:0.0048152 1:0.3749 
1 0:0.0051594 1:0.13305 
1 0:0.0044376 1:0.20811 
1 0:0.0050246 1:0.30907 
1 0:0.004336 1:0.10228 
1 0:0.0043495 1:0.11447 
1 0:0.0053005 1:0.082075 
1 0:0.0056396 1:0.1256 
1 0:0.0065729 1:0.17244 
1 0:0.0052255 1:0.054181 
1 0:0.0046093 1:0.049614 
1 0:0.0039609 1:0.17843 
1 0:0.0053903 1:0.10831 
1 0:0.0051683 1:0.15736 
1 0:0.0053954 1:0.09177 
1 0:0.0050702 1:0.072682 
1 0:0.0039683 1:0.017131 
1 0:0.0044794 1:0.055489 
1 0:0.0071387 1:0.061544 
1 0:0.0060298 1:0.12337 
1 0:0.0047223 1:0.019002 
1 0:0.0048151 1:0.19972 
1 0:0.0054714 1:0.14929 
1 0:0.0051131 1:0.22447 
1 0:0.0046933 1:0.44839 
1 0:0.0054589 1:0.12744 
1 0:0.0065329 1:0.18969 
1 0:0.0061901 1:0.30034 
1 0:0.0081248 1:0.13505 
1 0:0.0060273 1:0.094735 
1 0:0.0050496 1:0.086176 
1 0:0.0059092 1:0.08869 
1 0:0.0051907 1:0.12921 
1 0:0.0044852 1:0.15075 
1 0:0.0065953 1:0.037841 
1 0:0.0054166 1:0.09485 
1 0:0.005179 1:0.14361 
1 0:0.0053274 1:0.2141 
1 0:0.0052018 1:0.097581 
1 0:0.0052397 1:0.066056 
1 0:0.0057035 1:0.16664 
1 0:0.0090526 1:0.096715 
1 0:0.0049186 1:0.0090187 
1 0:0.0033612 1:0.047811 
1 0:0.0056626 1:0.094748 
1 0:0.0052022 1:0.13446 
1 0:0.0047922 1:0.20305 
1 0:0.0045777 1:0.16416 
1 0:0.0046211 1:0.26137 
1 0:0.0044563 1:0.11199 
1 0:0.00514 1:0.09206 
1 0:0.0054421 1:0.093599 
1 0:0.0055325 1:0.074151 
1 0:0.0057575 1:0.13466 
1 0:0.0073088 1:0.15085 
1 0:0.0058778 1:0.14169 
1 0:0.0059916 1:0.079403 
1 0:0.0051119 1:0.13297 
1 0:0.0050018 1:0.1458 
1 0:0.008018 1:0.10059 
1 0:0.0034083 1:0.0347 
1 0:0.0070914 1:0.051167 
1 0:0.0060229 1:0.039022 
1 0:0.0047157 1:0.023831 
1 0:0.0039528 1:0.06091 
1 0:0.0046418 1:0.13001 
1 0:0.0049088 1:0.088925 
1 0:0.0055657 1:0.083513 
1 0:0.0053789 1:0.24393 
1 0:0.006685 1:0.13197 
1 0:0.0065184 1:0.23481 
1 0:0.0056597 1:0.10238 
1 0:0.0058691 1:0.072229 
1 0:0.0055264 1:0.12447 
1 0:0.0046642 1:0.13599 
1 0:0.004876 1:0.18172 
1 0:0.0069687 1:0.048248 
1 0:0.0073278 1:0.11079 
1 0:0.0052072 1:0.11918 
1 0:0.0054121 1:0.17103 
1 0:0.005759 1:0.28232 
1 0:0.0050993 1:0.085347 
1 0:0.0058814 1:0.087171 
1 0:0.0052415 1:0.29217 
1 0:0.006913 1:0.010771 
1 0:0.0039699 1:0.059277 
1 0:0.0046263 1:0.06486 
1 0:0.0056917 1:0.138 
1 0:0.0066634 1:0.021798 
1 0:0.0074833 1:0.14956 
1 0:0.0050284 1:0.15554 
1 0:0.0050129 1:0.24241 
1 0:0.0064375 1:0.3494 
1 0:0.0055377 1:0.13024 
1 0:0.0044827 1:0.20223 
1 0:0.0051987 1:0.31431 
1 0:0.0054766 1:0.10094 
1 0:0.0052147 1:0.093858 
1 0:0.0052365 1:0.081069 
1 0:0.0058184 1:0.098106 
1 0:0.0062797 1:0.13124 
1 0:0.006533 1:0.16362 
1 0:0.0049098 1:0.038514 
1 0:0.0042066 1:0.36768 
1 0:0.0052873 1:0.096412 
1 0:0.0055507 1:0.15348 
1 0:0.0062124 1:0.3239 
1 0:0.0053493 1:0.094509 
1 0:0.0052233 1:0.067476 
1 0:0.00552 1:0.051595 
1 0:0.0069987 1:0.0077898 
1 0:0.0048399 1:0.052431 
1 0:0.0052878 1:0.10776 
1 0:0.0051587 1:0.14269 
1 0:0.0082195 1:0.16754 
1 0:0.0068782 1:0.17837 
1 0:0.0060082 1:0.28946 
1 0:0.0060764 1:0.08707 
1 0:0.0052802 1:0.094772 
1 0:0.0050265 1:0.088199 
1 0:0.0077493 1:0.080025 
1 0:0.0056433 1:0.1433 
1 0:0.0044066 1:0.1515 
1 0:0.0052718 1:0.10616 
1 0:0.0051657 1:0.087973 
1 0:0.0054788 1:0.13913 
1 0:0.0051581 1:0.15676 
1 0:0.0047908 1:0.059699 
1 0:0.003346 1:0.039663 
1 0:0.0044791 1:0.057726 
1 0:0.0080282 1:0.018811 
1 0:0.0059766 1:0.024504 
1 0:0.0048627 1:0.066414 
1 0:0.0052044 1:0.089642 
1 0:0.005305 1:0.085323 
1 0:0.0051491 1:0.16927 
1 0:0.0045225 1:0.14455 
1 0:0.004834 1:0.24851 
1 0:0.0054283 1:0.45871 
1 0:0.0064708 1:0.094243 
1 0:0.0055357 1:0.073021 
1 0:0.0055454 1:0.1296 
1 0:0.0067266 1:0.14102 
1 0:0.0045082 1:0.047879 
1 0:0.0051656 1:0.084108 
1 0:0.0055239 1:0.12975 
1 0:0.0063901 1:0.18458 
1 0:0.0050102 1:0.20611 
1 0:0.0052663 1:0.080177 
1 0:0.0049954 1:0.10372 
1 0:0.0047998 1:0.22307 
1 0:0.0028947 1:0.036572 
1 0:0.0058111 1:0.053733 
1 0:0.0062185 1:0.073436 
1 0:0.0054597 1:0.035721 
1 0:0.0048039 1:0.13599 
1 0:0.0050618 1:0.17114 
1 0:0.0053018 1:0.28106 
1 0:0.006286 1:0.13974 
1 0:0.0065309 1:0.2231 
1 0:0.0058448 1:0.52572 
1 0:0.005789 1:0.09476 
1 0:0.0052628 1:0.094685 
1 0:0.0051138 1:0.076192 
1 0:0.0060776 1:0.11109 
1 0:0.0045501 1:0.12882 
1 0:0.0064625 1:0.088176 
1 0:0.0066076 1:0.04165 
1 0:0.007469 1:0.23089 
1 0:0.005714 1:0.10784 
1 0:0.0065197 1:0.16405 
1 0:0.0048006 1:0.21399 
1 0:0.0049888 1:0.087865 
1 0:0.0052951 1:0.075596 
1 0:0.0054971 1:0.036964 
1 0:0.0047113 1:0.0091658 
1 0:0.0039189 1:0.056332 
1 0:0.0050501 1:0.30259 
1 0:0.0053129 1:0.11573 
1 0:0.0050813 1:0.14915 
1 0:0.0067397 1:0.53058 
1 0:0.0041724 1:0.13827 
1 0:0.004431 1:0.19139 
1 0:0.0054876 1:0.30424 
1 0:0.0053117 1:0.085896 
1 0:0.0055122 1:0.094829 
1 0:0.004976 1:0.082679 
1 0:0.00584 1:0.088486 
1 0:0.005738 1:0.14837 
1 0:0.0064648 1:0.16127 
1 0:0.0046564 1:0.057928 
1 0:0.006405 1:0.072187 
1 0:0.0064866 1:0.097497 
1 0:0.0065399 1:0.14564 
1 0:0.0050694 1:0.27164 
1 0:0.0052905 1:0.17039 
1 0:0.0076455 1:0.028589 
1 0:0.0034487 1:0.048244 
1 0:0.0051777 1:0.10606 
1 0:0.0069093 1:0.0667 
1 0:0.0039459 1:0.017071 
1 0:0.0047638 1:0.024888 
1 0:0.005033 1:0.086329 
1 0:0.0050877 1:0.078195 
1 0:0.0050658 1:0.55325 
1 0:0.0080738 1:0.13113 
1 0:0.0066503 1:0.16282 
1 0:0.0058699 1:0.27434 
1 0:0.0051334 1:0.342 
1 0:0.0052937 1:0.090885 
1 0:0.0053102 1:0.079789 
1 0:0.0051903 1:0.13451 
1 0:0.0046366 1:0.14248 
1 0:0.0063591 1:0.051782 
1 0:0.0047698 1:0.089114 
1 0:0.0064161 1:0.13589 
1 0:0.0072439 1:0.19703 
1 0:0.0052275 1:0.1511 
1 0:0.0051347 1:0.072565 
1 0:0.0056708 1:0.13167 
1 0:0.0068554 1:0.14109 
1 0:0.0029188 1:0.041223 
1 0:0.0047426 1:0.053976 
1 0:0.00559 1:0.082615 
1 0:0.0060281 1:0.0194 
1 0:0.005612 1:0.13461 
1 0:0.0052769 1:0.18714 
1 0:0.0060208 1:0.20634 
1 0:0.0045506 1:0.14757 
1 0:0.0048771 1:0.23653 
1 0:0.0045996 1:0.42627 
1 0:0.0051336 1:0.090794 
1 0:0.0054387 1:0.095316 
1 0:0.005352 1:0.072633 
1 0:0.0056965 1:0.11707 
1 0:0.0071398 1:0.13425 
1 0:0.0051648 1:0.058861 
1 0:0.004447 1:0.044533 
1 0:0.0048305 1:0.15133 
1 0:0.0063855 1:0.11869 
1 0:0.0074078 1:0.17473 
1 0:0.0074918 1:0.13216 
1 0:0.0058507 1:0.083373 
1 0:0.0050684 1:0.091999 
1 0:0.005406 1:0.031082 
1 0:0.011467 1:0.02544 
1 0:0.0078549 1:0.05691 
1 0:0.005204 1:0.21385 
1 0:0.0049213 1:0.12052 
1 0:0.0050336 1:0.1611 
1 0:0.0054993 1:0.45619 
1 0:0.0074857 1:0.1325 
1 0:0.0064307 1:0.21406 
1 0:0.0051242 1:0.32549 
1 0:0.0057973 1:0.40977 
1 0:0.0055729 1:0.088543 
1 0:0.0052118 1:0.092914 
1 0:0.0058163 1:0.078188 
1 0:0.0055589 1:0.10552 
1 0:0.0046643 1:0.14779 
1 0:0.0076548 1:0.049829 
1 0:0.0065306 1:0.069599 
1 0:0.0068595 1:0.10558 
1 0:0.0051432 1:0.19517 
1 0:0.0049646 1:0.18528 
1 0:0.006953 1:0.016731 
1 0:0.0048584 1:0.055031 
1 0:0.0067263 1:0.058829 
1 0:0.0048357 1:0.076011 
1 0:0.0080285 1:0.018641 
1 0:0.0043836 1:0.045588 
1 0:0.0053185 1:0.091452 
1 0:0.0050637 1:0.069727 
1 0:0.0058455 1:0.46599 
1 0:0.0043091 1:0.11254 
1 0:0.0046505 1:0.17521 
1 0:0.0055636 1:0.28978 
1 0:0.0057908 1:0.2696 
1 0:0.0050347 1:0.087784 
1 0:0.0058791 1:0.086628 
1 0:0.0061906 1:0.13887 
1 0:0.0064521 1:0.15235 
1 0:0.0042406 1:0.080215 
1 0:0.0048662 1:0.05391 
1 0:0.0076461 1:0.092202 
1 0:0.0076139 1:0.14001 
1 0:0.0052861 1:0.1224 
1 0:0.0051976 1:0.065883 
1 0:0.005322 1:0.15365 
1 0:0.0045686 1:0.090354 
1 0:0.004537 1:0.046771 
1 0:0.0061763 1:0.056534 
1 0:0.0051658 1:0.09661 
1 0:0.0069289 1:0.016181 
1 0:0.0059409 1:0.36011 
1 0:0.0052262 1:0.13632 
1 0:0.0050931 1:0.19737 
1 0:0.006809 1:0.1732 
1 0:0.0068503 1:0.16143 
1 0:0.0057382 1:0.26314 
1 0:0.0059124 1:0.27446 
1 0:0.0052883 1:0.093377 
1 0:0.0056113 1:0.093061 
1 0:0.0055862 1:0.070391 
1 0:0.0056 1:0.12538 
1 0:0.0045795 1:0.13505 
1 0:0.0076023 1:0.046821 
1 0:0.0063958 1:0.049467 
1 0:0.0048907 1:0.11376 
1 0:0.0073465 1:0.12728 
1 0:0.0073006 1:0.1867 
1 0:0.0057302 1:0.10271 
1 0:0.0050724 1:0.076547 
1 0:0.005275 1:0.1172 
1 0:0.0051848 1:0.02037 
1 0:0.0029282 1:0.037013 
1 0:0.0051787 1:0.054734 
1 0:0.0067291 1:0.11565 
1 0:0.0052757 1:0.12728 
1 0:0.005504 1:0.17563 
1 0:0.0049408 1:0.34002 
1 0:0.0043886 1:0.13985 
1 0:0.0051147 1:0.22696 
1 0:0.0045364 1:0.2977 
1 0:0.0051403 1:0.088371 
1 0:0.0062371 1:0.095289 
1 0:0.0055516 1:0.073623 
1 0:0.0060732 1:0.11566 
1 0:0.0063755 1:0.15111 
1 0:0.0044616 1:0.045746 
1 0:0.0058994 1:0.072675 
1 0:0.00693 1:0.11424 
1 0:0.0060561 1:0.1617 
1 0:0.0033205 1:0.029726 
1 0:0.00503 1:0.053498 
1 0:0.0083758 1:0.048743 
1 0:0.0065073 1:0.089907 
1 0:0.0079677 1:0.12123 
1 0:0.0051768 1:0.021037 
1 0:0.0036392 1:0.050682 
1 0:0.0049907 1:0.091688 
1 0:0.0052014 1:0.066317 
1 0:0.0060924 1:0.3856 
1 0:0.0067215 1:0.11728 
1 0:0.0062365 1:0.19627 
1 0:0.0050004 1:0.31328 
1 0:0.0051746 1:0.18136 
1 0:0.0049555 1:0.082081 
1 0:0.0062862 1:0.10156 
1 0:0.0046989 1:0.13686 
1 0:0.0052718 1:0.15788 
1 0:0.0082695 1:0.061529 
1 0:0.0058701 1:0.058379 
1 0:0.0073389 1:0.26954 
1 0:0.0076002 1:0.1004 
1 0:0.0073639 1:0.1469 
1 0:0.0053653 1:0.10369 
1 0:0.0051815 1:0.066456 
1 0:0.0048573 1:0.18517 
1 0:0.0094002 1:0.037298 
1 0:0.0037673 1:0.050398 
1 0:0.0056292 1:0.059014 
1 0:0.0066721 1:0.10673 
1 0:0.0075539 1:0.017436 
1 0:0.0038386 1:0.25429 
1 0:0.0050254 1:0.14031 
1 0:0.0051036 1:0.21418 
1 0:0.0069887 1:0.53716 
1 0:0.0048337 1:0.13561 
1 0:0.0045874 1:0.17148 
1 0:0.005841 1:0.28041 
1 0:0.0045619 1:0.19453 
1 0:0.0054363 1:0.093271 
1 0:0.0057512 1:0.090012 
1 0:0.0055921 1:0.075319 
1 0:0.0055918 1:0.13043 
1 0:0.0061274 1:0.14517 
1 0:0.0043517 1:0.038317 
1 0:0.0067497 1:0.098146 
1 0:0.0073663 1:0.1355 
1 0:0.0064449 1:0.19983 
1 0:0.0050531 1:0.097266 
1 0:0.0053439 1:0.070453 
1 0:0.0056793 1:0.13811 
1 0:0.0060395 1:0.07658 
1 0:0.0065454 1:0.024586 
1 0:0.0047812 1:0.02437 
1 0:0.0051141 1:0.09454 
1 0:0.0051855 1:0.08704 
1 0:0.005632 1:0.094507 
1 0:0.0079541 1:0.18329 
1 0:0.0066207 1:0.14472 
1 0:0.0055246 1:0.24823 
1 0:0.0044554 1:0.46722 
1 0:0.0053429 1:0.093224 
1 0:0.0052604 1:0.074902 
1 0:0.0051888 1:0.12783 
1 0:0.0048161 1:0.13753 
1 0:0.0068611 1:0.048504 
1 0:0.004915 1:0.088245 
1 0:0.0066988 1:0.12442 
1 0:0.0067395 1:0.17937 
1 0:0.0070726 1:0.21519 
1 0:0.0051338 1:0.0812 
1 0:0.0055741 1:0.10171 
1 0:0.0044139 1:0.22636 
1 0:0.0027712 1:0.036453 
1 0:0.0048344 1:0.05124 
1 0:0.0061447 1:0.071668 
1 0:0.0059201 1:0.036969 
1 0:0.0054294 1:0.13719 
1 0:0.0052309 1:0.16953 
1 0:0.0054747 1:0.28668 
1 0:0.0045816 1:0.13499 
1 0:0.0052252 1:0.21373 
1 0:0.0046957 1:0.093268 
1 0:0.0054375 1:0.096064 
1 0:0.0051292 1:0.075993 
1 0:0.0060368 1:0.10546 
1 0:0.0069384 1:0.13255 
1 0:0.004225 1:0.091771 
1 0:0.0045261 1:0.04006 
1 0:0.0057794 1:0.27522 
1 0:0.0070201 1:0.10425 
1 0:0.0064902 1:0.15835 
1 0:0.0079741 1:0.22546 
1 0:0.0059682 1:0.090902 
1 0:0.0052924 1:0.073467 
1 0:0.010512 1:0.055288 
1 0:0.0061232 1:0.091206 
1 0:0.0052334 1:0.019069 
1 0:0.0038328 1:0.045913 
1 0:0.0048762 1:0.089463 
1 0:0.0051128 1:0.07006 
1 0:0.0053618 1:0.45633 
1 0:0.0077691 1:0.1113 
1 0:0.0061696 1:0.18574 
1 0:0.0048419 1:0.30019 
1 0:0.0047843 1:0.22738 
1 0:0.0057985 1:0.086117 
1 0:0.0056529 1:0.09263 
1 0:0.0047234 1:0.13665 
1 0:0.0055276 1:0.15433 
1 0:0.0078928 1:0.07192 
1 0:0.0055822 1:0.056455 
1 0:0.0061618 1:0.33895 
1 0:0.0070916 1:0.094255 
1 0:0.0066594 1:0.14312 
1 0:0.0057343 1:0.11689 
1 0:0.005308 1:0.067366 
1 0:0.0048819 1:0.16714 
1 0:0.0070213 1:0.023026 
-1 0:0.0074949 1:0.43259 
-1 0:0.0078537 1:0.39899 
-1 0:0.0059082 1:0.42743 
-1 0:0.0082061 1:0.38919 
-1 0:0.0059747 1:0.42352 
-1 0:0.0071937 1:0.43005 
-1 0:0.0077683 1:0.42369 
-1 0:0.0076809 1:0.43872 
-1 0:0.0078806 1:0.41342 
-1 0:0.0060548 1:0.42472 
-1 0:0.0077804 1:0.43685 
-1 0:0.0063241 1:0.41926 
-1 0:0.0075045 1:0.45159 
-1 0:0.0065598 1:0.43934 
-1 0:0.0075564 1:0.4319 
-1 0:0.0075125 1:0.43351 
-1 0:0.0077529 1:0.41729 
-1 0:0.0059035 1:0.44634 
-1 0:0.0060438 1:0.42689 
-1 0:0.0078607 1:0.44757 
1 0:0.077111 1:0.024979 
-1 0:0.0076515 1:0.42296 
1 0:0.043884 1:0.063596 
1 0:0.029481 1:0.026333 
-1 0:0.0065262 1:0.42967 
1 0:0.028223 1:0.027253 
-1 0:0.0076117 1:0.40749 
-1 0:0.0064323 1:0.41163 
-1 0:0.0062094 1:0.41853 
-1 0:0.0082317 1:0.42031 
1 0:0.054071 1:0.069201 
1 0:0.04542 1:0.027069 
-1 0:0.0081398 1:0.41775 
-1 0:0.0060356 1:0.41864 
1 0:0.02224 1:0.096388 
1 0:0.026303 1:0.02589 
-1 0:0.0074678 1:0.42918 
1 0:0.035854 1:0.026106 
-1 0:0.0067444 1:0.4237 
1 0:0.080947 1:0.026137 
-1 0:0.0074774 1:0.42599 
1 0:0.046498 1:0.060577 
1 0:0.032023 1:0.026946 
-1 0:0.0060467 1:0.42265 
1 0:0.028973 1:0.025612 
-1 0:0.0079085 1:0.42158 
-1 0:0.0061879 1:0.41276 
1 0:0.036698 1:0.027131 
-1 0:0.0061713 1:0.4119 
-1 0:0.0079328 1:0.423 
1 0:0.070787 1:0.024481 
-1 0:0.0079676 1:0.42654 
-1 0:0.0065201 1:0.40088 
1 0:0.041548 1:0.065146 
1 0:0.025231 1:0.026672 
-1 0:0.0073723 1:0.43104 
1 0:0.02773 1:0.027774 
-1 0:0.0080507 1:0.39719 
-1 0:0.006381 1:0.41525 
-1 0:0.0070911 1:0.42206 
-1 0:0.0084753 1:0.41469 
1 0:0.044031 1:0.061508 
1 0:0.037177 1:0.026799 
-1 0:0.0081215 1:0.40848 
-1 0:0.0060756 1:0.41678 
1 0:0.021044 1:0.11509 
1 0:0.026313 1:0.025588 
-1 0:0.0078119 1:0.43119 
-1 0:0.0079642 1:0.43266 
-1 0:0.0062537 1:0.41557 
-1 0:0.0073856 1:0.43381 
1 0:0.045099 1:0.057126 
-1 0:0.0073032 1:0.42611 
1 0:0.030435 1:0.026289 
-1 0:0.0078549 1:0.41225 
-1 0:0.0063689 1:0.40843 
1 0:0.03861 1:0.031797 
-1 0:0.0062421 1:0.41615 
-1 0:0.0083707 1:0.42368 
1 0:0.028148 1:0.10653 
1 0:0.054716 1:0.025688 
-1 0:0.0079753 1:0.42288 
-1 0:0.0063264 1:0.41229 
1 0:0.037242 1:0.078993 
1 0:0.026005 1:0.026493 
-1 0:0.0075954 1:0.42891 
-1 0:0.0060409 1:0.42473 
-1 0:0.0079141 1:0.45022 
-1 0:0.0065247 1:0.44108 
-1 0:0.0074323 1:0.43111 
-1 0:0.0069986 1:0.43547 
-1 0:0.0074643 1:0.41398 
-1 0:0.0059844 1:0.44815 
-1 0:0.0060266 1:0.4279 
-1 0:0.0076454 1:0.44489 
-1 0:0.007437 1:0.44224 
-1 0:0.0079155 1:0.42445 
-1 0:0.0060824 1:0.42518 
-1 0:0.0073459 1:0.43468 
-1 0:0.0064719 1:0.40456 
-1 0:0.0066173 1:0.45032 
-1 0:0.0079809 1:0.4228 
-1 0:0.0059655 1:0.43124 
-1 0:0.0060674 1:0.42518 
-1 0:0.0073657 1:0.44254 
-1 0:0.0079059 1:0.43042 
-1 0:0.0065583 1:0.41205 
-1 0:0.0080891 1:0.43736 
-1 0:0.005955 1:0.43605 
-1 0:0.0074054 1:0.43254 
-1 0:0.0079656 1:0.42774 
-1 0:0.0076574 1:0.41171 
-1 0:0.0061103 1:0.4262 
-1 0:0.0076925 1:0.43341 
-1 0:0.0064631 1:0.41986 
-1 0:0.0061071 1:0.42362 
-1 0:0.0081149 1:0.4416 
-1 0:0.0075083 1:0.4318 
-1 0:0.0069347 1:0.43504 
-1 0:0.0077919 1:0.43389 
-1 0:0.0065187 1:0.40503 
-1 0:0.0071008 1:0.43786 
-1 0:0.0073393 1:0.4335 
-1 0:0.0077897 1:0.4362 
1 0:0.012185 1:0.059819 
-1 0:0.0079124 1:0.41907 
-1 0:0.0060388 1:0.4303 
-1 0:0.0080366 1:0.43269 
-1 0:0.0080608 1:0.41646 
-1 0:0.0060315 1:0.42347 
-1 0:0.0079812 1:0.41204 
-1 0:0.006423 1:0.41862 
-1 0:0.0059093 1:0.42306 
1 0:0.011614 1:0.057497 
-1 0:0.0075527 1:0.43663 
-1 0:0.0077046 1:0.43582 
1 0:0.015344 1:0.055499 
-1 0:0.0063967 1:0.41717 
-1 0:0.0072356 1:0.44198 
-1 0:0.0079974 1:0.43396 
-1 0:0.0080053 1:0.43054 
1 0:0.01141 1:0.055178 
-1 0:0.006115 1:0.42806 
-1 0:0.007491 1:0.43266 
1 0:0.011386 1:0.060464 
-1 0:0.0078722 1:0.41839 
-1 0:0.0059817 1:0.42993 
-1 0:0.0060911 1:0.42658 
-1 0:0.0076868 1:0.44217 
-1 0:0.0067571 1:0.42429 
-1 0:0.0083572 1:0.42659 
1 0:0.011081 1:0.058052 
-1 0:0.0076771 1:0.43598 
-1 0:0.0070707 1:0.43631 
-1 0:0.0063475 1:0.43609 
-1 0:0.0073566 1:0.41158 
-1 0:0.005969 1:0.42284 
-1 0:0.0077402 1:0.4254 
-1 0:0.0075406 1:0.40696 
-1 0:0.0059598 1:0.42458 
-1 0:0.0058987 1:0.42797 
-1 0:0.0075276 1:0.43072 
-1 0:0.006242 1:0.41555 
-1 0:0.0074949 1:0.43259 
-1 0:0.0078537 1:0.39899 
-1 0:0.0059082 1:0.42743 
-1 0:0.0082061 1:0.38919 
-1 0:0.0059747 1:0.42352 
-1 0:0.0071937 1:0.43005 
-1 0:0.0077683 1:0.42369 
-1 0:0.0076246 1:0.44282 
-1 0:0.0078783 1:0.41326 
-1 0:0.0060264 1:0.42516 
-1 0:0.007749 1:0.43822 
-1 0:0.0063008 1:0.41922 
-1 0:0.0074017 1:0.45539 
-1 0:0.0075707 1:0.43147 
-1 0:0.0075098 1:0.434 
-1 0:0.0077195 1:0.41872 
-1 0:0.0058493 1:0.44814 
-1 0:0.0060278 1:0.42673 
-1 0:0.0077309 1:0.44999 
1 0:0.052172 1:0.026156 
1 0:0.12321 1:0.027593 
1 0:0.028531 1:0.074412 
1 0:0.021821 1:0.029263 
1 0:0.1265 1:0.027433 
-1 0:0.0065264 1:0.42942 
1 0:0.022415 1:0.029952 
1 0:0.11414 1:0.025393 
-1 0:0.0076055 1:0.40717 
-1 0:0.0064031 1:0.4129 
1 0:0.024179 1:0.060266 
1 0:0.065273 1:0.027038 
-1 0:0.0062374 1:0.41794 
-1 0:0.0082378 1:0.41471 
1 0:0.041506 1:0.07661 
1 0:0.029139 1:0.029908 
1 0:0.13989 1:0.026808 
-1 0:0.0081472 1:0.4176 
-1 0:0.0060162 1:0.41835 
1 0:0.016431 1:0.10707 
1 0:0.020598 1:0.029164 
1 0:0.1211 1:0.027108 
-1 0:0.0074701 1:0.42889 
1 0:0.028109 1:0.030056 
1 0:0.081807 1:0.02748 
-1 0:0.0067228 1:0.42212 
1 0:0.052463 1:0.027226 
-1 0:0.0074848 1:0.42561 
-1 0:0.0082107 1:0.3968 
1 0:0.0315 1:0.070227 
1 0:0.024811 1:0.029903 
1 0:0.13455 1:0.026924 
-1 0:0.0060351 1:0.42178 
1 0:0.011812 1:0.15658 
1 0:0.023391 1:0.029051 
1 0:0.10997 1:0.026619 
-1 0:0.0079059 1:0.42121 
-1 0:0.0061762 1:0.41396 
1 0:0.027475 1:0.032067 
1 0:0.074037 1:0.0271 
-1 0:0.007914 1:0.41869 
1 0:0.017565 1:0.13102 
1 0:0.046049 1:0.025737 
-1 0:0.0079832 1:0.42633 
-1 0:0.0065158 1:0.4007 
1 0:0.027112 1:0.077617 
1 0:0.020365 1:0.029664 
1 0:0.12741 1:0.026772 
-1 0:0.0073515 1:0.431 
1 0:0.021518 1:0.030968 
1 0:0.10637 1:0.025406 
-1 0:0.008088 1:0.39666 
-1 0:0.0063854 1:0.41456 
1 0:0.058842 1:0.027556 
-1 0:0.0071029 1:0.42179 
-1 0:0.008458 1:0.40929 
1 0:0.029991 1:0.070727 
1 0:0.026983 1:0.029624 
1 0:0.13764 1:0.027458 
-1 0:0.0060662 1:0.41652 
1 0:0.017092 1:0.12049 
1 0:0.021086 1:0.028757 
1 0:0.114 1:0.027335 
-1 0:0.0078188 1:0.43087 
-1 0:0.0067597 1:0.39743 
-1 0:0.0078862 1:0.43057 
-1 0:0.0062507 1:0.41582 
-1 0:0.0073856 1:0.43375 
1 0:0.029518 1:0.067718 
1 0:0.021866 1:0.029685 
-1 0:0.007248 1:0.42585 
1 0:0.023917 1:0.029247 
1 0:0.11263 1:0.025841 
-1 0:0.007865 1:0.41193 
-1 0:0.0063484 1:0.41008 
1 0:0.0307 1:0.035399 
1 0:0.071777 1:0.026498 
-1 0:0.0062688 1:0.41557 
-1 0:0.0084014 1:0.41818 
1 0:0.024533 1:0.10916 
1 0:0.035754 1:0.028311 
1 0:0.13724 1:0.027012 
-1 0:0.0079924 1:0.42265 
-1 0:0.0063173 1:0.41207 
1 0:0.024951 1:0.092382 
1 0:0.020384 1:0.029648 
1 0:0.12672 1:0.026549 
-1 0:0.0076018 1:0.42881 
-1 0:0.0060174 1:0.42471 
-1 0:0.0079028 1:0.45415 
-1 0:0.0074353 1:0.43056 
-1 0:0.0069774 1:0.43612 
-1 0:0.0074448 1:0.41548 
-1 0:0.0059432 1:0.44997 
-1 0:0.0060108 1:0.42769 
-1 0:0.0075713 1:0.4476 
-1 0:0.0079367 1:0.42396 
-1 0:0.0060421 1:0.42564 
-1 0:0.0073235 1:0.43575 
-1 0:0.0064564 1:0.40448 
-1 0:0.0066204 1:0.45301 
-1 0:0.0079483 1:0.42394 
-1 0:0.0059375 1:0.438 
-1 0:0.0060599 1:0.42641 
-1 0:0.0072849 1:0.44968 
-1 0:0.0078967 1:0.43157 
-1 0:0.006531 1:0.41274 
-1 0:0.008078 1:0.43806 
-1 0:0.005907 1:0.44284 
-1 0:0.0074119 1:0.43362 
-1 0:0.007894 1:0.43452 
-1 0:0.0076304 1:0.41271 
-1 0:0.0060872 1:0.42705 
-1 0:0.0076635 1:0.43428 
-1 0:0.0060959 1:0.42487 
-1 0:0.0080146 1:0.44966 
-1 0:0.0074998 1:0.433 
-1 0:0.0069135 1:0.4361 
-1 0:0.0077957 1:0.43489 
-1 0:0.006488 1:0.40567 
-1 0:0.0070988 1:0.4385 
-1 0:0.0073517 1:0.43489 
-1 0:0.0078141 1:0.44062 
1 0:0.0095296 1:0.07169 
-1 0:0.0078909 1:0.42045 
-1 0:0.0060318 1:0.43137 
-1 0:0.0079428 1:0.44 
-1 0:0.0080498 1:0.41748 
-1 0:0.0060061 1:0.42428 
-1 0:0.0077915 1:0.41076 
-1 0:0.0064068 1:0.41971 
1 0:0.0097868 1:0.065816 
-1 0:0.0075481 1:0.43827 
-1 0:0.0076266 1:0.4419 
1 0:0.013887 1:0.064493 
-1 0:0.0063833 1:0.41844 
-1 0:0.007087 1:0.44969 
-1 0:0.0080129 1:0.43547 
-1 0:0.0077988 1:0.42976 
1 0:0.0099147 1:0.06382 
-1 0:0.0061168 1:0.42917 
-1 0:0.007485 1:0.43642 
1 0:0.0089198 1:0.073027 
-1 0:0.0078529 1:0.41953 
-1 0:0.0059467 1:0.43652 
-1 0:0.0060837 1:0.42776 
-1 0:0.007576 1:0.44944 
-1 0:0.0065645 1:0.42357 
1 0:0.014183 1:0.1154 
-1 0:0.0081744 1:0.42562 
1 0:0.0096107 1:0.065537 
-1 0:0.0076164 1:0.43662 
-1 0:0.0070195 1:0.443 
-1 0:0.0063477 1:0.43609 
-1 0:0.0073566 1:0.41158 
-1 0:0.005969 1:0.42284 
-1 0:0.0077402 1:0.4254 
-1 0:0.0075406 1:0.40696 
-1 0:0.0059598 1:0.42458 
-1 0:0.0058987 1:0.42797 
-1 0:0.0075276 1:0.43072 
-1 0:0.006242 1:0.41555 
-1 0:0.0075878 1:0.12623 
-1 0:0.0058405 1:0.13324 
-1 0:0.0043462 1:0.1402 
-1 0:0.0052298 1:0.13784 
-1 0:0.0061819 1:0.12538 
-1 0:0.0048241 1:0.13635 
-1 0:0.0050308 1:0.13796 
-1 0:0.0049842 1:0.14137 
-1 0:0.0040911 1:0.14423 
-1 0:0.004319 1:0.14243 
-1 0:0.0049468 1:0.13699 
-1 0:0.0049689 1:0.14226 
-1 0:0.0046827 1:0.14013 
-1 0:0.012028 1:0.074688 
-1 0:0.0072746 1:0.10729 
-1 0:0.0069801 1:0.084425 
-1 0:0.010316 1:0.093631 
-1 0:0.0044312 1:0.11896 
-1 0:0.0065852 1:0.069653 
-1 0:0.0083018 1:0.10104 
-1 0:0.0034861 1:0.12631 
-1 0:0.010879 1:0.09518 
-1 0:0.0045761 1:0.11852 
-1 0:0.005841 1:0.071204 
-1 0:0.0075297 1:0.10653 
-1 0:0.003571 1:0.12327 
-1 0:0.011255 1:0.085582 
-1 0:0.0053344 1:0.11027 
-1 0:0.010227 1:0.09724 
-1 0:0.0041056 1:0.12358 
-1 0:0.010022 1:0.072022 
-1 0:0.0076915 1:0.10805 
-1 0:0.0071708 1:0.082663 
-1 0:0.011494 1:0.086714 
-1 0:0.0047261 1:0.11492 
-1 0:0.0086355 1:0.098794 
-1 0:0.0034089 1:0.12754 
-1 0:0.011847 1:0.074434 
-1 0:0.0066156 1:0.10634 
-1 0:0.0067073 1:0.085045 
-1 0:0.010474 1:0.092095 
-1 0:0.0044177 1:0.1189 
-1 0:0.012654 1:0.079055 
-1 0:0.0056218 1:0.10861 
-1 0:0.0077503 1:0.10426 
-1 0:0.0035311 1:0.12512 
-1 0:0.01075 1:0.096433 
-1 0:0.0040982 1:0.1219 
-1 0:0.012028 1:0.074688 
-1 0:0.0072746 1:0.10729 
-1 0:0.0069801 1:0.084425 
-1 0:0.010316 1:0.093631 
-1 0:0.0044312 1:0.11896 
-1 0:0.0065852 1:0.069653 
-1 0:0.0083018 1:0.10104 
-1 0:0.0034861 1:0.12631 
-1 0:0.010879 1:0.09518 
-1 0:0.0045761 1:0.11852 
-1 0:0.005841 1:0.071204 
-1 0:0.0075297 1:0.10653 
-1 0:0.003571 1:0.12327 
-1 0:0.011255 1:0.085582 
-1 0:0.0053344 1:0.11027 
-1 0:0.010227 1:0.09724 
-1 0:0.0041056 1:0.12358 
-1 0:0.010022 1:0.072022 
-1 0:0.0076915 1:0.10805 
-1 0:0.0071708 1:0.082663 
-1 0:0.011494 1:0.086714 
-1 0:0.0047261 1:0.11492 
-1 0:0.0086355 1:0.098794 
-1 0:0.0034089 1:0.12754 
-1 0:0.011847 1:0.074434 
-1 0:0.0066156 1:0.10634 
-1 0:0.0067073 1:0.085045 
-1 0:0.010474 1:0.092095 
-1 0:0.0044177 1:0.1189 
-1 0:0.012654 1:0.079055 
-1 0:0.0056218 1:0.10861 
-1 0:0.0077503 1:0.10426 
-1 0:0.0035311 1:0.12512 
-1 0:0.01075 1:0.096433 
-1 0:0.0040982 1:0.1219 
-1 0:0.0063566 1:0.0011316 
-1 0:0.0053712 1:0.0012251 
-1 0:0.0050908 1:0.001238 
-1 0:0.02273 1:0.0011736 
-1 0:0.042873 1:0.0013594 
-1 0:0.024257 1:0.057238 
-1 0:0.029834 1:0.058015 
-1 0:0.027882 1:0.057832 
-1 0:0.025917 1:0.06618 
-1 0:0.023828 1:0.074579 
-1 0:0.022117 1:0.073555 
-1 0:0.43219 1:0.014902 
-1 0:0.42508 1:0.015983 
-1 0:0.026158 1:0.087429 
-1 0:0.40011 1:0.052139 
-1 0:0.096879 1:0.0096072 
-1 0:0.020478 1:0.097884 
-1 0:0.02687 1:0.09052 
-1 0:0.017903 1:0.071336 
-1 0:0.14968 1:0.0058379 
-1 0:0.16087 1:0.0081006 
-1 0:0.023326 1:0.081639 
-1 0:0.020883 1:0.095714 
-1 0:0.019661 1:0.10306 
-1 0:0.019274 1:0.10542 
-1 0:0.019822 1:0.10363 
-1 0:0.46193 1:0.02641 
-1 0:0.041463 1:0.028847 
-1 0:0.026032 1:0.045447 
-1 0:0.17501 1:0.016999 
-1 0:0.43911 1:0.11396 
-1 0:0.18535 1:0.0092231 
-1 0:0.39783 1:0.053684 
-1 0:0.43567 1:0.089282 
-1 0:0.016558 1:0.0040694 
-1 0:0.012878 1:0.0071696 
-1 0:0.02167 1:0.0085552 
-1 0:0.033851 1:0.0096058 
-1 0:0.02626 1:0.10144 
-1 0:0.022256 1:0.11175 
-1 0:0.018992 1:0.046235 
-1 0:0.018842 1:0.056411 
-1 0:0.42691 1:0.038837 
-1 0:0.026117 1:0.00031333 
-1 0:0.067225 1:0.00032213 
-1 0:0.026755 1:0.00056809 
-1 0:0.02238 1:0.00053032 
-1 0:0.026573 1:0.00064823 
-1 0:0.022654 1:0.00084183 
-1 0:0.0074822 1:0.0010186 
-1 0:0.0073557 1:0.0011138 
-1 0:0.0062811 1:0.0012238 
-1 0:0.14025 1:0.0012678 
-1 0:0.097969 1:0.0018319 
-1 0:0.11327 1:0.0025155 
-1 0:0.13182 1:0.0030921 
-1 0:0.13992 1:0.0035536 
-1 0:0.13468 1:0.0049708 
-1 0:0.018614 1:0.054941 
-1 0:0.02622 1:0.061888 
-1 0:0.19165 1:0.0057227 
-1 0:0.18517 1:0.0069108 
-1 0:0.013389 1:0.018795 
-1 0:0.036002 1:0.059907 
-1 0:0.45831 1:0.07082 
-1 0:0.023845 1:0.073476 
-1 0:0.026287 1:0.076816 
-1 0:0.026263 1:0.083512 
-1 0:0.022166 1:0.072062 
-1 0:0.15564 1:0.0077417 
-1 0:0.14852 1:0.0085861 
-1 0:0.16569 1:0.0066412 
-1 0:0.16261 1:0.0083648 
-1 0:0.2746 1:0.037462 
-1 0:0.44255 1:0.087638 
-1 0:0.14075 1:0.0073946 
-1 0:0.12428 1:0.010581 
-1 0:0.16607 1:0.01057 
-1 0:0.13928 1:0.013355 
-1 0:0.017198 1:0.0041412 
-1 0:0.013917 1:0.0070624 
-1 0:0.020834 1:0.0084729 
-1 0:0.043168 1:0.0084863 
-1 0:0.15613 1:0.010303 
-1 0:0.026018 1:0.10206 
-1 0:0.022343 1:0.11151 
-1 0:0.01945 1:0.047047 
-1 0:0.019 1:0.055692 
-1 0:0.42563 1:0.038581 
-1 0:0.05821 1:0.00038665 
-1 0:0.12538 1:0.00039615 
-1 0:0.055767 1:0.00043525 
-1 0:0.013562 1:0.0004549 
-1 0:0.0070421 1:0.00080626 
-1 0:0.0073709 1:0.0011005 
-1 0:0.014777 1:0.0012921 
-1 0:0.052755 1:0.0014429 
-1 0:0.092324 1:0.0019675 
-0.78187 0:0.16397 1:0.0020207 
-1 0:0.14545 1:0.0028478 
-1 0:0.15772 1:0.0035547 
-1 0:0.15278 1:0.0044372 
-1 0:0.13211 1:0.0215 
-1 0:0.029441 1:0.070975 
-1 0:0.023095 1:0.079673 
-1 0:0.018523 1:0.07896 
-1 0:0.01884 1:0.078434 
-1 0:0.019367 1:0.071428 
-1 0:0.15402 1:0.0043244 
-1 0:0.022501 1:0.04652 
-1 0:0.018195 1:0.077702 
-1 0:0.019672 1:0.088724 
-1 0:0.02252 1:0.084178 
-1 0:0.017209 1:0.074591 
-1 0:0.016061 1:0.064518 
-1 0:0.015787 1:0.058881 
-1 0:0.015044 1:0.029847 
-1 0:0.015677 1:0.028985 
-1 0:0.19399 1:0.0060285 
-1 0:0.18165 1:0.0069782 
-1 0:0.021255 1:0.085636 
-1 0:0.019538 1:0.082367 
-1 0:0.17302 1:0.0073854 
-1 0:0.15072 1:0.010629 
-1 0:0.161 1:0.03236 
-1 0:0.039324 1:0.065758 
-1 0:0.011565 1:0.012523 
-1 0:0.0081141 1:0.0011969 
-1 0:0.15445 1:0.0098849 
-1 0:0.028887 1:0.068309 
-1 0:0.029475 1:0.068919 
-1 0:0.023573 1:0.073516 
-1 0:0.023291 1:0.060242 
-1 0:0.022084 1:0.043399 
-1 0:0.018376 1:0.038912 
-1 0:0.44207 1:0.025429 
-1 0:0.0059353 1:0.0014129 
-1 0:0.0053784 1:0.0020637 
-1 0:0.14994 1:0.01038 
-1 0:0.13783 1:0.011022 
-1 0:0.03253 1:0.1169 
-1 0:0.027338 1:0.067536 
-1 0:0.022297 1:0.077718 
-1 0:0.020405 1:0.032104 
-1 0:0.018367 1:0.041107 
-1 0:0.43189 1:0.027446 
-1 0:0.010204 1:0.0011325 
-1 0:0.0074969 1:0.0019612 
-1 0:0.0080965 1:0.0017349 
-1 0:0.0157 1:0.0053549 
-1 0:0.025047 1:0.0079481 
-1 0:0.04075 1:0.0087381 
-1 0:0.018174 1:0.16345 
-1 0:0.017738 1:0.16256 
-1 0:0.018421 1:0.14907 
-1 0:0.019909 1:0.13198 
-0.44809 0:0.50775 1:0 
-1 0:0.00031713 1:0.016736 
-1 0:0.0025326 1:0.023735 
-1 0:0.0041518 1:0.077431 
-1 0:0.0048352 1:0.074691 
-1 0:0.0056401 1:0.074352 
-1 0:0.0054722 1:0.071469 
-1 0:0.0042622 1:0.071732 
-1 0:0.0034406 1:0.071808 
-1 0:0.004062 1:0.069627 
-1 0:0.004948 1:0.069017 
-1 0:0.0054811 1:0.067092 
-1 0:0.0058227 1:0.066324 
-1 0:0.0045389 1:0.065253 
-1 0:0.0034089 1:0.064918 
-1 0:0.0044556 1:0.063619 
-1 0:0.0052251 1:0.061629 
-1 0:0.0051557 1:0.061177 
-1 0:0.0049471 1:0.059976 
-1 0:0.0044241 1:0.059216 
-1 0:0.0034172 1:0.059143 
-1 0:0.0042353 1:0.056969 
-1 0:0.005941 1:0.056653 
-1 0:0.0041336 1:0.096164 
-1 0:0.0041499 1:0.092629 
-1 0:0.0042102 1:0.09101 
-1 0:0.0042118 1:0.088342 
-1 0:0.0042107 1:0.087295 
-1 0:0.0042544 1:0.085646 
-1 0:0.0043183 1:0.084512 
-1 0:0.0041716 1:0.084301 
-1 0:0.0041663 1:0.083027 
-1 0:0.0042191 1:0.081189 
-1 0:0.0042299 1:0.079367 
-1 0:0.0042433 1:0.078187 
-1 0:0.0042874 1:0.076372 
-1 0:0.0042511 1:0.0756 
-1 0:0.0042569 1:0.074686 
-1 0:0.0042002 1:0.073923 
-1 0:0.0042043 1:0.072585 
-1 0:0.0041927 1:0.070901 
-1 0:0.0041823 1:0.070073 
-1 0:0.0042144 1:0.068478 
-1 0:0.0042935 1:0.067326 
-1 0:0.0043243 1:0.065851 
-1 0:0.0041936 1:0.065182 
-1 0:0.0041631 1:0.064059 
-1 0:0.0041585 1:0.062955 
-1 0:0.004726 1:0.058074 
-1 0:0.0042987 1:0.057729 
-1 0:0.0056459 1:0.058037 
-1 0:0.0046583 1:0.052184 
-1 0:0.0073971 1:0.090912 
-1 0:0.0050234 1:0.055169 
-1 0:0.0058266 1:0.049121 
-1 0:0.0041146 1:0.041758 
-1 0:0.0074622 1:0.12725 
-1 0:0.0080553 1:0.12371 
-1 0:0.0074417 1:0.12272 
-1 0:0.0077056 1:0.11928 
-1 0:0.0081105 1:0.11936 
-1 0:0.0098881 1:0.11591 
-1 0:0.0081792 1:0.11572 
-1 0:0.0075889 1:0.11239 
-1 0:0.0069523 1:0.0028937 
-1 0:0.007098 1:0.0027797 
-1 0:0.0061819 1:0.0031251 
-1 0:0.0051519 1:0.0029551 
-1 0:0.0044735 1:0.0013408 
-1 0:0.0018125 1:0.0017672 
-1 0:0.00096104 1:0.0029503 
-1 0:0.0021539 1:0.0030169 
-1 0:0.38316 1:5.2819e-05 
-1 0:0.22834 1:7.204e-05 
-1 0:0.32747 1:5.5506e-05 
-1 0:0.18717 1:6.5302e-05 
-1 0:0.20734 1:6.3047e-05 
-0.94175 0:0.18194 1:7.5843e-05 
-1 0:0.014482 1:0.00036479 
-1 0:0.010354 1:0.00043837 
-1 0:0.17096 1:0.0058573 
1 0:0.060527 1:0.062257 
1 0:0.018011 1:0.089772 
1 0:0.0198 1:0.042444 
1 0:0.014151 1:0.029711 
1 0:0.0084499 1:0.031513 
1 0:0.02494 1:0.052407 
1 0:0.080358 1:0.085638 
1 0:0.024369 1:0.055293 
1 0:0.026928 1:0.040849 
1 0:0.021574 1:0.063484 
1 0:0.055807 1:0.034675 
1 0:0.060424 1:0.07575 
1 0:0.02407 1:0.049503 
1 0:0.020829 1:0.063273 
1 0:0.023402 1:0.045921 
-1 0:0.040346 1:0.003026 
-1 0:0.16842 1:0.024992 
-1 0:0.19351 1:0.039555 
-1 0:0.24882 1:0.0001083 
-1 0:0.16245 1:0.00010412 
-1 0:0.069002 1:0.00019644 
-1 0:0.35646 1:5.3653e-05 
-1 0:0.21752 1:7.0829e-05 
-0.90588 0:0.29331 1:6.0584e-05 
-1 0:0.32359 1:5.886e-05 
-1 0:0.23582 1:6.0533e-05 
-1 0:0.022416 1:0.00026209 
-1 0:0.017666 1:0.0003051 
-1 0:0.01099 1:0.00039191 
-1 0:0.17092 1:0.005859 
1 0:0.016031 1:0.083455 
1 0:0.015035 1:0.041205 
1 0:0.01215 1:0.026817 
-1 0:0.16185 1:0.023392 
-1 0:0.19183 1:0.030643 
-1 0:0.0233 1:0.0081626 
-1 0:0.026817 1:0.060035 
-1 0:0.015352 1:0.0057651 
-1 0:0.022683 1:0.025566 
-1 0:0.024966 1:0.045174 
-1 0:0.0065532 1:0.0095257 
-1 0:0.005269 1:0.0097255 
-1 0:0.0068245 1:0.024438 
-1 0:0.0076484 1:0.022637 
-1 0:0.0066072 1:0.022315 
-1 0:0.0065397 1:0.021455 
-1 0:0.0064698 1:0.02116 
-1 0:0.0067486 1:0.019957 
-1 0:0.0065284 1:0.020493 
-1 0:0.0064542 1:0.019091 
-1 0:0.0062768 1:0.019809 
-1 0:0.0067623 1:0.018118 
-1 0:0.006704 1:0.019437 
-1 0:0.016406 1:0.033044 
-1 0:0.0081728 1:0.05242 
-1 0:0.0097443 1:0.070451 
1 0:0.023074 1:0.31161 
1 0:0.026683 1:0.22097 
1 0:0.03764 1:0.19459 
-1 0:0.0026159 1:0.0046385 
-1 0:0.0012558 1:0.0047499 
-1 0:0.0024181 1:0.0036486 
-1 0:0.002667 1:0.003801 
-1 0:0.0044759 1:0.0040274 
-1 0:0.00084981 1:0.0044723 
-1 0:0.0012547 1:0.0026153 
-1 0:0.0026965 1:0.0032246 
-1 0:0.0030943 1:0.002826 
-1 0:0.0020285 1:0.0028841 
-1 0:0.0031571 1:0.0028545 
-1 0:0.0016705 1:0.0024462 
-1 0:0.0024458 1:0.0019784 
-1 0:0.0029672 1:0.0026366 
-1 0:0.0036147 1:0.0023083 
-1 0:0.0012564 1:0.0019596 
-1 0:0.0020044 1:0.0032788 
-1 0:0.0029592 1:0.0026996 
-1 0:0.0017927 1:0.0022134 
-1 0:0.0015469 1:0.0018232 
-1 0:0.002473 1:0.0033241 
-1 0:0.003305 1:0.0039121 
-1 0:0.001904 1:0.0040478 
-1 0:0.00055628 1:0.0043376 
-1 0:0.0017608 1:0.0044941 
-1 0:0.0233 1:0.0081626 
-1 0:0.026817 1:0.060035 
-1 0:0.015352 1:0.0057651 
-1 0:0.022683 1:0.025566 
-1 0:0.024966 1:0.045174 
-1 0:0.0065532 1:0.0095257 
-1 0:0.0052691 1:0.0097256 
-1 0:0.0068245 1:0.024438 
-1 0:0.0076484 1:0.022637 
-1 0:0.0066072 1:0.022315 
-1 0:0.0065397 1:0.021455 
-1 0:0.0064698 1:0.02116 
-1 0:0.0067486 1:0.019957 
-1 0:0.0065284 1:0.020493 
-1 0:0.0064542 1:0.019091 
-1 0:0.0062768 1:0.019809 
-1 0:0.0067623 1:0.018118 
-1 0:0.006704 1:0.019437 
-1 0:0.016406 1:0.033044 
-1 0:0.011083 1:0.069133 
-1 0:0.0093057 1:0.074766 
-1 0:0.0089841 1:0.052046 
-1 0:0.0096386 1:0.070435 
1 0:0.030044 1:0.22152 
-1 0:0.0013802 1:0.003761 
-1 0:0.0053168 1:0.0032158 
-1 0:0.002616 1:0.0046385 
-1 0:0.0012558 1:0.0047498 
-1 0:0.002418 1:0.0036486 
-1 0:0.002667 1:0.003801 
-1 0:0.0044759 1:0.0040274 
-1 0:0.00084982 1:0.0044722 
-1 0:0.0012547 1:0.0026153 
-1 0:0.0026965 1:0.0032246 
-1 0:0.0030943 1:0.002826 
-1 0:0.0020285 1:0.0028841 
-1 0:0.0031571 1:0.0028545 
-1 0:0.0016705 1:0.0024462 
-1 0:0.0024458 1:0.0019784 
-1 0:0.0029672 1:0.0026366 
-1 0:0.0036147 1:0.0023083 
-1 0:0.0012564 1:0.0019596 
-1 0:0.0020044 1:0.0032788 
-1 0:0.0029592 1:0.0026996 
-1 0:0.0017927 1:0.0022134 
-1 0:0.0015469 1:0.0018232 
-1 0:0.002473 1:0.0033241 
-1 0:0.003305 1:0.0039121 
-1 0:0.001904 1:0.0040478 
-1 0:0.00055628 1:0.0043376 
-1 0:0.0017608 1:0.0044941 
-1 0:0.038782 1:0.00016964 
-1 0:0.071318 1:0.00057947 
-1 0:0.072743 1:0.00078399 
-1 0:0.070496 1:0.00096567 
-1 0:0.10694 1:0.00094719 
-1 0:0.12461 1:0.0014361 
-1 0:0.066458 1:0.004176 
-1 0:0.010755 1:0.0040678 
-1 0:0.013598 1:0.0048547 
-1 0:0.014482 1:0.012754 
-1 0:0.016662 1:0.022808 
-1 0:0.014209 1:0.039014 
-1 0:0.013017 1:0.052936 
-1 0:0.013624 1:0.058772 
-1 0:0.012835 1:0.063561 
-1 0:0.016024 1:0.06486 
-1 0:0.015117 1:0.059134 
-1 0:0.044997 1:0.071527 
-1 0:0.044322 1:0.069226 
-1 0:0.044275 1:0.077597 
-1 0:0.042911 1:0.085084 
-1 0:0.03604 1:0.062703 
-1 0:0.038652 1:0.064887 
-1 0:0.05227 1:0.031378 
-1 0:0.041589 1:0.042012 
-1 0:0.24819 1:0.022951 
-1 0:0.048993 1:0.069873 
-1 0:0.016183 1:0.037463 
-1 0:0.012533 1:0.048272 
-1 0:0.012786 1:0.049719 
-1 0:0.01333 1:0.051818 
-1 0:0.01345 1:0.055358 
-1 0:0.014157 1:0.061754 
-1 0:0.0030597 1:0.00057856 
-1 0:0.0022919 1:0.00082912 
-1 0:0.0018737 1:0.00075175 
-1 0:0.0075325 1:0.00099584 
-1 0:0.13081 1:0.0018304 
-1 0:0.15897 1:0.0025641 
-1 0:0.014881 1:0.050631 
-1 0:0.013383 1:0.061287 
-1 0:0.038883 1:0.093892 
-1 0:0.014378 1:0.06068 
-1 0:0.015005 1:0.06065 
-1 0:0.023667 1:0.011521 
-1 0:0.017873 1:0.020732 
-1 0:0.013351 1:0.024103 
-1 0:0.013443 1:0.074988 
-1 0:0.023252 1:0.084722 
-1 0:0.032686 1:0.083285 
-1 0:0.011866 1:0.060876 
-1 0:0.01162 1:0.086015 
-1 0:0.0061789 1:0.00067214 
-1 0:0.0043238 1:0.00062052 
-1 0:0.091119 1:0.002426 
-1 0:0.11754 1:0.0026448 
-1 0:0.014533 1:0.071499 
-1 0:0.013139 1:0.12094 
-1 0:0.027652 1:0.063024 
1 0:0.013037 1:0.012858 
1 0:0.092082 1:0.0020776 
-1 0:0.013643 1:0.065601 
-1 0:0.014168 1:0.098132 
1 0:0.019328 1:0.0035428 
-1 0:0.04444 1:0.024091 
-1 0:0.023649 1:0.026463 
-1 0:0.023966 1:0.031023 
-1 0:0.021301 1:0.039476 
-1 0:0.029386 1:0.050502 
-1 0:0.031031 1:0.056393 
-1 0:0.02252 1:0.039075 
-1 0:0.012262 1:0.024247 
-1 0:0.012098 1:0.024819 
-1 0:0.024645 1:0.018649 
-1 0:0.032766 1:0.019032 
-1 0:0.019653 1:0.024391 
-1 0:0.018388 1:0.029471 
-1 0:0.017819 1:0.028489 
-1 0:0.034773 1:0.044881 
-1 0:0.040007 1:0.044236 
-1 0:0.040698 1:0.049815 
-1 0:0.016693 1:0.019237 
-1 0:0.016291 1:0.022192 
-1 0:0.037138 1:0.030607 
-1 0:0.041969 1:0.037162 
-1 0:0.010304 1:0.018226 
-1 0:0.041464 1:0.00058596 
-1 0:0.10524 1:0.0011048 
-1 0:0.1363 1:0.0016638 
-1 0:0.15929 1:0.0024404 
-1 0:0.038661 1:0.0046311 
-1 0:0.037349 1:0.028247 
-1 0:0.03359 1:0.043792 
-1 0:0.036672 1:0.049538 
-1 0:0.037125 1:0.05167 
-1 0:0.035982 1:0.053006 
-1 0:0.034716 1:0.052361 
-1 0:0.014636 1:0.0561 
-1 0:0.014344 1:0.054467 
-1 0:0.043527 1:0.052451 
-1 0:0.013733 1:0.066113 
-1 0:0.01461 1:0.067671 
-1 0:0.048383 1:0.11037 
-1 0:0.018563 1:0.049829 
-1 0:0.040262 1:0.037517 
-1 0:0.044708 1:0.059505 
-1 0:0.048406 1:0.11356 
-1 0:0.046844 1:0.048119 
-1 0:0.014533 1:0.033424 
-1 0:0.014777 1:0.032604 
-1 0:0.014748 1:0.031841 
-1 0:0.016485 1:0.03031 
-1 0:0.16423 1:7.6341e-06 
-1 0:0.050184 1:0.00064694 
-1 0:0.092066 1:0.00060059 
-1 0:0.10668 1:0.0012127 
-1 0:0.16866 1:0.0019101 
-1 0:0.19205 1:0.0029005 
-1 0:0.19823 1:0.0032583 
-1 0:0.035085 1:0.031622 
-1 0:0.012951 1:0.038655 
-1 0:0.013805 1:0.045603 
-1 0:0.013791 1:0.04914 
-1 0:0.014027 1:0.050996 
-1 0:0.044337 1:0.10002 
-1 0:0.019954 1:0.037915 
-1 0:0.019697 1:0.01102 
-1 0:0.20396 1:0.0012179 
-1 0:0.19575 1:0.0017593 
-1 0:0.042002 1:0.045177 
-1 0:0.013445 1:0.079764 
-1 0:0.013156 1:0.086196 
-1 0:0.018593 1:0.060991 
-1 0:0.012335 1:0.094058 
-1 0:0.017821 1:0.038999 
-1 0:0.02103 1:0.03866 
-1 0:0.026015 1:0.042597 
-1 0:0.034493 1:0.057253 
-1 0:0.028916 1:0.054182 
-1 0:0.034954 1:0.047434 
-1 0:0.039696 1:0.08106 
-1 0:0.017833 1:0.051088 
-1 0:0.018246 1:0.05737 
-1 0:0.024585 1:0.056071 
-1 0:0.036176 1:0.086159 
-1 0:0.03466 1:0.041039 
-1 0:0.041653 1:0.058806 
-1 0:0.016741 1:0.06392 
-1 0:0.0038485 1:0.0016065 
-1 0:0.020949 1:0.0018057 
-1 0:0.013469 1:0.074003 
-1 0:0.023015 1:0.093587 
1 0:0.10952 1:0.0042522 
-1 0:0.012367 1:0.10357 
-1 0:0.030102 1:0.066762 
-1 0:0.029881 1:0.061272 
-1 0:0.020807 1:0.065002 
-1 0:0.021173 1:0.065701 
-1 0:0.019296 1:0.065131 
-1 0:0.019757 1:0.064441 
-1 0:0.021246 1:0.063311 
-1 0:0.023454 1:0.055073 
-1 0:0.013746 1:0.053062 
-1 0:0.014046 1:0.053907 
-1 0:0.014186 1:0.052344 
-1 0:0.012711 1:0.080003 
-1 0:0.012464 1:0.080093 
-1 0:0.020837 1:0.049438 
-1 0:0.028141 1:0.048766 
-1 0:0.022902 1:0.052634 
-1 0:0.016102 1:0.036245 
-1 0:0.016058 1:0.045322 
-1 0:0.017236 1:0.034512 
-1 0:0.017894 1:0.030225 
-1 0:0.015187 1:0.036474 
-1 0:0.016821 1:0.033605 
-1 0:0.015942 1:0.033182 
-1 0:0.013199 1:0.014639 
-1 0:0.013368 1:0.015243 
1 0:0.010509 1:0.19028 
1 0:0.014656 1:0.043961 
1 0:0.015612 1:0.0099316 
1 0:0.02041 1:0.0067067 
1 0:0.010633 1:0.065058 
1 0:0.01267 1:0.041616 
1 0:0.013906 1:0.094238 
1 0:0.013451 1:0.019259 
1 0:0.018771 1:0.0074069 
1 0:0.014838 1:0.014753 
1 0:0.01216 1:0.14888 
1 0:0.015653 1:0.045887 
1 0:0.013226 1:0.010515 
1 0:0.020057 1:0.0066878 
1 0:0.01088 1:0.069056 
1 0:0.014366 1:0.042718 
1 0:0.019438 1:0.029574 
1 0:0.015478 1:0.017478 
1 0:0.018411 1:0.014757 
1 0:0.019473 1:0.020087 
1 0:0.012773 1:0.12948 
1 0:0.016243 1:0.046541 
1 0:0.012823 1:0.011484 
1 0:0.019901 1:0.0066261 
1 0:0.011473 1:0.07018 
1 0:0.017787 1:0.044807 
1 0:0.01614 1:0.11838 
1 0:0.018735 1:0.021702 
1 0:0.018177 1:0.0078538 
1 0:0.014937 1:0.014536 
1 0:0.051811 1:0.084498 
1 0:0.016604 1:0.013043 
1 0:0.0393 1:0.0028445 
1 0:0.045973 1:0.0024044 
1 0:0.041582 1:0.0025368 
1 0:0.010678 1:0.090492 
1 0:0.04728 1:0.0026414 
1 0:0.040777 1:0.0026713 
1 0:0.031698 1:0.0047272 
1 0:0.0080653 1:0.034246 
1 0:0.039496 1:0.0027478 
1 0:0.046464 1:0.0024576 
1 0:0.052596 1:0.0022858 
1 0:0.01619 1:0.075185 
1 0:0.011324 1:0.012832 
1 0:0.042838 1:0.002552 
1 0:0.043888 1:0.002596 
1 0:0.040201 1:0.0027866 
1 0:0.04284 1:0.0027824 
1 0:0.043409 1:0.0024026 
1 0:0.021119 1:0.047009 
1 0:0.0097585 1:0.10699 
1 0:0.016957 1:0.024188 
1 0:0.034743 1:0.0052763 
1 0:0.039667 1:0.0027293 
1 0:0.047494 1:0.0023842 
1 0:0.027971 1:0.016173 
1 0:0.014199 1:0.029474 
1 0:0.049639 1:0.0023223 
1 0:0.041063 1:0.0026529 
1 0:0.010808 1:0.11485 
1 0:0.0097107 1:0.010346 
1 0:0.047577 1:0.0025089 
1 0:0.046243 1:0.0025291 
1 0:0.037659 1:0.0027936 
1 0:0.016577 1:0.083512 
1 0:0.025427 1:0.013232 
1 0:0.045228 1:0.0024323 
1 0:0.048339 1:0.0024435 
1 0:0.023165 1:0.0042899 
1 0:0.019634 1:0.074052 
1 0:0.022214 1:0.037946 
1 0:0.029128 1:0.014888 
1 0:0.019919 1:0.073922 
1 0:0.013541 1:0.11137 
1 0:0.04596 1:0.0083154 
1 0:0.046531 1:0.097746 
1 0:0.017799 1:0.013569 
1 0:0.03798 1:0.0029691 
1 0:0.045639 1:0.0024249 
1 0:0.043244 1:0.0024791 
1 0:0.010691 1:0.091441 
1 0:0.035655 1:0.003019 
1 0:0.040308 1:0.0027946 
1 0:0.029952 1:0.0036139 
1 0:0.0087787 1:0.035153 
1 0:0.038517 1:0.0028364 
1 0:0.046538 1:0.0024651 
1 0:0.053499 1:0.0022592 
1 0:0.017768 1:0.0091596 
1 0:0.012008 1:0.24163 
1 0:0.021699 1:0.036897 
1 0:0.034 1:0.0035748 
1 0:0.043575 1:0.002597 
1 0:0.038427 1:0.0026273 
1 0:0.012221 1:0.19214 
1 0:0.02273 1:0.052767 
1 0:0.019996 1:0.027592 
1 0:0.031405 1:0.018271 
1 0:0.019155 1:0.017075 
1 0:0.012157 1:0.074405 
1 0:0.036418 1:0.023104 
1 0:0.045073 1:0.025916 
1 0:0.054095 1:0.027772 
1 0:0.047813 1:0.0053013 
1 0:0.0088868 1:0.11219 
1 0:0.020249 1:0.026111 
1 0:0.031712 1:0.0065603 
1 0:0.038658 1:0.0028027 
1 0:0.047485 1:0.0023765 
1 0:0.036323 1:0.0072304 
1 0:0.012069 1:0.033774 
1 0:0.048256 1:0.0023481 
1 0:0.040908 1:0.0026268 
1 0:0.01032 1:0.15365 
1 0:0.0098748 1:0.010536 
1 0:0.046622 1:0.0025075 
1 0:0.044042 1:0.0025821 
1 0:0.041847 1:0.0026396 
1 0:0.015893 1:0.087682 
1 0:0.026414 1:0.014342 
1 0:0.045467 1:0.0024613 
1 0:0.046797 1:0.0024461 
1 0:0.02911 1:0.003417 
1 0:0.017875 1:0.075933 
1 0:0.021657 1:0.040402 
1 0:0.026676 1:0.015737 
1 0:0.03603 1:0.01236 
1 0:0.0086734 1:0.13133 
1 0:0.021924 1:0.03412 
1 0:0.022894 1:0.0081648 
1 0:0.04069 1:0.0026817 
1 0:0.043012 1:0.0025395 
1 0:0.036075 1:0.0045894 
1 0:0.011666 1:0.035934 
1 0:0.048244 1:0.0023471 
1 0:0.041231 1:0.0026575 
1 0:0.0098689 1:0.21236 
1 0:0.011264 1:0.012254 
1 0:0.043606 1:0.0026191 
1 0:0.047843 1:0.0024258 
1 0:0.021424 1:0.0053155 
1 0:0.013197 1:0.053512 
1 0:0.013974 1:0.0061477 
1 0:0.048225 1:0.0023473 
1 0:0.04252 1:0.0026997 
1 0:0.042342 1:0.0026865 
1 0:0.040437 1:0.0028759 
1 0:0.04656 1:0.002314 
1 0:0.020226 1:0.026607 
1 0:0.026114 1:0.17113 
1 0:0.015199 1:0.015653 
1 0:0.037482 1:0.0031169 
1 0:0.044908 1:0.0024737 
1 0:0.046461 1:0.0023377 
1 0:0.01147 1:0.10667 
1 0:0.024418 1:0.0063487 
1 0:0.045584 1:0.0024653 
1 0:0.037289 1:0.0029682 
1 0:0.010722 1:0.064938 
1 0:0.023399 1:0.0040549 
1 0:0.043811 1:0.0026395 
1 0:0.055998 1:0.0021584 
1 0:0.021273 1:0.005126 
1 0:0.011694 1:0.26833 
1 0:0.01657 1:0.060505 
1 0:0.03149 1:0.0048742 
1 0:0.045674 1:0.0026011 
1 0:0.04607 1:0.0023905 
1 0:0.011778 1:0.24015 
1 0:0.020927 1:0.057873 
1 0:0.02052 1:0.031203 
1 0:0.036936 1:0.015478 
1 0:0.011179 1:0.05008 
1 0:0.0087899 1:0.13875 
1 0:0.031271 1:0.036473 
1 0:0.017275 1:0.010483 
1 0:0.040671 1:0.00267 
1 0:0.045199 1:0.0024507 
1 0:0.042453 1:0.0033241 
1 0:0.011978 1:0.037447 
1 0:0.047897 1:0.0023516 
1 0:0.042738 1:0.0025757 
1 0:0.0097647 1:0.21508 
1 0:0.0094675 1:0.015236 
1 0:0.042387 1:0.0026158 
1 0:0.047749 1:0.0024587 
1 0:0.042144 1:0.0026696 
1 0:0.01748 1:0.093853 
1 0:0.024442 1:0.020129 
1 0:0.038723 1:0.0029419 
1 0:0.050495 1:0.0023042 
1 0:0.033732 1:0.0029631 
1 0:0.017223 1:0.090115 
1 0:0.023754 1:0.042879 
1 0:0.02196 1:0.020178 
1 0:0.024795 1:0.023731 
1 0:0.012304 1:0.10971 
1 0:0.011147 1:0.040976 
1 0:0.041704 1:0.027793 
1 0:0.049471 1:0.025658 
1 0:0.055136 1:0.021334 
1 0:0.012365 1:0.15745 
1 0:0.015709 1:0.016027 
1 0:0.033643 1:0.0034217 
1 0:0.043367 1:0.0025009 
1 0:0.04525 1:0.0023575 
1 0:0.011194 1:0.11726 
1 0:0.015507 1:0.0090219 
1 0:0.048341 1:0.0024395 
1 0:0.041367 1:0.0028736 
1 0:0.0087971 1:0.06848 
1 0:0.017255 1:0.0048384 
1 0:0.042598 1:0.0026984 
1 0:0.055196 1:0.0021517 
1 0:0.034773 1:0.003201 
1 0:0.017016 1:0.06324 
1 0:0.029622 1:0.0057959 
1 0:0.044955 1:0.002593 
1 0:0.046252 1:0.0023924 
1 0:0.036479 1:0.043525 
1 0:0.010611 1:0.2938 
1 0:0.023045 1:0.058503 
1 0:0.021855 1:0.031165 
1 0:0.02845 1:0.0051414 
1 0:0.01379 1:0.12901 
1 0:0.025491 1:0.1017 
1 0:0.014448 1:0.20233 
1 0:0.013208 1:0.085006 
1 0:0.01466 1:0.015827 
1 0:0.019025 1:0.0072964 
1 0:0.015189 1:0.016802 
1 0:0.0098138 1:0.2091 
1 0:0.013333 1:0.037887 
1 0:0.017075 1:0.0080815 
1 0:0.019635 1:0.0067387 
1 0:0.012184 1:0.049679 
1 0:0.032043 1:0.046492 
1 0:0.017187 1:0.20305 
1 0:0.013847 1:0.22984 
1 0:0.013789 1:0.089064 
1 0:0.01401 1:0.017065 
1 0:0.019038 1:0.0072821 
1 0:0.015535 1:0.015885 
1 0:0.0097385 1:0.20715 
1 0:0.013448 1:0.042497 
1 0:0.017284 1:0.0082622 
1 0:0.020494 1:0.0066218 
1 0:0.011916 1:0.060127 
1 0:0.036955 1:0.052672 
1 0:0.01199 1:0.14142 
1 0:0.017609 1:0.01689 
1 0:0.033443 1:0.0037757 
1 0:0.042117 1:0.002552 
1 0:0.046465 1:0.0023441 
1 0:0.013988 1:0.011353 
1 0:0.048155 1:0.0023939 
1 0:0.039612 1:0.0027304 
1 0:0.0095395 1:0.078314 
1 0:0.015735 1:0.0053157 
1 0:0.043449 1:0.0027015 
1 0:0.053513 1:0.002209 
1 0:0.035424 1:0.0029238 
1 0:0.01713 1:0.06688 
1 0:0.024251 1:0.0091285 
1 0:0.044879 1:0.0025298 
1 0:0.048444 1:0.0023964 
1 0:0.018309 1:0.014246 
1 0:0.021501 1:0.060891 
1 0:0.020902 1:0.03501 
1 0:0.033789 1:0.014808 
1 0:0.022291 1:0.021854 
1 0:0.01954 1:0.024085 
1 0:0.042338 1:0.029734 
1 0:0.054198 1:0.027401 
1 0:0.055205 1:0.010891 
1 0:0.0091697 1:0.19109 
1 0:0.035257 1:0.062248 
1 0:0.016343 1:0.012968 
1 0:0.041836 1:0.0026554 
1 0:0.045823 1:0.0023826 
1 0:0.039301 1:0.0027772 
1 0:0.010971 1:0.078211 
1 0:0.048247 1:0.0024828 
1 0:0.04134 1:0.002627 
1 0:0.019115 1:0.013769 
1 0:0.010735 1:0.2956 
1 0:0.0074507 1:0.023431 
1 0:0.040535 1:0.0027241 
1 0:0.046626 1:0.0024165 
1 0:0.04762 1:0.0024644 
1 0:0.01806 1:0.15613 
1 0:0.019673 1:0.032904 
1 0:0.041306 1:0.0027551 
1 0:0.044369 1:0.0025858 
1 0:0.04125 1:0.0027477 
1 0:0.017549 1:0.11499 
1 0:0.020922 1:0.049536 
1 0:0.019621 1:0.021044 
1 0:0.026629 1:0.0059954 
1 0:0.012383 1:0.1242 
1 0:0.017766 1:0.047172 
1 0:0.012892 1:0.011614 
1 0:0.019699 1:0.0066719 
1 0:0.011997 1:0.070604 
1 0:0.017152 1:0.022372 
1 0:0.018347 1:0.0078175 
1 0:0.015073 1:0.014448 
1 0:0.013924 1:0.1682 
1 0:0.021853 1:0.11725 
1 0:0.014638 1:0.060971 
1 0:0.014494 1:0.012131 
1 0:0.020473 1:0.0068972 
1 0:0.016436 1:0.089862 
1 0:0.015848 1:0.13978 
1 0:0.026364 1:0.11617 
1 0:0.013011 1:0.074362 
1 0:0.016819 1:0.01251 
1 0:0.019853 1:0.0071225 
1 0:0.015964 1:0.055652 
1 0:0.01301 1:0.030534 
1 0:0.018582 1:0.0074606 
1 0:0.017483 1:0.010642 
1 0:0.022981 1:0.072931 
1 0:0.030827 1:0.040972 
1 0:0.017526 1:0.1259 
1 0:0.02075 1:0.1202 
1 0:0.013367 1:0.080836 
1 0:0.015095 1:0.013345 
1 0:0.019274 1:0.0072485 
1 0:0.017617 1:0.01881 
1 0:0.01582 1:0.057204 
1 0:0.014268 1:0.032243 
1 0:0.018349 1:0.0075508 
1 0:0.019018 1:0.0065995 
1 0:0.011783 1:0.10065 
1 0:0.019573 1:0.016809 
1 0:0.013096 1:0.017554 
1 0:0.025218 1:0.0085797 
1 0:0.022825 1:0.0050837 
1 0:0.016081 1:0.0074502 
-1 0:0.056901 1:0.11494 
1 0:0.12635 1:0.009315 
1 0:0.10268 1:0.016718 
1 0:0.01247 1:0.00085982 
1 0:0.20667 1:9.9976e-05 
1 0:0.098438 1:0.013899 
1 0:0.0091475 1:0.00083855 
1 0:0.23993 1:8.5713e-05 
1 0:0.020621 1:0.037929 
1 0:0.067789 1:0.055787 
1 0:0.0058201 1:0.0054265 
1 0:0.0041789 1:0.012095 
1 0:0.019036 1:0.001296 
1 0:0.0068501 1:0.0088462 
1 0:0.1179 1:0.046205 
1 0:0.010143 1:0.0029577 
1 0:0.012227 1:0.00056896 
1 0:0.023912 1:0.033604 
1 0:0.11585 1:0.043678 
1 0:0.011441 1:0.0023568 
1 0:0.011319 1:0.00052825 
1 0:0.13396 1:0.036278 
1 0:0.17941 1:0.019268 
1 0:0.010585 1:0.013093 
1 0:0.14825 1:0.07846 
1 0:0.052765 1:0.0056634 
1 0:0.17996 1:0.032884 
1 0:0.16183 1:0.064205 
1 0:0.13339 1:0.059902 
1 0:0.031443 1:0.11719 
1 0:0.044052 1:0.0074359 
1 0:0.18026 1:0.033911 
1 0:0.18843 1:0.004173 
1 0:0.15131 1:0.016924 
1 0:0.123 1:0.012867 
1 0:0.17881 1:0.029247 
1 0:0.18237 1:0.014383 
1 0:0.023688 1:0.13613 
1 0:0.17566 1:0.046166 
1 0:0.17376 1:0.016185 
1 0:0.17993 1:0.028164 
1 0:0.3547 1:0.039962 
1 0:0.037604 1:0.0048238 
1 0:0.1796 1:0.033029 
1 0:0.20038 1:0.0014243 
1 0:0.30076 1:0.048174 
1 0:0.16054 1:0.015258 
1 0:0.31474 1:0.045952 
1 0:0.11084 1:0.062074 
1 0:0.067833 1:0.0093833 
1 0:0.18014 1:0.033376 
1 0:0.18449 1:0.007361 
1 0:0.11146 1:0.022659 
1 0:0.16761 1:0.023852 
1 0:0.1806 1:0.022213 
1 0:0.040762 1:0.060955 
1 0:0.096269 1:0.062251 
1 0:0.20472 1:0.04092 
1 0:0.16366 1:0.063331 
1 0:0.14083 1:0.010363 
1 0:0.18021 1:0.030963 
1 0:0.32797 1:0.042036 
1 0:0.14593 1:0.046673 
1 0:0.039675 1:0.005106 
1 0:0.17961 1:0.032988 
1 0:0.18859 1:0.0023711 
1 0:0.29494 1:0.050365 
1 0:0.14322 1:0.01664 
1 0:0.29255 1:0.042817 
1 0:0.11432 1:0.070343 
1 0:0.093961 1:0.010165 
1 0:0.17981 1:0.032995 
1 0:0.18405 1:0.0089571 
1 0:0.10323 1:0.024802 
1 0:0.17447 1:0.030363 
1 0:0.18222 1:0.019064 
1 0:0.029573 1:0.075641 
1 0:0.087042 1:0.074039 
1 0:0.26524 1:0.032463 
1 0:0.16316 1:0.07375 
1 0:0.078032 1:0.0066413 
1 0:0.18043 1:0.031993 
1 0:0.31118 1:0.04505 
1 0:0.16844 1:0.045741 
1 0:0.17204 1:0.015913 
1 0:0.35349 1:0.03988 
0.76858 0:0.086803 1:0.082692 
1 0:0.20231 1:0.038763 
1 0:0.14633 1:0.093986 
1 0:0.048266 1:0.0053303 
1 0:0.18056 1:0.034042 
1 0:0.18749 1:0.0009718 
1 0:0.050124 1:0.0087406 
1 0:0.17955 1:0.032097 
1 0:0.18928 1:0.0054933 
1 0:0.10226 1:0.023782 
1 0:0.1247 1:0.034789 
1 0:0.16379 1:0.017296 
1 0:0.18332 1:0.027763 
1 0:0.17401 1:0.016726 
1 0:0.039457 1:0.056533 
1 0:0.11205 1:0.038803 
1 0:0.16701 1:0.05472 
1 0:0.16249 1:0.013208 
1 0:0.17923 1:0.030554 
1 0:0.34647 1:0.040913 
1 0:0.17892 1:0.042745 
1 0:0.044037 1:0.004951 
1 0:0.18042 1:0.034099 
1 0:0.19368 1:0.0017111 
1 0:0.17378 1:0.014419 
1 0:0.070974 1:0.0094191 
1 0:0.17945 1:0.03175 
1 0:0.18505 1:0.0072782 
1 0:0.074926 1:0.029643 
1 0:0.12265 1:0.037982 
1 0:0.1674 1:0.026084 
1 0:0.18197 1:0.022764 
1 0:0.18095 1:0.023075 
1 0:0.017738 1:0.0039583 
1 0:0.053006 1:0.12321 
1 0:0.097568 1:0.058185 
1 0:0.18915 1:0.011288 
1 0:0.056041 1:0.039454 
1 0:0.10912 1:0.047537 
1 0:0.17385 1:0.039637 
1 0:0.17647 1:0.015999 
1 0:0.18082 1:0.030259 
1 0:0.050947 1:0.0055601 
1 0:0.36912 1:0.0025203 
1 0:0.3063 1:0.045589 
1 0:0.33437 1:0.056478 
1 0:0.10179 1:0.06332 
1 0:0.080215 1:0.05816 
1 0:0.04421 1:0.0077076 
1 0:0.18 1:0.032129 
1 0:0.17798 1:0.0040103 
1 0:0.02712 1:0.0012751 
-1 0:0.056901 1:0.11494 
1 0:0.12635 1:0.009315 
1 0:0.10268 1:0.016718 
1 0:0.01247 1:0.00085982 
1 0:0.20667 1:9.9976e-05 
1 0:0.098438 1:0.013899 
1 0:0.0091475 1:0.00083855 
1 0:0.23993 1:8.5713e-05 
1 0:0.020621 1:0.037929 
1 0:0.067789 1:0.055787 
1 0:0.0058201 1:0.0054265 
1 0:0.0041789 1:0.012095 
1 0:0.019036 1:0.001296 
1 0:0.0068501 1:0.0088462 
1 0:0.1179 1:0.046205 
1 0:0.010143 1:0.0029577 
1 0:0.012227 1:0.00056896 
1 0:0.023912 1:0.033604 
1 0:0.11585 1:0.043678 
1 0:0.011441 1:0.0023568 
1 0:0.011319 1:0.00052825 
1 0:0.13396 1:0.036278 
1 0:0.17941 1:0.019268 
1 0:0.010585 1:0.013093 
1 0:0.14825 1:0.07846 
1 0:0.052765 1:0.0056634 
1 0:0.17996 1:0.032884 
1 0:0.16183 1:0.064205 
1 0:0.13339 1:0.059902 
1 0:0.031443 1:0.11719 
1 0:0.044052 1:0.0074359 
1 0:0.18026 1:0.033911 
1 0:0.18843 1:0.004173 
1 0:0.15131 1:0.016924 
1 0:0.123 1:0.012867 
1 0:0.17881 1:0.029247 
1 0:0.18237 1:0.014383 
1 0:0.023688 1:0.13613 
1 0:0.17566 1:0.046166 
1 0:0.17376 1:0.016185 
1 0:0.17993 1:0.028164 
1 0:0.3547 1:0.039962 
1 0:0.037604 1:0.0048238 
1 0:0.1796 1:0.033029 
1 0:0.20038 1:0.0014243 
1 0:0.30076 1:0.048174 
1 0:0.16054 1:0.015258 
1 0:0.31474 1:0.045952 
1 0:0.11084 1:0.062074 
1 0:0.067833 1:0.0093833 
1 0:0.18014 1:0.033376 
1 0:0.18449 1:0.007361 
1 0:0.11146 1:0.022659 
1 0:0.16761 1:0.023852 
1 0:0.1806 1:0.022213 
1 0:0.040762 1:0.060955 
1 0:0.096269 1:0.062251 
1 0:0.20472 1:0.04092 
1 0:0.16366 1:0.063331 
1 0:0.14083 1:0.010363 
1 0:0.18021 1:0.030963 
1 0:0.32797 1:0.042036 
1 0:0.14593 1:0.046673 
1 0:0.039675 1:0.005106 
1 0:0.17961 1:0.032988 
1 0:0.18859 1:0.0023711 
1 0:0.29494 1:0.050365 
1 0:0.14322 1:0.01664 
1 0:0.29255 1:0.042817 
1 0:0.11432 1:0.070343 
1 0:0.093961 1:0.010165 
1 0:0.17981 1:0.032995 
1 0:0.18405 1:0.0089571 
1 0:0.10323 1:0.024802 
1 0:0.17447 1:0.030363 
1 0:0.18222 1:0.019064 
1 0:0.029573 1:0.075641 
1 0:0.087042 1:0.074039 
1 0:0.26524 1:0.032463 
1 0:0.16316 1:0.07375 
1 0:0.078032 1:0.0066413 
1 0:0.18043 1:0.031993 
1 0:0.31118 1:0.04505 
1 0:0.16844 1:0.045741 
1 0:0.17204 1:0.015913 
1 0:0.35349 1:0.03988 
1 0:0.086803 1:0.082692 
1 0:0.20231 1:0.038763 
1 0:0.14633 1:0.093986 
1 0:0.048266 1:0.0053303 
1 0:0.18056 1:0.034042 
1 0:0.18749 1:0.0009718 
1 0:0.050124 1:0.0087406 
1 0:0.17955 1:0.032097 
1 0:0.18928 1:0.0054933 
1 0:0.10226 1:0.023782 
1 0:0.1247 1:0.034789 
1 0:0.16379 1:0.017296 
1 0:0.18332 1:0.027763 
1 0:0.17401 1:0.016726 
1 0:0.039457 1:0.056533 
1 0:0.11205 1:0.038803 
1 0:0.16701 1:0.05472 
1 0:0.16249 1:0.013208 
1 0:0.17923 1:0.030554 
1 0:0.34647 1:0.040913 
1 0:0.17892 1:0.042745 
1 0:0.044037 1:0.004951 
1 0:0.18042 1:0.034099 
1 0:0.19368 1:0.0017111 
1 0:0.17378 1:0.014419 
1 0:0.070974 1:0.0094191 
1 0:0.17945 1:0.03175 
1 0:0.18505 1:0.0072782 
1 0:0.074926 1:0.029643 
1 0:0.12265 1:0.037982 
1 0:0.1674 1:0.026084 
1 0:0.18197 1:0.022764 
1 0:0.18095 1:0.023075 
1 0:0.017738 1:0.0039583 
1 0:0.053006 1:0.12321 
1 0:0.097568 1:0.058185 
1 0:0.18915 1:0.011288 
1 0:0.056041 1:0.039454 
1 0:0.10912 1:0.047537 
1 0:0.17385 1:0.039637 
1 0:0.17647 1:0.015999 
1 0:0.18082 1:0.030259 
1 0:0.050947 1:0.0055601 
1 0:0.36912 1:0.0025203 
1 0:0.3063 1:0.045589 
1 0:0.33437 1:0.056478 
1 0:0.10179 1:0.06332 
1 0:0.080215 1:0.05816 
1 0:0.04421 1:0.0077076 
1 0:0.18 1:0.032129 
1 0:0.17798 1:0.0040103 
1 0:0.02712 1:0.0012751 
-1 0:0.033764 1:0.17639 
-1 0:0.053258 1:0.16883 
-1 0:0.027992 1:0.16347 
-1 0:0.043501 1:0.17766 
-1 0:0.052752 1:0.16257 
-1 0:0.052224 1:0.16387 
-1 0:0.040691 1:0.17607 
-1 0:0.048302 1:0.17271 
-1 0:0.023882 1:0.1772 
-1 0:0.028887 1:0.22377 
-1 0:0.086197 1:0.059234 
1 0:0.096684 1:0.025232 
1 0:0.23306 1:0.0021598 
-1 0:0.42517 1:0.058072 
-1 0:0.010496 1:0.11212 
-1 0:0.026856 1:0.16326 
-1 0:0.011407 1:0.15502 
-1 0:0.23871 1:0.069368 
-1 0:0.011281 1:0.13302 
-1 0:0.012071 1:0.17806 
-1 0:0.012702 1:0.2174 
-1 0:0.009695 1:0.02281 
-1 0:0.43285 1:0.060775 
-1 0:0.01248 1:0.23494 
1 0:0.12243 1:0.010495 
1 0:0.026044 1:0.0011603 
-1 0:0.010855 1:0.10112 
1 0:0.1112 1:0.02788 
1 0:0.28355 1:1.0673e-05 
1 0:0.071479 1:0.029976 
-1 0:0.31558 1:0.040457 
-1 0:0.014634 1:0.1291 
-1 0:0.0056545 1:0.00079041 
-1 0:0.0071865 1:0.00076887 
-1 0:0.0080419 1:0.00080287 
-1 0:0.010401 1:0.00057646 
-1 0:0.0066026 1:0.00067687 
-1 0:0.0077577 1:0.00088832 
-1 0:0.0028485 1:0.0018186 
-1 0:0.0057873 1:0.00081982 
-1 0:0.0080379 1:0.0010966 
-1 0:0.0061921 1:0.0026929 
-1 0:0.0080241 1:0.0027165 
-1 0:0.0079584 1:0.0034556 
-1 0:0.0055002 1:0.0049395 
-1 0:0.0048394 1:0.24632 
1 0:0.0057165 1:0.14968 
1 0:0.0068786 1:0.11771 
1 0:0.0041902 1:0.037868 
-1 0:0.0054973 1:0.053727 
-1 0:0.0049234 1:0.067734 
-1 0:0.004926 1:0.0695 
-1 0:0.0048719 1:0.070535 
1 0:0.0054661 1:0.21314 
1 0:0.0057399 1:0.12294 
1 0:0.0060597 1:0.095758 
1 0:0.0057349 1:0.1004 
1 0:0.0043877 1:0.039193 
1 0:0.0040535 1:0.37935 
1 0:0.0066966 1:0.18892 
1 0:0.0031384 1:0.068766 
1 0:0.0061651 1:0.1598 
1 0:0.0040001 1:0.070153 
1 0:0.0044921 1:0.035957 
1 0:0.003558 1:0.032608 
1 0:0.0069691 1:0.030122 
1 0:0.0038183 1:0.073455 
1 0:0.003273 1:0.050772 
1 0:0.0036364 1:0.021241 
1 0:0.0048062 1:0.27375 
1 0:0.0059897 1:0.20836 
1 0:0.0069202 1:0.16954 
1 0:0.0091408 1:0.085677 
1 0:0.0066895 1:0.034064 
1 0:0.0058999 1:0.026673 
1 0:0.0074546 1:0.24741 
1 0:0.0092597 1:0.22607 
1 0:0.0076813 1:0.066117 
1 0:0.0060301 1:0.11209 
1 0:0.0049107 1:0.087262 
1 0:0.0063589 1:0.035803 
1 0:0.0058393 1:0.068751 
1 0:0.0038163 1:0.054074 
1 0:0.0062378 1:0.026847 
1 0:0.0062975 1:0.069036 
1 0:0.0049846 1:0.048199 
1 0:0.0055022 1:0.022425 
1 0:0.0081156 1:0.05488 
1 0:0.005104 1:0.072956 
1 0:0.0059393 1:0.034184 
1 0:0.0043331 1:0.14262 
1 0:0.0035691 1:0.095177 
1 0:0.0043029 1:0.061258 
1 0:0.0032731 1:0.038825 
1 0:0.0036482 1:0.023666 
1 0:0.0042458 1:0.20841 
1 0:0.0038905 1:0.066183 
1 0:0.0044454 1:0.034331 
1 0:0.0035968 1:0.024675 
1 0:0.0043693 1:0.29058 
1 0:0.0051125 1:0.16774 
1 0:0.0058654 1:0.066643 
1 0:0.0032318 1:0.093879 
1 0:0.0047803 1:0.039358 
1 0:0.0037259 1:0.13883 
1 0:0.0047926 1:0.043978 
1 0:0.0064059 1:0.043447 
-1 0:0.0034539 1:0.20423 
-1 0:0.0053274 1:0.075934 
-1 0:0.0039086 1:0.23081 
-1 0:0.0031249 1:0.23005 
1 0:0.0053935 1:0.12566 
1 0:0.0063 1:0.041145 
1 0:0.0048211 1:0.057954 
-1 0:0.0033536 1:0.10109 
-1 0:0.0034872 1:0.099749 
-1 0:0.0055775 1:0.10205 
-1 0:0.0032452 1:0.10268 
-1 0:0.0034726 1:0.098604 
-1 0:0.0036369 1:0.10022 
-1 0:0.0037007 1:0.10303 
-1 0:0.0040892 1:0.10011 
-1 0:0.003374 1:0.10051 
-1 0:0.0032862 1:0.10672 
-1 0:0.0049412 1:0.099766 
-1 0:0.0035871 1:0.1055 
-1 0:0.0033691 1:0.10144 
-1 0:0.005353 1:0.098975 
-1 0:0.0030239 1:0.099631 
-1 0:0.003889 1:0.093911 
-1 0:0.0038982 1:0.089766 
-1 0:0.0030705 1:0.083691 
-1 0:0.0033152 1:0.017236 
-1 0:0.004495 1:0.017788 
-1 0:0.0030057 1:0.019262 
-1 0:0.0031321 1:0.022046 
-1 0:0.0030037 1:0.024655 
-1 0:0.0038936 1:0.026388 
-1 0:0.0031332 1:0.028166 
-1 0:0.0036467 1:0.029251 
-1 0:0.0054102 1:0.00015368 
-1 0:0.0070215 1:0.00050249 
-1 0:0.0055222 1:0.0012658 
-1 0:0.0055327 1:0.0013872 
-1 0:0.0028899 1:0.001342 
-1 0:0.00559 1:0.0011581 
-1 0:0.0034891 1:0.0011501 
-1 0:0.0010461 1:0.0012544 
-1 0:0.0020842 1:0.00096652 
-1 0:0.0016416 1:0.0017273 
-1 0:0.002189 1:0.0015072 
-1 0:0.00029879 1:0.0026506 
-1 0:0.00028233 1:0.0034411 
1 0:0.004228 1:0.1143 
1 0:0.0046779 1:0.077929 
1 0:0.0029839 1:0.028557 
1 0:0.0043014 1:0.019799 
1 0:0.0053205 1:0.0073568 
1 0:0.0027831 1:0.0059506 
1 0:0.0030141 1:0.003171 
1 0:0.0036886 1:0.11598 
1 0:0.0041603 1:0.069875 
1 0:0.0044237 1:0.028669 
1 0:0.0035437 1:0.017877 
1 0:0.0046083 1:0.02363 
1 0:0.004065 1:0.092399 
1 0:0.0052038 1:0.056309 
1 0:0.0030769 1:0.025752 
1 0:0.0039754 1:0.014834 
1 0:0.004048 1:0.0059687 
1 0:0.0050993 1:0.068619 
1 0:0.0049497 1:0.040225 
1 0:0.0029337 1:0.01699 
1 0:0.0050914 1:0.023781 
1 0:0.0030457 1:0.020635 
1 0:0.0029719 1:0.02602 
1 0:0.0050568 1:0.033894 
1 0:0.0030874 1:0.01834 
1 0:0.03745 1:0.055473 
1 0:0.10073 1:0.023117 
1 0:0.040124 1:0.036061 
1 0:0.065995 1:0.023937 
1 0:0.033354 1:0.041306 
1 0:0.017384 1:0.091308 
1 0:0.020696 1:0.067747 
1 0:0.089455 1:0.023777 
1 0:0.047878 1:0.018033 
1 0:0.075393 1:0.0079046 
1 0:0.045762 1:0.030647 
1 0:0.064163 1:0.02019 
1 0:0.01556 1:0.090055 
1 0:0.010203 1:0.072983 
1 0:0.08942 1:0.023149 
1 0:0.048243 1:0.020944 
1 0:0.33133 1:0.011747 
1 0:0.057355 1:0.027546 
-1 0:0.0054102 1:0.00015368 
-1 0:0.0070215 1:0.00050249 
-1 0:0.0055222 1:0.0012658 
-1 0:0.0055327 1:0.0013872 
-1 0:0.0028899 1:0.001342 
-1 0:0.00559 1:0.0011581 
-1 0:0.0034891 1:0.0011501 
-1 0:0.0010461 1:0.0012544 
-1 0:0.0020842 1:0.00096652 
-1 0:0.0016416 1:0.0017273 
-1 0:0.002189 1:0.0015072 
-1 0:0.00029879 1:0.0026506 
-1 0:0.00028233 1:0.0034411 
1 0:0.004228 1:0.1143 
1 0:0.0046779 1:0.077929 
1 0:0.0029839 1:0.028557 
1 0:0.0043014 1:0.019799 
1 0:0.0053205 1:0.0073568 
1 0:0.0027831 1:0.0059506 
1 0:0.0030141 1:0.003171 
1 0:0.0036886 1:0.11598 
1 0:0.0041603 1:0.069875 
1 0:0.0044237 1:0.028669 
1 0:0.0035437 1:0.017877 
1 0:0.0046083 1:0.02363 
1 0:0.004065 1:0.092399 
1 0:0.0052038 1:0.056309 
1 0:0.0030769 1:0.025752 
1 0:0.0039754 1:0.014834 
1 0:0.004048 1:0.0059687 
1 0:0.0050993 1:0.068619 
1 0:0.0049497 1:0.040225 
1 0:0.0029337 1:0.01699 
1 0:0.0050914 1:0.023781 
1 0:0.0030457 1:0.020635 
1 0:0.0029719 1:0.02602 
1 0:0.0050568 1:0.033894 
1 0:0.0030874 1:0.01834 
1 0:0.041942 1:0.055894 
1 0:0.1066 1:0.023256 
1 0:0.038725 1:0.035789 
1 0:0.058979 1:0.023795 
1 0:0.034993 1:0.04155 
1 0:0.042555 1:0.019697 
1 0:0.018535 1:0.091634 
1 0:0.024032 1:0.067984 
1 0:0.114 1:0.024345 
1 0:0.06086 1:0.018227 
1 0:0.067485 1:0.0076309 
1 0:0.065729 1:0.031092 
1 0:0.072667 1:0.020318 
1 0:0.02066 1:0.090718 
1 0:0.010221 1:0.073396 
1 0:0.06999 1:0.022698 
1 0:0.031924 1:0.020391 
1 0:0.29685 1:0.01044 
1 0:0.040091 1:0.034222 
1 0:0.046016 1:0.027395 
-1 0:0.0038606 1:0.009002 
-1 0:0.013775 1:0.10428 
-1 0:0.012196 1:0.091886 
-1 0:0.058897 1:0.12112 
-1 0:0.021848 1:0.071271 
-1 0:0.022149 1:0.069938 
-1 0:0.02321 1:0.086525 
-1 0:0.021424 1:0.095181 
-1 0:0.02344 1:0.1014 
-1 0:0.023715 1:0.11296 
-1 0:0.024745 1:0.11838 
-1 0:0.019648 1:7.219e-05 
-1 0:0.0041798 1:0.0024863 
-1 0:0.0041498 1:0.0030294 
-1 0:0.0032666 1:0.0030537 
-1 0:0.0015945 1:0.0024368 
-1 0:0.0074985 1:0.0011349 
-1 0:0.0046284 1:0.001067 
-1 0:0.0034412 1:0.0011501 
-1 0:0.06784 1:0.0030898 
-1 0:0.0076546 1:0.0015828 
-1 0:0.0083251 1:0.0020918 
1 0:0.026578 1:0.073299 
1 0:0.024089 1:0.010653 
1 0:0.06726 1:0.012072 
1 0:0.13428 1:0.0033541 
1 0:0.12967 1:0.025242 
1 0:0.066541 1:0.0074054 
1 0:0.08436 1:0.0095113 
1 0:0.067763 1:0.0021869 
-1 0:0.01407 1:0.20337 
1 0:0.019873 1:0.0063231 
-1 0:0.0083569 1:0.075836 
-1 0:0.0086506 1:0.07664 
-1 0:0.0086527 1:0.06697 
-1 0:0.055236 1:0.0018672 
-1 0:0.013505 1:0.0011476 
-1 0:0.01672 1:0.0009869 
-1 0:0.0058531 1:0.00066812 
-1 0:0.0095674 1:0.00079839 
-1 0:0.0032567 1:0.00096882 
-1 0:0.012119 1:0.0011325 
-1 0:0.0045414 1:0.0017249 
-1 0:0.0027344 1:0.0013133 
-1 0:0.01323 1:0.0011234 
-1 0:0.0058617 1:0.00090621 
-1 0:0.0075212 1:0.0016293 
-1 0:0.0053695 1:0.0012711 
-1 0:0.010647 1:0.00088663 
-1 0:0.0061072 1:0.00095343 
-1 0:0.030672 1:0.00091186 
-1 0:0.037088 1:0.00098954 
-1 0:0.01032 1:0.00093578 
-1 0:0.019226 1:0.00083974 
-1 0:0.022803 1:0.001064 
-1 0:0.0052379 1:0.00093029 
-1 0:0.010439 1:0.0010279 
-1 0:0.02627 1:0.0011605 
-1 0:0.0047798 1:0.0011786 
-1 0:0.0053428 1:0.0010369 
-1 0:0.009655 1:0.001147 
-1 0:0.0096145 1:0.0013931 
-1 0:0.016417 1:0.0015508 
-1 0:0.017061 1:0.0021351 
-1 0:0.027184 1:0.0011852 
-1 0:0.028532 1:0.0014373 
-1 0:0.029635 1:0.001661 
-1 0:0.1903 1:0.0093983 
-1 0:0.19959 1:0.021487 
-1 0:0.19544 1:0.025463 
1 0:0.04161 1:0.0091329 
1 0:0.07632 1:0.007254 
-1 0:0.0097206 1:0.06025 
-1 0:0.0099785 1:0.068517 
-1 0:0.0079914 1:0.051289 
-1 0:0.0079019 1:0.047671 
-1 0:0.008379 1:0.044844 
-1 0:0.0079602 1:0.049742 
-1 0:0.0076124 1:0.039856 
-1 0:0.0089963 1:0.00087199 
-1 0:0.005357 1:0.00071102 
-1 0:0.0042765 1:0.00073902 
-1 0:0.0048918 1:0.00076297 
-1 0:0.0036248 1:0.00085902 
-1 0:0.0089473 1:0.00083743 
-1 0:0.0058402 1:0.0008378 
-1 0:0.0034767 1:0.0013855 
-1 0:0.010306 1:0.0014305 
-1 0:0.0037799 1:0.0012751 
-1 0:0.013915 1:0.0011694 
-1 0:0.004705 1:0.00072337 
-1 0:0.0050563 1:0.00085885 
-1 0:0.003904 1:0.00092638 
-1 0:0.0032733 1:0.0014031 
-1 0:0.0038263 1:0.00094645 
-1 0:0.0027167 1:0.0010872 
-1 0:0.0029537 1:0.0013534 
-1 0:0.0032008 1:0.0011932 
-1 0:0.0058276 1:0.0015477 
-1 0:0.0040624 1:0.00084897 
-1 0:0.0051032 1:0.00080235 
-1 0:0.0042345 1:0.00078078 
-1 0:0.0045997 1:0.00082897 
-1 0:0.005336 1:0.00091888 
-1 0:0.0088423 1:0.0012014 
-1 0:0.010854 1:0.0011508 
-1 0:0.0087223 1:0.0013291 
-1 0:0.0061118 1:0.0010027 
-1 0:0.0058745 1:0.00093142 
-1 0:0.0036106 1:0.00099162 
-1 0:0.0048201 1:0.0011074 
-1 0:0.0033208 1:0.0014007 
-1 0:0.023814 1:0.0014331 
-1 0:0.011368 1:0.0013309 
-1 0:0.0099795 1:0.0015355 
-1 0:0.0032902 1:0.0013141 
-1 0:0.0026205 1:0.0014519 
-1 0:0.0032967 1:0.0012315 
-1 0:0.0020511 1:0.0016639 
-1 0:0.0020089 1:0.0016767 
-1 0:0.0044578 1:0.0013385 
-1 0:0.004248 1:0.0013656 
-1 0:0.0027932 1:0.0017145 
-1 0:0.0038903 1:0.0020784 
-1 0:0.0047257 1:0.0020803 
-1 0:0.0041727 1:0.0021237 
-1 0:0.0072944 1:0.001876 
-1 0:0.0088267 1:0.0017609 
-1 0:0.0078255 1:0.0015984 
-1 0:0.0062202 1:0.0017847 
-1 0:0.0053751 1:0.0016871 
-1 0:0.0074824 1:0.0014945 
-1 0:0.0074357 1:0.0015589 
-1 0:0.0084187 1:0.0016525 
-1 0:0.0084719 1:0.0016561 
-1 0:0.003386 1:0.0014684 
-1 0:0.0038359 1:0.0015179 
-1 0:0.0054327 1:0.0017332 
-1 0:0.0053579 1:0.0017984 
-1 0:0.0045951 1:0.0013938 
-1 0:0.0025931 1:0.0017979 
-1 0:0.0039581 1:0.0019298 
-1 0:0.0049201 1:0.0021668 
-1 0:0.0082439 1:0.0022928 
-1 0:0.014471 1:0.0020584 
-1 0:0.006487 1:0.0017858 
-1 0:0.0039457 1:0.001938 
-1 0:0.005231 1:0.0020355 
-1 0:0.0056824 1:0.0016195 
-1 0:0.0070092 1:0.001245 
-1 0:0.0038632 1:0.0012151 
-1 0:0.0032436 1:0.001382 
-1 0:0.0027598 1:0.0015266 
-1 0:0.0030823 1:0.0013699 
-1 0:0.0093303 1:0.0038598 
-1 0:0.0071516 1:0.0043973 
-1 0:0.005172 1:0.0011103 
-1 0:0.0042116 1:0.00094703 
-1 0:0.0029209 1:0.0011931 
-1 0:0.008652 1:0.00096425 
-1 0:0.0041934 1:0.0018904 
-1 0:0.0041281 1:0.002672 
-1 0:0.0043443 1:0.0026488 
-1 0:0.0032566 1:0.0015128 
-1 0:0.0050359 1:0.0023047 
-1 0:0.057365 1:0.0030478 
-1 0:0.052018 1:0.0044248 
1 0:0.015897 1:0.061181 
1 0:0.025004 1:0.013702 
1 0:0.0035309 1:0.027428 
1 0:0.047927 1:0.48113 
1 0:0.044456 1:0.45421 
1 0:0.023752 1:0.29339 
1 0:0.018179 1:0.3847 
1 0:0.022811 1:0.33988 
1 0:0.052667 1:0.62302 
1 0:0.050232 1:0.53352 
1 0:0.041412 1:0.40606 
1 0:0.02748 1:0.35467 
1 0:0.022879 1:0.1134 
1 0:0.19379 1:0.069019 
1 0:0.045549 1:0.094467 
1 0:0.040078 1:0.010369 
1 0:0.099288 1:0.026084 
1 0:0.050762 1:0.0024246 
1 0:0.029638 1:0.015908 
1 0:0.040796 1:0.01663 
1 0:0.04759 1:0.011852 
1 0:0.014232 1:0.037619 
1 0:0.03023 1:0.0072315 
-1 0:0.0079665 1:0.033756 
-1 0:0.0081051 1:0.029236 
-1 0:0.0078434 1:0.02805 
-1 0:0.0081664 1:0.026473 
-1 0:0.0076537 1:0.022843 
-1 0:0.028139 1:0.036051 
-1 0:0.2385 1:0.03787 
-1 0:0.011879 1:0.067388 
-1 0:0.010724 1:0.09245 
-1 0:0.010491 1:0.091424 
-1 0:0.010549 1:0.089843 
-1 0:0.010738 1:0.092003 
-1 0:0.01054 1:0.096674 
-1 0:0.011017 1:0.090688 
-1 0:0.010539 1:0.090147 
-1 0:0.010965 1:0.095263 
-1 0:0.010432 1:0.095147 
-1 0:0.011792 1:0.094693 
-1 0:0.010752 1:0.097562 
-1 0:0.011115 1:0.09757 
-1 0:0.011592 1:0.095811 
-1 0:0.01141 1:0.10214 
-1 0:0.012037 1:0.1037 
-1 0:0.010558 1:0.073429 
-1 0:0.010093 1:0.067042 
-1 0:0.010002 1:0.064931 
-1 0:0.010389 1:0.05473 
-1 0:0.010802 1:0.061976 
-1 0:0.01007 1:0.061434 
-1 0:0.010175 1:0.056017 
-1 0:0.010342 1:0.05211 
-1 0:0.010071 1:0.050629 
-1 0:0.010677 1:0.045484 
-1 0:0.01057 1:0.0475 
-1 0:0.010147 1:0.044798 
-1 0:0.01077 1:0.037323 
-1 0:0.010233 1:0.041201 
-1 0:0.010522 1:0.036191 
-1 0:0.018986 1:3.131e-05 
-0.9994499999999999 0:0.027548 1:6.9621e-05 
-1 0:0.020643 1:0.00011135 
-1 0:0.011249 1:0.00018487 
-1 0:0.010095 1:0.00023272 
-1 0:0.004886 1:0.00092371 
-1 0:0.0036798 1:0.001098 
-1 0:0.0033418 1:0.0010674 
-1 0:0.0025606 1:0.0030757 
-1 0:0.0016865 1:0.0094053 
-1 0:0.0001527 1:0.011622 
-1 0:0.0076785 1:0.2711 
-1 0:0.006998 1:0.26317 
-1 0:0.007216 1:0.26144 
-1 0:0.0074203 1:0.25942 
-1 0:0.0076096 1:0.24387 
-1 0:0.0071088 1:0.23883 
-1 0:0.0071007 1:0.23591 
-1 0:0.0074732 1:0.23533 
-1 0:0.0068813 1:0.22952 
-1 0:0.0071028 1:0.22755 
-1 0:0.004896 1:0.17368 
-1 0:0.0029442 1:0.14944 
-1 0:0.0039014 1:0.14784 
-1 0:0.0044607 1:0.14419 
-1 0:0.0045992 1:0.14632 
-1 0:0.0048446 1:0.13829 
-1 0:0.0044095 1:0.1428 
-1 0:0.0042009 1:0.13477 
-1 0:0.0035518 1:0.13656 
-1 0:0.0027712 1:0.13122 
-1 0:0.0024477 1:0.13092 
-1 0:0.0024292 1:0.12626 
-1 0:0.0028144 1:0.12562 
-1 0:0.0035004 1:0.12339 
-1 0:0.004056 1:0.12194 
-1 0:0.004611 1:0.12119 
-1 0:0.0052173 1:0.1139 
-1 0:0.0046135 1:0.11991 
-1 0:0.0041625 1:0.11096 
-1 0:0.0031776 1:0.10954 
-1 0:0.0071506 1:0.27293 
-1 0:0.0068934 1:0.26636 
-1 0:0.0072325 1:0.26527 
-1 0:0.0073031 1:0.24134 
-1 0:0.0070152 1:0.23379 
-1 0:0.0069152 1:0.22888 
-1 0:0.0072726 1:0.23003 
-1 0:0.0072101 1:0.22863 
-1 0:0.0068879 1:0.22434 
-1 0:0.007232 1:0.2262 
-1 0:0.0073005 1:0.22475 
-1 0:0.0069288 1:0.22018 
-1 0:0.0074297 1:0.21227 
-1 0:0.003129 1:0.11455 
-1 0:0.0026897 1:0.11299 
-1 0:0.0025119 1:0.1111 
-1 0:0.0029271 1:0.11052 
-1 0:0.0039152 1:0.10764 
-1 0:0.0046105 1:0.11051 
-1 0:0.0049776 1:0.10394 
-1 0:0.0043126 1:0.1074 
-1 0:0.0043373 1:0.1011 
-1 0:0.0042893 1:0.10282 
-1 0:0.0036827 1:0.10073 
-1 0:0.0029719 1:0.099329 
-1 0:0.0024454 1:0.097645 
-1 0:0.0026616 1:0.095414 
-1 0:0.0033336 1:0.095846 
-1 0:0.0036639 1:0.093596 
-1 0:0.0039851 1:0.094533 
-1 0:0.0047554 1:0.090117 
-1 0:0.0050769 1:0.091976 
-1 0:0.0049226 1:0.089108 
-1 0:0.0038941 1:0.088311 
-1 0:0.0028439 1:0.084978 
-1 0:0.0079401 1:0.27292 
-1 0:0.0077031 1:0.26343 
-1 0:0.0080364 1:0.23013 
-1 0:0.0070846 1:0.22101 
-1 0:0.0072234 1:0.21722 
-1 0:0.007922 1:0.2163 
-1 0:0.0066627 1:0.20839 
-1 0:0.0080378 1:0.2098 
-1 0:0.0070414 1:0.20478 
-1 0:0.0073703 1:0.20534 
-1 0:0.0076634 1:0.20419 
-1 0:0.0068803 1:0.19867 
-1 0:0.0077209 1:0.20082 
-1 0:0.0069441 1:0.19729 
-1 0:0.007095 1:0.19725 
-1 0:0.0043063 1:0.13061 
-1 0:0.0047837 1:0.12882 
-1 0:0.003824 1:0.12155 
-1 0:0.0074117 1:0.26603 
-1 0:0.0071235 1:0.2625 
-1 0:0.0075881 1:0.26293 
-1 0:0.0069436 1:0.2574 
-1 0:0.0077051 1:0.25925 
-1 0:0.0078696 1:0.25416 
-1 0:0.0078256 1:0.25003 
-1 0:0.0068063 1:0.24252 
-1 0:0.0078383 1:0.24424 
-1 0:0.0068986 1:0.23693 
-1 0:0.0071627 1:0.23719 
-1 0:0.0043019 1:0.15062 
