svm_type epsilon_svr
kernel_type rbf
gamma 0
nr_class 2
total_sv 19910
rho -0.20041
SV
-1 0:0.021288 1:0.17911001 
-1 0:0.0056277998 1:0.40858999 
-1 0:0.054798 1:0.1504 
1 0:0.0061333999 1:0.50415999 
1 0:0.10696 1:0.0074602002 
1 0:0.022953 1:0.11789 
1 0:0.80194002 1:5.7621e-05 
1 0:0.023313001 1:0.0056669 
1 0:0.12144 1:0.0015973001 
1 0:0.014147 1:0.067635 
-1 0:0.035289999 1:0.0013684999 
-1 0:0.19258 1:0.034821 
1 0:0.0039786999 1:0.0091805998 
1 0:0.074679002 1:0.076875001 
1 0:0.040801 1:0.10539 
1 0:0.082832001 1:0.001114 
-1 0:0.017935 1:0.11004 
-1 0:0.0065333 1:0.021184999 
-1 0:0.0056397002 1:0.0096763 
-1 0:0.045382999 1:0.11831 
1 0:0.011176 1:0.0018295 
1 0:0.0041577001 1:0.011991 
1 0:0.47922 1:0.033805002 
1 0:0.11408 1:0.071787 
1 0:0.51740003 1:0.010454 
1 0:0.41350001 1:0.00036559999 
1 0:0.023287 1:0.036651 
1 0:0.15948001 1:0.017215 
1 0:0.053463001 1:0.071850002 
1 0:0.0055451998 1:0.24608999 
1 0:0.059202999 1:0.11972 
1 0:0.0078173997 1:0.085404001 
1 0:0.0076767001 1:0.069050997 
1 0:0.031097 1:0.25915 
1 0:0.071372002 1:0.021911001 
1 0:0.038539 1:0.10965 
1 0:0.054703001 1:0.2482 
1 0:0.0049326001 1:0.38584 
1 0:0.029157 1:0.22125 
1 0:0.31639001 1:3.5493002e-05 
1 0:0.048351001 1:0.20108999 
1 0:0.025992 1:0.0072066002 
1 0:0.0058668 1:0.15279999 
1 0:0.037601002 1:0.00099265005 
1 0:0.043163002 1:0.0094956001 
1 0:0.031417001 1:0.054740001 
1 0:0.099101998 1:0.0010404 
1 0:0.11358 1:0.0099261003 
1 0:0.031330001 1:0.042330999 
1 0:0.051314 1:0.045019001 
-1 0:0.025017999 1:0.16033 
-1 0:0.0055531999 1:0.15008 
1 0:0.041894 1:0.030989001 
1 0:0.047591999 1:0.02365 
1 0:0.0050057 1:0.29025 
1 0:0.39085999 1:0.015405 
-1 0:0.016709 1:0.13026001 
-1 0:0.046769001 1:0.18796 
-1 0:0.066100001 1:0.24498001 
-1 0:0.026603 1:0.070977002 
1 0:0.0080169002 1:0.091554999 
1 0:0.0062227999 1:0.0013624 
1 0:0.0032242001 1:0.057519998 
1 0:0.0033869999 1:0.38365 
1 0:0.0074848002 1:0.14041001 
1 0:0.0023085999 1:0.00035076 
1 0:0.01778 1:0.32435 
1 0:0.006937 1:0.14094 
1 0:0.061074 1:0.25806999 
1 0:0.077610001 1:0.21319 
1 0:0.0034239001 1:0.00082459999 
-1 0:0.026814001 1:0.057213999 
1 0:0.0036332 1:0.72127998 
1 0:0.20983 1:0.045506001 
1 0:0.0023773001 1:0.44031 
1 0:0.094934002 1:0.000401 
1 0:0.06865 1:0.062181 
1 0:0.0073853 1:0.38839999 
1 0:0.062553003 1:0.022190001 
-1 0:0.014806 1:0.34546 
-1 0:0.011767 1:0.40336001 
1 0:0.030531 1:0.11182 
1 0:0.040996999 1:0.17872 
1 0:0.013634 1:0.23910999 
1 0:0.023705 1:0.28402999 
1 0:0.0059686 1:0.22134 
1 0:0.056595001 1:0.0015592 
1 0:0.016497999 1:0.085841998 
1 0:0.014921 1:0.031977002 
1 0:0.0062246998 1:0.13905001 
1 0:0.060826 1:0.21886 
1 0:0.024935 1:0.14702 
1 0:0.0045769 1:0.35883 
1 0:0.032747999 1:0.17476 
1 0:0.043791 1:0.29416001 
1 0:0.0096223997 1:0.26692 
1 0:0.00071204 1:0.092174999 
1 0:0.0051475 1:0.015993999 
-1 0:0.0059898002 1:0.30719 
-1 0:0.026327001 1:0.15233 
1 0:0.087099001 1:0.024387 
1 0:0.0077991998 1:0.23402999 
1 0:0.0089702001 1:0.093745999 
1 0:0.021586999 1:0.50871003 
1 0:0.077514 1:0.12727 
1 0:0.23853999 1:0.010393 
1 0:0.019229 1:0.028214 
1 0:0.017789001 1:0.089198001 
1 0:0.0032094 1:0.40259001 
1 0:0.079825997 1:0.28849 
1 0:0.020592 1:0.13872001 
1 0:0.22938 1:0.019129001 
1 0:0.0074115 1:0.13728 
1 0:0.081883997 1:0.2077 
1 0:0.062960997 1:0.16287 
1 0:0.0044308999 1:0.60084999 
1 0:0.22479001 1:0.038690001 
1 0:0.035962 1:0.050868999 
1 0:0.011185 1:0.0024633999 
1 0:0.096556 1:0.003452 
1 0:0.020179 1:0.27891001 
1 0:0.027243 1:0.091463 
1 0:0.041788999 1:0.13652 
1 0:0.071217 1:0.17110001 
1 0:0.14872999 1:0.063790001 
1 0:0.0090894997 1:0.0010815 
1 0:0.032933999 1:0.19558001 
1 0:0.013113 1:0.31852001 
1 0:0.0050645 1:0.39912999 
1 0:0.026327001 1:0.26394001 
1 0:0.072967999 1:0.2017 
1 0:0.014042 1:0.061689999 
1 0:0.0071923002 1:0.035216998 
1 0:0.28538999 1:0.00014684 
1 0:0.032717999 1:0.16418 
1 0:0.019212 1:0.13160001 
1 0:0.01822 1:0.26078999 
-1 0:0.038660001 1:0.042358 
-1 0:0.0082735 1:0.19825 
-1 0:0.078502998 1:0.013407 
1 0:0.0044335001 1:0.087899998 
1 0:0.020075999 1:0.12199 
1 0:0.0055605001 1:0.31444001 
1 0:0.0049926001 1:0.43459001 
1 0:0.020927001 1:0.084683001 
1 0:0.016368 1:0.29300001 
1 0:0.043435998 1:0.10208 
1 0:0.0053087999 1:0.31255001 
1 0:0.056557 1:0.051677 
1 0:0.0041360999 1:0.32997 
1 0:0.044077002 1:0.11583 
1 0:0.0045673 1:0.68124998 
-1 0:0.11296 1:0.05545 
-1 0:0.018998999 1:0.12677 
-1 0:0.036998998 1:0.27175 
-1 0:0.079139002 1:0.053973 
-1 0:0.0074133002 1:0.1534 
-1 0:0.0064845001 1:0.5061 
-1 0:0.037978999 1:0.062210001 
1 0:0.024465 1:0.066905998 
1 0:0.032195002 1:0.31329 
1 0:0.079489 1:0.12142 
1 0:0.0055962 1:0.49057999 
1 0:0.076627001 1:0.069508001 
1 0:0.0038709 1:0.0025881999 
1 0:0.29532999 1:0.0038554 
1 0:0.35407999 1:9.7377e-05 
1 0:0.0055347998 1:0.14007001 
1 0:0.010035 1:0.15618999 
1 0:0.49926001 1:0.010082 
1 0:0.016342999 1:0.21693 
1 0:0.023275999 1:0.35817999 
1 0:0.017542999 1:0.094302997 
1 0:0.077427 1:0.26411 
1 0:0.05077 1:0.1177 
1 0:0.069907002 1:0.102 
1 0:0.024971999 1:0.19102 
-1 0:0.038072001 1:0.18926001 
-1 0:0.014045 1:0.027966 
-1 0:0.020984 1:0.095288999 
-1 0:0.10261 1:0.26341 
1 0:0.019112 1:0.029236 
1 0:0.034386002 1:0.11045 
1 0:0.0047614002 1:0.18348999 
1 0:0.090065002 1:0.14853001 
1 0:0.005926 1:0.38828999 
1 0:0.3536 1:0.081565998 
1 0:0.0015435 1:0.0011301 
1 0:0.016062999 1:0.072022997 
1 0:0.049798999 1:0.055658001 
1 0:0.042764999 1:0.019541999 
1 0:0.096770003 1:0.090336002 
1 0:0.085804 1:0.04078 
1 0:0.15692 1:0.055672001 
1 0:0.047789998 1:0.28814 
1 0:0.067492001 1:0.19649 
1 0:0.56696999 1:0.0089923004 
1 0:0.077241004 1:0.0045324001 
1 0:0.99193001 1:0.052625999 
1 0:0.0055777002 1:0.0012052 
1 0:0.019090001 1:0.10556 
1 0:0.039267998 1:0.1245 
1 0:0.013901 1:0.065093003 
1 0:0.047680002 1:0.089194 
1 0:0.023312001 1:0.18268999 
1 0:0.039957002 1:0.077630997 
1 0:0.0080174003 1:0.32062 
1 0:0.0093913004 1:0.23450001 
1 0:0.18573 1:0.020717001 
1 0:0.12963 1:0.013363 
1 0:0.004154 1:0.32677999 
-1 0:0.20104 1:0.028698999 
-1 0:0.012273 1:0.19051 
-1 0:0.042932998 1:0.090998001 
1 0:0.02073 1:0.32775 
1 0:0.031125 1:0.011482 
-1 0:0.0049981 1:0.49588001 
-1 0:0.0070500998 1:0.035296999 
-1 0:0.0047670002 1:0.12878001 
-1 0:0.15295 1:0.019668 
-1 0:0.023995001 1:0.13268 
1 0:0.09003 1:0.28804001 
1 0:0.50774997 1:0 
1 0:0.20777 1:0.028586 
1 0:0.031998001 1:0.13087 
1 0:0.059526 1:0.11053 
1 0:0.015377 1:0.10506 
1 0:0.077031001 1:0.058201998 
1 0:0.10291 1:0.0090912003 
1 0:0.016744001 1:0.11006 
1 0:0.025348 1:0.053575002 
1 0:0.036483999 1:0.29240999 
1 0:0.0080468999 1:0.21219 
-1 0:0.0059916 1:0.60448003 
-1 0:0.41977 1:0.078176998 
-1 0:0.023537001 1:0.22404 
-1 0:0.10336 1:0.00020628 
-1 0:0.013707 1:0.0031069999 
-1 0:0.018668 1:0.19408999 
1 0:0.034056 1:0.092431001 
1 0:0.0050069001 1:0.37803 
1 0:0.50278997 1:0.011417 
1 0:0.012857 1:0.037253998 
1 0:0.0037525999 1:0.068319 
1 0:0.022575 1:0.14047 
1 0:0.031909999 1:0.25696 
1 0:0.012573 1:0.061639 
1 0:0.039884001 1:0.080054 
1 0:0.0065425001 1:0.017192001 
1 0:0.17331 1:0.008161 
1 0:0.28702 1:0.046395 
1 0:0.0051723998 1:0.023994001 
-1 0:0.021465 1:0.19106001 
1 0:0.22553 1:0.0027765001 
1 0:0.0059122001 1:0.52640003 
1 0:0.0067985998 1:0.13623001 
1 0:0.047357999 1:0.18497001 
-1 0:0.036609001 1:0.13649 
-1 0:0.033092 1:0.15475 
-1 0:0.0151 1:0.16985001 
-1 0:0.18495999 1:0.057184 
1 0:0.048595 1:0.13970999 
1 0:0.044741999 1:0.27257001 
1 0:0.020902 1:0.11597 
1 0:0.062954001 1:0.10179 
1 0:0.025013 1:0.068806 
1 0:0.024622999 1:0.072333001 
1 0:0.31277001 1:0.10727 
1 0:0.22522999 1:0.01149 
1 0:0.036839001 1:0.19126 
1 0:0.0066684 1:0.31457001 
1 0:0.015597 1:0.062794 
1 0:0.89638001 1:8.4858999e-05 
1 0:0.0097423997 1:0.17847 
1 0:0.0045942999 1:0.72096997 
1 0:0.92216003 1:0.00039385 
1 0:0.026497001 1:0.15804 
1 0:0.0045063002 1:0.48058999 
1 0:0.056621 1:0.22867 
1 0:0.019352 1:0.1911 
1 0:0.025319999 1:0.073499002 
1 0:0.013441 1:0.34202999 
1 0:0.038304001 1:0.023711 
1 0:0.0079891998 1:0.37678999 
1 0:0.024139 1:0.0022829999 
1 0:0.077914998 1:0.0055324002 
1 0:0.81358999 1:0.00010967 
1 0:0.0093705002 1:0.10356 
1 0:0.0079647005 1:0.041207999 
1 0:0.063499004 1:0.0053196 
-1 0:0.17276999 1:0.040720999 
-1 0:0.45109001 1:0.026258999 
1 0:0.068890996 1:0.097126 
1 0:0.046879001 1:0.10391 
1 0:0.019440999 1:0.093912996 
1 0:0.10299 1:0.17028999 
-1 0:0.37459001 1:0.0015046 
-1 0:0.044744998 1:0.21679001 
-1 0:0.016638 1:0.11777 
-1 0:0.13017 1:0.0085575003 
1 0:0.0080377003 1:0.26488999 
1 0:0.015383 1:0.13795 
1 0:0.0055567999 1:0.2306 
1 0:0.032333001 1:0.21151 
1 0:0.058132 1:0.11358 
1 0:0.044845 1:0.021816 
1 0:0.059101999 1:0.034612998 
1 0:0.0038508 1:0.0026942999 
1 0:0.050340999 1:0.50994998 
1 0:0.044651002 1:0.25650999 
1 0:0.029786 1:0.1705 
1 0:0.21493 1:0.071217999 
1 0:0.21991 1:0.033817999 
1 0:0.01555 1:0.15335 
1 0:0.099772997 1:0.032249998 
1 0:0.032205001 1:0.13901 
1 0:0.054854002 1:0.0195 
1 0:0.036906999 1:0.12473 
1 0:0.0058937999 1:0.23558 
-1 0:0.010096 1:0.11459 
-1 0:0.11529 1:0.010338 
1 0:0.41576001 1:0.058371 
1 0:0.015449 1:0.1415 
1 0:0.014522 1:0.20758 
1 0:0.016899001 1:0.14375 
1 0:0.0064547001 1:0.0057285 
1 0:0.024766 1:0.00067422999 
1 0:0.0033362999 1:0.48367 
1 0:0.028488999 1:0.11695 
1 0:0.32304999 1:0.031562999 
1 0:0.018104 1:0.25953999 
1 0:0.025542 1:0.13880999 
1 0:0.0085258996 1:0.11746 
1 0:0.091743 1:0.20581999 
1 0:0.0072769001 1:0.010505 
1 0:0.33216 1:0.063065 
1 0:0.058318999 1:0.064781003 
1 0:0.031507 1:0.031738002 
1 0:0.021343 1:0.20547 
-1 0:0.0044005001 1:0.39076 
-1 0:0.014315 1:0.48782 
1 0:0.043644 1:0.087452002 
1 0:0.12949 1:0.0095435996 
1 0:0.0047395998 1:0.093355 
1 0:0.053231001 1:0.16834 
1 0:0.037563998 1:0.033907 
1 0:0.045557 1:0.024840999 
1 0:0.046085998 1:0.20625 
1 0:0.0060330001 1:0.36015999 
1 0:0.0064657 1:0.24515 
1 0:0.0059763999 1:0.00056076999 
1 0:0.0040958002 1:0.31689 
1 0:0.33392 1:0.011407 
1 0:0.0053232 1:0.41229999 
1 0:0.024517 1:0.15611 
1 0:0.018084999 1:0.088660002 
1 0:0.011732 1:0.00098788994 
1 0:0.0066521 1:0.13296001 
1 0:0.0050694998 1:0.62085998 
1 0:0.0039232001 1:0.30949 
1 0:0.0040493002 1:0.16299 
1 0:0.0061891 1:0.0097431 
1 0:0.010376 1:0.14191 
1 0:0.023525 1:0.1347 
1 0:0.00067106 1:0.0011695001 
1 0:0.025996 1:0.15094 
1 0:0.028550999 1:0.11436 
1 0:0.021431999 1:0.086914003 
1 0:0.033572 1:0.074455 
1 0:0.0083879996 1:0.18568 
1 0:0.0045111999 1:0.25011 
1 0:0.0029666 1:0.29442999 
1 0:0.066284001 1:0.22376999 
1 0:0.041055001 1:0.18397 
1 0:0.45449999 1:0.080949001 
1 0:0.3583 1:1.1293e-05 
1 0:0.0031721999 1:0.014411 
1 0:0.016478 1:0.082294002 
-1 0:0.038697001 1:0.013729 
-1 0:0.020950001 1:0.049212001 
-1 0:0.049114998 1:0.30899999 
1 0:0.35247999 1:0.0014017 
1 0:0.015076 1:0.17178001 
1 0:0.0054071001 1:0.094713002 
1 0:0.04242 1:0.27653 
1 0:0.037039999 1:0.29646999 
1 0:0.0094913002 1:0.32795 
1 0:0.0048272 1:0.42501 
1 0:0.22787 1:0.059390001 
1 0:0.0086206002 1:0.20326 
1 0:0.10194 1:0.00010653 
1 0:0.10074 1:0.0098069003 
1 0:0.23061 1:0.028332001 
-1 0:0.010949 1:0.00024203 
-1 0:0.0082146004 1:0.29374999 
-1 0:0.012348 1:0.1078 
-1 0:0.073757999 1:0.082838997 
-1 0:0.010973 1:0.051623002 
-1 0:0.021675 1:0.14266001 
-1 0:0.041487001 1:0.30399001 
1 0:0.0083272001 1:0.18975 
1 0:0.012105 1:0.015875001 
1 0:0.003029 1:0.44190001 
1 0:0.0037185 1:0.52179003 
1 0:0.041857 1:0.029126 
1 0:0.0054657999 1:0.30037999 
1 0:0.012134 1:0.25613999 
1 0:0.012745 1:0.15215001 
1 0:0.029221 1:0.039264001 
1 0:0.0071315002 1:0.0030527001 
1 0:0.013717 1:0.18774 
1 0:0.034494001 1:0.11883 
1 0:0.0051262002 1:0.26631001 
1 0:0.17862999 1:0.0010909 
1 0:0.0054291999 1:0.44027001 
1 0:0.0040083001 1:0.072696999 
1 0:0.044411998 1:0.00061911001 
-1 0:0.0082045998 1:0.089401998 
-1 0:0.0034248 1:0.21249001 
-1 0:0.043067999 1:0.14159 
-1 0:0.0080319 1:0.061879002 
1 0:0.052914001 1:0.23636 
1 0:0.0053144 1:0.28279999 
1 0:0.021722 1:0.1363 
1 0:0.021801 1:0.095903002 
1 0:0.01605 1:0.084807999 
1 0:0.18899 1:0.011291 
1 0:0.022648999 1:0.0029509999 
1 0:0.0023161999 1:0.085754998 
1 0:0.11402 1:0.23353 
1 0:0.016923999 1:0.085882999 
1 0:0.89336997 1:7.9662001e-05 
1 0:0.0049065999 1:0.0036770001 
1 0:0.017627001 1:0.044985998 
1 0:0.02107 1:0.21185 
1 0:0.034876999 1:0.18978 
1 0:0.027837999 1:0.046532001 
1 0:0.023647999 1:0.14566 
1 0:0.0060836002 1:0.40674999 
1 0:0.051383 1:0.13001999 
1 0:0.042174999 1:0.072109997 
1 0:0.0032544001 1:0.024026999 
1 0:0.036990002 1:0.25334001 
1 0:0.27234 1:0.00078449998 
1 0:0.012494 1:0.0062596002 
1 0:0.032745 1:0.078231998 
1 0:0.048110001 1:0.23675001 
1 0:0.016713001 1:0.089146003 
1 0:0.050386 1:0.037806001 
1 0:0.18325 1:0.015471 
1 0:0.035482999 1:0.041940998 
-1 0:0.023747001 1:0.15358 
-1 0:0.0037936999 1:0.0046184999 
-1 0:0.03036 1:0.23089001 
1 0:0.049896002 1:0.24912 
1 0:0.079264998 1:0.058756001 
-1 0:0.10612 1:0.24325 
-1 0:0.057087999 1:0.21348999 
-1 0:0.04033 1:0.38572001 
-1 0:0.083678 1:0.088186003 
-1 0:0.35778999 1:0.039689001 
1 0:0.022613 1:0.11519 
1 0:0.0079715 1:0.27147001 
1 0:0.047109 1:0.082713 
1 0:0.022938 1:0.0306 
1 0:0.0037211999 1:0.096676998 
1 0:0.070240997 1:0.12258 
1 0:0.01898 1:0.076670997 
1 0:0.061753001 1:0.2475 
1 0:0.028027 1:0.13871001 
1 0:0.0034743 1:0.41446 
1 0:0.017069001 1:0.24735001 
1 0:0.0060485001 1:0.12121 
-1 0:0.050570998 1:0.20567 
-1 0:0.024343001 1:0.070485003 
-1 0:0.023706 1:0.026806001 
-1 0:0.98364002 1:0.012334 
-1 0:0.0031828999 1:0.0014384 
-1 0:0.023978001 1:0.097772002 
-1 0:0.028725 1:0.20279001 
1 0:0.28997999 1:0.046225 
1 0:0.0047305999 1:0.14406 
1 0:0.081836998 1:0.21491 
1 0:0.10547 1:0.048071999 
1 0:0.019300001 1:0.41587001 
1 0:0.024084 1:0.079855002 
1 0:0.020117 1:0.040578999 
1 0:0.51340002 1:0.00031192999 
1 0:0.01028 1:0.080192 
1 0:0.072440997 1:0.069916002 
1 0:0.015783001 1:0.037177 
1 0:0.030177001 1:0.12591 
1 0:0.039335001 1:0.22646999 
-1 0:0.1217 1:0.0039015999 
1 0:0.0056730001 1:0.12722 
1 0:0.044491 1:0.16309001 
1 0:0.051100001 1:0.0045264 
1 0:0.042224001 1:0.078493997 
-1 0:0.0051087998 1:0.36070001 
-1 0:0.12777001 1:0.32337999 
-1 0:0.025739999 1:0.027705001 
-1 0:0.038445 1:0.18645 
1 0:0.012586 1:0.015479 
1 0:0.0055732001 1:0.41654 
1 0:0.041645002 1:0.045655001 
1 0:0.049979001 1:0.14856 
1 0:0.0049743 1:0.15057001 
1 0:0.011481 1:0.44468999 
1 0:0.043161001 1:0.14099 
1 0:0.0062584998 1:0.32514 
1 0:0.010759 1:0.31621 
1 0:0.022257 1:0.11195 
1 0:0.055279002 1:0.12803 
1 0:0.36528999 1:0.021431999 
1 0:0.041134 1:0.29905 
1 0:0.069081999 1:0.16707 
1 0:0.015095 1:0.023731999 
1 0:0.038550001 1:0.10451 
1 0:0.023057001 1:0.33834001 
1 0:0.0093152998 1:0.051475 
1 0:0.068527997 1:0.078178003 
1 0:0.067776002 1:0.084959999 
1 0:0.039953001 1:0.099680997 
1 0:0.0046891002 1:0.41117999 
1 0:0.03018 1:0.17279001 
1 0:0.077127002 1:3.1691001e-05 
1 0:0.051617999 1:0.18151 
1 0:0.0061514 1:0.41226 
1 0:0.016473999 1:0.13155 
1 0:0.24242 1:0.019497 
1 0:0.020478999 1:0.034350999 
1 0:0.024899 1:0.19211 
-1 0:0.048854001 1:0.29839 
-1 0:0.11623 1:0.037702002 
-1 0:0.062197 1:0.10368 
1 0:0.0053806999 1:0.35167 
1 0:0.030548999 1:0.31437999 
1 0:0.017139999 1:0.12083 
1 0:0.0098265996 1:0.073643997 
-1 0:0.0058486001 1:0.28318 
-1 0:0.058396999 1:0.071897998 
-1 0:0.0045719999 1:0.066734999 
-1 0:0.010146 1:0.094607003 
1 0:0.029144 1:0.21562 
1 0:0.0065354998 1:0.44595999 
1 0:0.0039972002 1:0.14117999 
1 0:0.070341997 1:0.06684 
1 0:0.087063998 1:0.14155 
1 0:0.33410999 1:0.00052850001 
1 0:0.0074351002 1:0.18746001 
1 0:0.0078833001 1:0.0071748002 
1 0:0.010851 1:0.25806999 
1 0:0.0044904999 1:0.33087999 
-1 0:0.0022625001 1:0.24047001 
1 0:0.015758 1:0.27360001 
1 0:0.018041 1:0.22415 
1 0:0.0066137002 1:0.00054693001 
1 0:0.0095223999 1:0.00022299 
1 0:0.034614 1:0.06075 
1 0:0.048397999 1:0.20761 
1 0:0.017612999 1:0.17264 
1 0:0.010117 1:0.24993999 
-1 0:0.068786003 1:0.10584 
-1 0:0.071803004 1:0.073244996 
1 0:0.076954 1:0.26719001 
1 0:0.37757 1:0.13425 
1 0:0.039822999 1:0.19091 
1 0:0.0055506001 1:0.32497001 
1 0:0.055133998 1:0.021328 
1 0:0.044971999 1:0.32879001 
1 0:0.57616001 1:0.028639 
1 0:0.12222 1:0.0016703 
1 0:0.025052 1:0.26696 
1 0:0.014782 1:0.13028 
1 0:0.092107996 1:0.10506 
1 0:0.02101 1:0.30989 
1 0:0.0047256001 1:0.72741997 
1 0:0.016830999 1:0.055803001 
1 0:0.016813001 1:0.36289001 
1 0:0.043058999 1:0.027685 
1 0:0.0083803004 1:0.044633999 
1 0:0.16949999 1:0.058228999 
-1 0:0.40560001 1:0.11502 
-1 0:0.0066121998 1:0.13926999 
1 0:0.089996003 1:0.10392 
1 0:0.039244998 1:0.038376 
1 0:0.088427998 1:0.099753 
1 0:0.10212 1:0.075912997 
1 0:0.018902 1:0.018684 
1 0:0.027703 1:0.17637999 
1 0:0.025921 1:0.13266 
1 0:0.029285001 1:0.089245997 
1 0:0.028721999 1:0.11671 
1 0:0.0038527001 1:0.30300999 
1 0:0.0022579001 1:0.030278999 
1 0:0.0095944004 1:0.0087708998 
1 0:0.021872999 1:0.23136 
1 0:0.31391001 1:0.025567001 
1 0:0.025676999 1:0.18063 
1 0:0.091521002 1:0.31847 
1 0:0.032467 1:0.15356 
1 0:0.019965 1:0.22983 
1 0:0.031828001 1:0.13331001 
1 0:0.0046166 1:0.0076220999 
1 0:0.017456001 1:0.34656 
1 0:0.081354 1:0.073500998 
1 0:0.030053999 1:0.030452 
1 0:0.039069999 1:0.21855 
1 0:0.0034934999 1:0.16402 
1 0:0.0049767001 1:0.65147001 
1 0:0.027115 1:0.31693 
1 0:0.047733001 1:0.14887001 
1 0:0.0066033001 1:0.49225 
1 0:0.0043795002 1:0.051397 
1 0:0.040633999 1:0.036908999 
1 0:0.0069756 1:0.52842999 
1 0:0.090402998 1:0.081055 
1 0:0.012798 1:0.11744 
1 0:0.012362 1:0.059080001 
1 0:0.039719999 1:0.55058998 
1 0:0.032694001 1:0.15024 
-1 0:0.051957 1:0.00021445 
-1 0:0.040397 1:0.11113 
-1 0:0.031773001 1:0.11258 
1 0:0.034299001 1:0.036936998 
1 0:0.0022464001 1:0.0056913998 
1 0:0.031962998 1:0.023698 
1 0:0.021636 1:0.14401001 
1 0:0.16585 1:0.0045411 
1 0:0.061425 1:0.12705 
1 0:0.91134 1:0.0001226 
1 0:0.0057446999 1:0.19577999 
1 0:0.49516001 1:0.00088636001 
1 0:0.022967 1:0.076330997 
1 0:0.10169 1:0.26969001 
1 0:0.11769 1:0.27722001 
-1 0:0.10864 1:0.0042762002 
-1 0:0.022778001 1:0.23040999 
-1 0:0.0039718002 1:0.23744 
-1 0:0.057953 1:0.16743 
-1 0:0.0042212 1:0.14542 
-1 0:0.0065747001 1:0.080917999 
-1 0:0.048492 1:0.00012814 
1 0:0.23052999 1:0.072187997 
1 0:0.017538 1:0.19244 
1 0:0.0072694002 1:0.42313001 
1 0:0.032049 1:0.13688 
1 0:0.0038306999 1:0.079829 
1 0:0.82477999 1:0.00010974 
1 0:0.054299999 1:0.22772001 
1 0:0.050285 1:0.13713001 
1 0:0.062111001 1:0.0010834 
1 0:0.015325 1:0.44117999 
1 0:0.39289001 1:0.013731 
1 0:0.00063685002 1:0.0026686999 
1 0:0.023654001 1:0.14511999 
1 0:0.28283 1:0.0077276998 
1 0:0.0033704001 1:0.023714 
1 0:0.043680001 1:0.067119002 
1 0:0.011917 1:0.0045942999 
-1 0:0.037997 1:0.27432999 
-1 0:0.00025067999 1:0.0024712 
-1 0:0.0041272999 1:0.35278001 
-1 0:0.0031341999 1:0.036077 
-1 0:0.01089 1:0.21606 
1 0:0.0046108002 1:0.43950999 
1 0:0.2816 1:0.045251001 
1 0:0.023745 1:0.095614001 
1 0:0.0067305998 1:0.24257 
1 0:0.10153 1:0.25363001 
1 0:0.018957 1:0.33746001 
1 0:0.017332001 1:0.055771001 
1 0:0.019577 1:0.067725003 
1 0:0.011777 1:0.16912 
1 0:0.11757 1:0.011705 
1 0:0.023595 1:0.072172001 
1 0:0.080141 1:0.1856 
1 0:0.016608 1:0.075594999 
1 0:0.076099001 1:0.37863001 
1 0:0.036052998 1:0.10019 
1 0:0.0041251001 1:0.28343999 
1 0:0.0051226998 1:0.27261001 
1 0:0.0040805 1:0.13945 
1 0:0.032177001 1:0.26425001 
1 0:0.81119001 1:0.00011186 
1 0:0.0061400998 1:0.10353 
1 0:0.015914001 1:0.042886999 
1 0:0.027767001 1:0.12875 
1 0:0.0044191 1:0.69193 
1 0:0.031312998 1:0.12242 
1 0:0.016802 1:0.16419999 
1 0:0.040817998 1:0.047152001 
1 0:0.013979 1:0.13465001 
1 0:0.16836999 1:0.061703999 
1 0:0.49917001 1:1.2341e-05 
-1 0:0.0083050001 1:0.0059711002 
-1 0:0.39136001 1:0.11874 
1 0:0.013151 1:0.023681 
1 0:0.39921999 1:0.061464 
1 0:0.37897 1:0.032979999 
-1 0:0.0060943002 1:0.44564 
-1 0:0.23661 1:0.072169997 
-1 0:0.41918999 1:0.026218001 
-1 0:0.017766999 1:0.062169001 
-1 0:0.026079001 1:0.21269 
1 0:0.05153 1:0.034908 
1 0:0.29844001 1:0.028515 
1 0:0.15707999 1:0.074676 
1 0:0.11364 1:0.21100999 
1 0:0.43110999 1:0.042045999 
1 0:0.0064436002 1:0.38995001 
1 0:0.051732 1:0.27886 
1 0:0.027802 1:0.3163 
1 0:0.12141 1:0.0040512001 
1 0:0.00017085001 1:0.0024402 
1 0:0.025134001 1:0.10388 
1 0:0.024840999 1:0.022244001 
-1 0:0.21382999 1:0.059992 
-1 0:0.034945998 1:0.20941 
-1 0:0.034184001 1:0.054683998 
-1 0:0.010476 1:0.075655997 
-1 0:0.022879999 1:0.072042003 
-1 0:0.054554999 1:0.23124 
-1 0:0.14351 1:0.037877001 
1 0:0.060274001 1:0.27309 
1 0:0.015106 1:0.17505001 
1 0:0.055147 1:0.012183 
1 0:0.063671999 1:0.019286999 
1 0:0.017317999 1:0.24386001 
1 0:0.46132001 1:0.040746 
1 0:0.022899 1:0.17256001 
1 0:0.064930998 1:0.21785 
1 0:0.0063943998 1:0.20844001 
1 0:0.0010218 1:0.0053249998 
1 0:0.0090901004 1:0.17003 
1 0:0.31514001 1:0.0048618 
-1 0:0.11201 1:0.17382 
-1 0:0.036593001 1:0.2078 
1 0:0.0066049998 1:0.16432001 
1 0:0.0032905 1:0.022597 
1 0:0.0061730002 1:0.037310001 
1 0:0.04067 1:0.14619 
-1 0:0.023211 1:0.17913 
-1 0:0.11083 1:0.16616 
-1 0:0.031948999 1:0.028656 
-1 0:0.030605 1:0.22515 
1 0:0.014651 1:0.23161 
1 0:0.032152999 1:0.042544 
1 0:0.074629001 1:0.017573999 
1 0:0.0059793 1:0.62177998 
1 0:0.080859996 1:0.14709 
1 0:0.088527001 1:0.01499 
1 0:0.18554001 1:0.054189 
1 0:0.029837999 1:0.31395 
1 0:1.7750001e-05 1:0.021685001 
1 0:0.017717 1:0.14744 
1 0:0.0038892999 1:0.32600001 
1 0:0.050611999 1:0.32488 
1 0:0.034519002 1:0.11449 
1 0:0.051973 1:0.16646001 
1 0:0.0052847001 1:0.40112001 
1 0:0.0041195001 1:0.28238001 
1 0:0.031286001 1:0.18926001 
1 0:0.076897003 1:0.065839 
1 0:0.038773999 1:0.011286 
1 0:0.010296 1:0.15275 
1 0:0.039002001 1:0.0034667 
1 0:0.025567001 1:0.074833997 
1 0:0.10171 1:0.30127001 
1 0:0.36557001 1:0.033385001 
1 0:0.013237 1:0.18084 
1 0:0.073236004 1:0.003399 
1 0:0.0015598 1:0.0027381 
1 0:0.033284001 1:0.2094 
1 0:0.045903999 1:0.23242 
1 0:0.013603 1:0.039748002 
-1 0:0.0052641998 1:0.007584 
-1 0:0.0049147001 1:0.0080495002 
-1 0:0.2287 1:0.16198 
1 0:0.026395001 1:0.071548 
1 0:0.23445 1:0.093851 
1 0:0.034786001 1:0.16457 
1 0:0.034430001 1:0.19416 
-1 0:0.038835999 1:0.16006 
-1 0:0.02038 1:0.050398 
-1 0:0.013428 1:0.16261999 
1 0:0.035216 1:0.11553 
1 0:0.052809 1:0.025424 
1 0:0.012348 1:0.10973 
1 0:0.079571001 1:0.014904 
1 0:0.0029672 1:0.10458 
1 0:0.026492 1:0.051378001 
1 0:0.043412 1:0.035709001 
1 0:0.37711999 1:0.060546 
1 0:0.012962 1:0.11987 
1 0:0.051249001 1:0.21066 
1 0:0.039785001 1:0.14144 
-1 0:0.30001 1:0.039218001 
1 0:0.057126999 1:0.30724001 
1 0:0.020993 1:0.20326 
1 0:0.025411 1:0.15730999 
1 0:0.024788 1:0.090377003 
1 0:0.045885999 1:0.12255 
1 0:0.022523999 1:0.069195002 
1 0:0.037914999 1:0.28310999 
-1 0:0.026289999 1:0.24449 
-1 0:0.13849001 1:0.01458 
1 0:0.0057286001 1:0.10865 
1 0:0.059875999 1:0.0059297001 
1 0:0.066955999 1:0.17948 
1 0:0.075989 1:0.0050177998 
1 0:0.0041987002 1:0.096383996 
1 0:0.057323001 1:0.29207999 
1 0:0.044792999 1:0.10844 
1 0:0.023676001 1:0.14258 
1 0:0.21461 1:0.070226997 
1 0:0.0044184001 1:0.034667 
1 0:0.040555999 1:0.022206999 
1 0:0.0094764996 1:0.24733999 
1 0:0.020636 1:0.14672001 
1 0:0.41914001 1:0.022265 
1 0:0.004253 1:0.39577001 
1 0:0.22739001 1:0.067636997 
1 0:0.2025 1:0.0042274999 
-1 0:0.033661999 1:0.011838 
-1 0:0.0062484001 1:0.19418 
1 0:0.28505 1:0.0020258999 
1 0:0.027255001 1:0.025759 
1 0:0.0071506002 1:0.035048001 
1 0:0.034125999 1:0.30644 
1 0:0.0099697998 1:0.13512 
1 0:0.039191 1:0.075832002 
1 0:0.16448 1:0.073135003 
-1 0:0.027004 1:0.13835999 
-1 0:0.27794001 1:0.01261 
1 0:0.013766 1:0.14529 
1 0:0.073882997 1:0.20248 
1 0:0.14542 1:0.050324 
1 0:0.22524001 1:0.0054758 
1 0:0.0024607 1:0.00024039 
1 0:0.042399999 1:0.22693001 
1 0:0.016690001 1:0.097992003 
1 0:0.0059771002 1:0.064506002 
1 0:0.0024061999 1:0.014132 
1 0:0.079214998 1:0.010616 
1 0:0.0067778002 1:0.043435 
1 0:0.078493997 1:0.10019 
1 0:0.0065187998 1:0.36357 
1 0:0.020345001 1:0.18781 
1 0:0.10549 1:0.064603001 
1 0:0.0062353001 1:0.26596001 
1 0:0.027236 1:0.22203 
1 0:0.27480999 1:0.011558 
1 0:0.069848999 1:0.084927 
1 0:0.014314 1:0.39708999 
1 0:0.0048700999 1:0.19837999 
1 0:0.0098293005 1:0.0097607002 
-1 0:0.018359 1:0.062755004 
-1 0:0.13801999 1:0.44813001 
1 0:0.067478001 1:0.047077 
1 0:0.057604 1:0.14985 
1 0:0.0058145002 1:0.48334 
1 0:0.027092 1:0.20215 
-1 0:0.057519998 1:0.14059 
-1 0:0.6124 1:0.15679 
-1 0:0.0029742001 1:0.21436 
-1 0:0.058843002 1:0.1201 
1 0:0.028879 1:0.030626001 
1 0:0.066339001 1:0.020976 
1 0:0.13286 1:0.13593 
1 0:0.0015086 1:0.0059059002 
1 0:0.25788 1:0.031918999 
1 0:0.0033595001 1:0.42833999 
1 0:0.0036204001 1:0.42208001 
1 0:0.0054493002 1:0.013228 
1 0:0.046882 1:0.16513 
1 0:0.0046648001 1:0.37617999 
-1 0:0.064750999 1:0.25139001 
-1 0:0.035774 1:0.041466001 
-1 0:0.021260999 1:0.10142 
-1 0:0.047952998 1:0.023262 
-1 0:0.046186 1:0.21939 
-1 0:0.81492001 1:0.00010861 
-1 0:0.0062555 1:0.45605999 
-1 0:0.3612 1:0.049109999 
1 0:0.064251997 1:0.00018966 
1 0:0.0043640998 1:0.14906999 
1 0:0.080752999 1:0.086976998 
1 0:0.22177 1:0.11982 
1 0:0.048034001 1:0.20592999 
1 0:0.0064405999 1:0.077471003 
1 0:0.017996 1:0.20946001 
1 0:0.07457 1:0.40498999 
1 0:0.057484001 1:0.10901 
1 0:0.15154 1:0.017085999 
1 0:0.023491999 1:0.29578999 
1 0:0.92848998 1:0.00039065001 
1 0:0.0047480999 1:0.36133999 
1 0:0.0057603 1:0.00010405 
1 0:0.0047717001 1:0.067193002 
1 0:0.088624001 1:0.30835 
1 0:0.01245 1:0.036449999 
-1 0:0.027732 1:0.015804 
-1 0:0.0023751999 1:0.019707 
-1 0:0.43377 1:0.00014472 
-1 0:0.0082818996 1:0.1016 
-1 0:0.0051611001 1:0.053707998 
1 0:0.028275 1:0.18456 
1 0:0.019106001 1:0.12682 
1 0:0.022667 1:0.058607999 
1 0:0.010375 1:0.0025659001 
1 0:0.033085 1:0.21051 
1 0:0.020679999 1:0.072879001 
1 0:0.0050626998 1:0.59096998 
1 0:0.0061531002 1:0.43024001 
1 0:0.30507001 1:0.022012001 
1 0:0.082532004 1:0.088725001 
1 0:0.013676 1:0.093539998 
1 0:0.38146999 1:0.010901 
1 0:0.038031999 1:0.048457999 
1 0:0.015904 1:0.23028 
1 0:0.027967 1:0.30416 
1 0:0.20852 1:0.040927999 
1 0:0.019808 1:0.14148 
1 0:0.0062811999 1:0.17042001 
1 0:0.0088448999 1:0.15167999 
1 0:0.031764999 1:0.26783001 
1 0:0.0043019 1:0.42083001 
1 0:0.19562 1:0.045807 
1 0:0.36728001 1:0.092715003 
1 0:0.0075170998 1:0.41800001 
1 0:0.0042790999 1:0.0015185 
1 0:0.10737 1:0.18055999 
1 0:0.0046982002 1:0.56075001 
1 0:0.028547 1:0.048408002 
1 0:0.0057731001 1:0.30078 
1 0:0.39761999 1:0.049052 
-1 0:0.022964001 1:0.085816003 
-1 0:0.16706 1:0.081354 
1 0:0.056862999 1:0.044603001 
1 0:0.055658001 1:0.22994 
1 0:0.055482998 1:0.079088002 
-1 0:0.0021905999 1:0.0012487 
-1 0:0.0073243999 1:0.034453999 
-1 0:0.01096 1:0.24343 
-1 0:0.010041 1:0.028240999 
-1 0:0.012506 1:0.041567001 
1 0:0.010748 1:0.12604 
1 0:0.0078114001 1:0.19481 
1 0:0.039384998 1:0.15408 
1 0:0.31152001 1:0.018258 
1 0:0.033402 1:0.059696 
1 0:0.11678 1:7.0545997e-05 
1 0:0.067268997 1:0.035002001 
1 0:0.098425999 1:0.03136 
1 0:0.020217 1:0.14347 
1 0:0.014572 1:0.19103 
1 0:0.012096 1:0.053877998 
1 0:0.015415 1:0.25284001 
-1 0:0.022166001 1:0.072062001 
-1 0:0.042126998 1:0.2042 
-1 0:0.032403 1:0.21586999 
-1 0:0.012244 1:0.040631 
-1 0:0.0091685001 1:0.058577999 
-1 0:0.30203 1:0.018012 
-1 0:0.014306 1:0.027557001 
1 0:0.030002 1:0.20125 
1 0:0.034614999 1:0.15741999 
1 0:0.01637 1:0.075459003 
1 0:0.0029748001 1:0.46866 
1 0:0.0097342003 1:0.01407 
1 0:0.0069351001 1:0.20163999 
1 0:0.029464999 1:0.30871999 
1 0:0.052843999 1:0.27098 
1 0:0.078824997 1:0.38530999 
1 0:0.81796002 1:0.0001116 
1 0:0.013369 1:0.15524 
1 0:0.015861999 1:0.035207 
-1 0:0.017902 1:0.19927999 
1 0:0.0097289002 1:0.10462 
1 0:0.076214001 1:0.025846001 
1 0:0.072430998 1:0.00021499999 
-1 0:0.054510001 1:0.25788999 
-1 0:0.014768 1:0.097814001 
-1 0:0.018692 1:0.092487998 
-1 0:0.061551001 1:0.26036999 
1 0:0.012346 1:0.044729002 
1 0:0.024978001 1:0.18273 
1 0:0.0024182 1:0.94037998 
1 0:0.019823 1:0.13700999 
1 0:0.013051 1:0.25391999 
1 0:0.076785997 1:0.17377 
1 0:0.039547 1:0.0054898998 
1 0:0.036704 1:0.17081 
1 0:0.0051698 1:0.59386998 
1 0:0.011138 1:0.013062 
1 0:0.030663 1:0.094870999 
1 0:0.025656 1:0.10653 
1 0:0.070551999 1:0.23478 
1 0:0.021898 1:0.16592 
1 0:0.0043996 1:0.48831999 
1 0:0.093420997 1:0.23519 
1 0:0.043806002 1:0.032761998 
1 0:0.0064667002 1:0.80884999 
1 0:0.9795 1:0.0083355 
1 0:0.22172999 1:0.037287999 
1 0:0.0057756999 1:0.17686 
1 0:0.015447 1:0.071299002 
1 0:0.10472 1:0.042777002 
1 0:0.10159 1:0.16241001 
1 0:0.033978999 1:0.35343999 
1 0:0.023974 1:0.10655 
1 0:0.05683 1:0.24612001 
1 0:0.03221 1:0.010043 
1 0:0.044953998 1:0.20747 
1 0:0.025420001 1:0.051089 
-1 0:0.021102 1:0.19696 
-1 0:0.023484999 1:0.091237001 
-1 0:0.097089 1:0.20062 
1 0:0.0396 1:0.023768 
1 0:0.0022372 1:0.080953002 
1 0:0.0085222004 1:0.31143001 
-1 0:0.00082478998 1:0.0021519 
-1 0:0.048983999 1:0.20614 
-1 0:0.025018999 1:0.0020870999 
1 0:0.037597999 1:0.033385001 
1 0:0.061186999 1:0.1312 
1 0:0.061361 1:0.15445 
1 0:0.045446001 1:0.059250999 
1 0:0.0042026001 1:0.082921997 
1 0:0.10516 1:0.17958 
1 0:0.087044999 1:0.084142998 
1 0:0.077628002 1:0.29955 
1 0:0.014935 1:0.0017863 
1 0:0.019169001 1:0.22056 
1 0:0.025416 1:0.097457998 
-1 0:0.46011001 1:0.022828 
1 0:0.076990001 1:0.069525003 
1 0:0.065641001 1:0.15388 
1 0:0.056072999 1:0.00053234003 
1 0:0.023828 1:0.076736003 
1 0:0.20482001 1:0.1267 
1 0:0.0034651 1:0.17046 
1 0:0.82042998 1:0.00011098 
-1 0:0.017278001 1:0.26905 
-1 0:0.054480001 1:0.16918001 
-1 0:0.0069132 1:0.0035492999 
1 0:0.23810001 1:0.013006 
1 0:0.89147002 1:7.5393e-05 
1 0:0.019013001 1:0.074245997 
1 0:0.017240999 1:0.091503002 
1 0:0.022466 1:0.1811 
1 0:0.0059699002 1:0.25929999 
1 0:0.14163999 1:0.00030469999 
1 0:0.067861997 1:0.065972999 
1 0:0.040206999 1:0.12983 
1 0:0.034341 1:0.11213 
1 0:0.0033017001 1:0.062808998 
1 0:0.0075964001 1:0.11962 
1 0:0.045386001 1:0.17778 
1 0:0.048609 1:0.21791001 
1 0:0.015639 1:0.038720999 
1 0:0.019944999 1:0.28962001 
1 0:0.21811999 1:0.019747 
-1 0:0.014432 1:0.12409 
-1 0:0.018408 1:0.095526002 
1 0:0.0061638001 1:0.30000001 
1 0:0.12335 1:0.086112998 
1 0:0.048668001 1:0.21182001 
1 0:0.021071 1:0.36963999 
1 0:0.0031126 1:0.0099547002 
1 0:0.02146 1:0.23337001 
1 0:0.0071625002 1:0.21159001 
-1 0:0.0064325002 1:0.24291 
-1 0:0.0057425001 1:0.28579 
1 0:0.015744001 1:0.076321997 
1 0:0.0050248001 1:0.19987001 
1 0:0.041554 1:0.27092001 
1 0:0.44472 1:0.022559 
1 0:0.029951001 1:0.13481 
1 0:0.037771001 1:0.31579 
1 0:0.017888 1:0.049407002 
1 0:0.0070031001 1:0.25435001 
1 0:0.0034078001 1:0.040254999 
1 0:0.0051472001 1:0.25237 
1 0:0.007956 1:0.12456 
1 0:0.0055459999 1:0.34575999 
1 0:0.067542002 1:0.05776 
1 0:0.044647999 1:0.052584998 
1 0:0.069991 1:0.057727002 
1 0:0.024381001 1:0.014701 
1 0:0.00508 1:0.026657 
1 0:0.014395 1:0.02313 
1 0:0.075070001 1:0.015736001 
1 0:0.011552 1:0.13565999 
1 0:0.076504998 1:0.00034537 
-1 0:0.0044542998 1:0.14047 
-1 0:0.078368001 1:0.12348 
1 0:0.024114 1:0.16140001 
1 0:0.0058145002 1:0.20069 
1 0:0.0060423999 1:0.52995002 
1 0:0.0059137 1:0.35442999 
-1 0:0.036938 1:0.057472002 
-1 0:0.0079439003 1:0.26073 
-1 0:0.12195 1:0.026799001 
1 0:0.0093764002 1:0.11405 
1 0:0.015734 1:0.080205001 
1 0:0.022693001 1:0.14353 
1 0:0.0039933999 1:0.066872999 
1 0:0.058726002 1:0.0063589001 
1 0:0.017821001 1:0.041471999 
1 0:0.047584001 1:0.26683 
1 0:0.034995999 1:0.10985 
1 0:0.026823999 1:0.053259 
1 0:0.18689001 1:0.026450001 
1 0:0.12434 1:0.29344001 
-1 0:0.018146999 1:0.21814001 
-1 0:0.207 1:0.013465 
-1 0:0.12812001 1:0.12885 
-1 0:0.19452 1:0.081425004 
-1 0:0.0045113 1:0.39583999 
-1 0:0.012865 1:0.026191 
-1 0:0.0011787 1:0.0017488 
-1 0:0.035358999 1:0.31358999 
1 0:0.045692001 1:0.049384002 
1 0:0.092871003 1:0.0004013 
1 0:0.051137999 1:0.24537 
1 0:8.6668997e-06 1:0.012967 
1 0:0.056127001 1:0.47521999 
1 0:0.021934001 1:0.10107 
1 0:0.35488999 1:0.026004 
1 0:0.11991 1:0.044319 
1 0:0.0065406002 1:0.2516 
1 0:0.0086153997 1:0.01124 
1 0:0.0046243002 1:0.27011999 
1 0:0.0071939002 1:0.21518999 
1 0:0.035126999 1:0.14056 
1 0:0.042571999 1:0.13007 
1 0:0.018173 1:0.15087 
1 0:0.027119 1:0.24608 
1 0:0.0955 1:0.04287 
1 0:0.0063898 1:0.081874996 
-1 0:0.0033678 1:0.15217 
-1 0:0.23108999 1:0.0053257002 
-1 0:0.031752001 1:0.080185004 
-1 0:0.064098001 1:0.093355 
1 0:0.023425 1:0.26332 
1 0:0.29747 1:0.039266001 
1 0:0.033978999 1:0.1445 
1 0:0.0032148999 1:0.41082001 
1 0:0.096322998 1:0.0011342 
1 0:0.084089004 1:0.25224999 
1 0:0.91092002 1:0.00012425 
1 0:0.0031913 1:0.13891 
1 0:0.013598 1:0.023393 
1 0:0.0054064002 1:0.20290001 
1 0:0.061439 1:0.17945001 
1 0:0.0093109002 1:0.057216 
1 0:0.062343001 1:0.055916 
1 0:0.52349001 1:0.00031348999 
1 0:0.0056558 1:0.41055 
1 0:0.0021494001 1:0.75522 
1 0:0.014041 1:0.30983001 
1 0:0.022502 1:0.32150999 
1 0:0.13236 1:0.00022451 
1 0:0.0068188999 1:0.18296 
1 0:0.068356 1:6.7939e-05 
1 0:0.0043966002 1:0.18624 
1 0:0.011898 1:0.43934 
1 0:0.0076942001 1:0.20730001 
1 0:0.0073802001 1:0.35021001 
1 0:0.039483 1:0.13412 
1 0:0.0071107 1:0.057043001 
1 0:0.0032715001 1:0.42695999 
1 0:0.0046641999 1:0.56202 
1 0:0.040412001 1:0.21555001 
1 0:0.060465001 1:0.25617 
-1 0:0.010698 1:0.036536001 
-1 0:0.0053339 1:0.66579002 
1 0:0.050859999 1:0.30447999 
1 0:0.030272 1:0.12640999 
-1 0:0.0021191 1:0.59784001 
-1 0:0.037036002 1:0.20915 
-1 0:0.023006 1:0.041815002 
-1 0:0.060311999 1:0.22615001 
-1 0:0.031845 1:0.21501 
1 0:0.078497998 1:0.01918 
1 0:0.033261001 1:0.22642 
1 0:0.056504998 1:0.02266 
1 0:0.030983999 1:0.033438999 
1 0:0.0090773003 1:0.15092 
1 0:0.015667999 1:0.29201999 
1 0:0.0049651 1:0.4016 
1 0:0.039531 1:0.019956 
1 0:0.041242 1:0.0022547001 
1 0:0.0037791999 1:0.36815 
1 0:0.048608001 1:0.1841 
1 0:0.020018 1:0.059052002 
-1 0:0.012801 1:0.32501999 
-1 0:0.039223999 1:0.22961 
-1 0:0.023232 1:0.18010999 
-1 0:0.0074994001 1:0.27928001 
-1 0:0.0060347999 1:0.22138999 
-1 0:0.015552 1:0.11278 
-1 0:0.072462998 1:0.21165 
1 0:0.041102 1:0.00021386999 
1 0:0.012394 1:0.16753 
1 0:0.040805999 1:0.0015374999 
1 0:0.35066 1:0.018932 
1 0:0.014234 1:0.1622 
1 0:0.0048282999 1:0.26034999 
1 0:0.01674 1:0.13465001 
1 0:0.0071712998 1:0.0016435999 
1 0:0.0094135003 1:0.42416 
1 0:0.064212002 1:0.24277 
1 0:0.0053499001 1:0.27932999 
1 0:0.0094852 1:0.075993001 
-1 0:0.030262001 1:0.16921 
1 0:0.19509 1:0.021143001 
1 0:0.031530999 1:0.043896001 
1 0:0.01846 1:0.27873001 
1 0:0.022309 1:0.12715 
-1 0:0.031854998 1:0.1064 
-1 0:0.14331999 1:0.084513001 
-1 0:0.080242999 1:0.19099 
-1 0:0.0048729 1:0.052138001 
-1 0:0.044808 1:0.10548 
1 0:0.043775 1:0.021995001 
1 0:0.22753 1:0.10992 
1 0:0.13793001 1:0.056196 
1 0:0.116 1:0.15542001 
1 0:0.063703999 1:0.00099271 
1 0:0.053105999 1:0.19272 
1 0:0.0057401001 1:0.28852999 
1 0:0.0011698999 1:0.0088825999 
1 0:0.053676002 1:0.0061500999 
1 0:0.023119001 1:0.19683 
1 0:0.26447999 1:0.048262998 
1 0:0.0082377996 1:0.10185 
1 0:0.14259 1:0.14009 
1 0:0.043423999 1:0.15498 
1 0:0.040654998 1:0.00012895001 
1 0:0.039613001 1:0.15018 
1 0:0.36965999 1:0.0111 
1 0:0.10621 1:0.098636001 
1 0:0.025614001 1:0.1472 
1 0:0.098958001 1:0.088315003 
1 0:0.041051 1:0.13495 
1 0:0.0051970002 1:0.00048717001 
1 0:0.0042645 1:0.050627999 
1 0:0.13768999 1:6.6610002e-05 
1 0:0.0064153001 1:0.020398 
1 0:0.18953 1:0.051465001 
1 0:0.0057631 1:0.22113 
1 0:0.054381002 1:0.14876001 
1 0:0.078509003 1:0.016465001 
1 0:0.050772 1:0.11755 
-1 0:0.017316001 1:0.10037 
-1 0:0.025821 1:0.12298 
1 0:0.13345 1:0.0018859 
1 0:0.01424 1:0.069835 
1 0:0.024915 1:0.17244001 
1 0:0.012176 1:0.50871003 
-1 0:0.017206 1:0.18889 
-1 0:0.014325 1:0.054067001 
-1 0:0.0047697001 1:0.0048854998 
-1 0:0.055649001 1:0.076425001 
1 0:0.12373 1:0.0044527999 
1 0:0.027301 1:0.21401 
1 0:0.010084 1:0.084009998 
1 0:0.052939001 1:0.25606999 
1 0:0.012789 1:0.15315001 
1 0:0.028556 1:0.16129 
1 0:0.082286 1:0.16998 
1 0:0.054290999 1:0.15877999 
1 0:0.0083528003 1:0.22396 
1 0:0.030107999 1:0.27691999 
1 0:0.0045297998 1:0.48802999 
-1 0:0.74943 1:3.1501e-05 
1 0:0.01706 1:0.037067998 
1 0:0.0067081 1:0.48159999 
1 0:0.0036841 1:0.016385 
1 0:0.01465 1:0.13245 
1 0:0.027329 1:0.25784001 
1 0:0.0029297001 1:0.0027987999 
1 0:0.0074701998 1:0.17858 
-1 0:0.035672002 1:0.0029525999 
-1 0:0.080706999 1:0.25538999 
-1 0:0.0094269998 1:0.055284001 
1 0:0.024242001 1:0.05604 
1 0:0.094939001 1:0.15659 
1 0:0.098122999 1:0.17665 
1 0:0.014833 1:0.065605 
1 0:0.043625001 1:0.092817999 
1 0:0.022247 1:0.030115001 
1 0:0.0059904 1:0.19429 
1 0:0.012156 1:0.23277 
1 0:0.014798 1:0.11904 
1 0:0.044796001 1:0.054046001 
1 0:0.02097 1:0.11505 
1 0:0.049996998 1:0.017106 
1 0:0.024342 1:0.00027183001 
1 0:0.029343 1:0.14134 
1 0:0.18331 1:0.0020178 
1 0:0.0083555998 1:0.071675003 
1 0:0.023282999 1:0.19600999 
-1 0:0.0086583998 1:0.17967001 
-1 0:0.0053963 1:0.23286 
1 0:0.015226 1:0.25149 
1 0:0.041115001 1:0.10905 
1 0:0.0074343998 1:0.50714999 
1 0:0.0034839001 1:0.35675001 
1 0:0.028441001 1:0.20093 
1 0:0.0027328001 1:0.93045998 
1 0:0.040621001 1:0.24811 
-1 0:0.084895998 1:0.0060915002 
-1 0:0.024974 1:0.16154 
1 0:0.0049510999 1:0.48931 
1 0:0.032538999 1:0.063487001 
1 0:0.0041608 1:0.034901001 
1 0:0.013714 1:0.072975002 
1 0:0.92725998 1:0.00038032001 
1 0:0.014551 1:0.061177 
1 0:0.061105002 1:0.15695 
1 0:0.039315999 1:0.036022998 
1 0:0.0051652999 1:0.22383 
1 0:0.34869999 1:2.9993e-05 
1 0:0.0046009002 1:0.37673 
1 0:0.16097 1:0.010074 
1 0:0.016112 1:0.29135001 
1 0:0.015662 1:0.11216 
1 0:0.0051773 1:0.0032007999 
1 0:0.18844 1:0.14228 
1 0:0.0039732 1:0.17983 
1 0:0.022955 1:0.040192001 
1 0:0.020989001 1:0.00062216999 
1 0:0.020509001 1:0.19821 
1 0:0.0052144001 1:0.0012511 
-1 0:0.082675003 1:0.006722 
-1 0:0.41815999 1:0.021202 
-1 0:0.016054001 1:0.10716 
1 0:0.084774002 1:0.017405 
1 0:0.01281 1:0.034056999 
1 0:0.026350999 1:0.10681 
1 0:0.048285 1:0.10398 
-1 0:0.014844 1:0.29791999 
-1 0:0.0084063001 1:0.072098002 
-1 0:0.033153001 1:0.079755001 
1 0:0.022946 1:0.047722001 
1 0:0.025852 1:0.15189999 
1 0:0.22318999 1:0.0070695002 
1 0:0.0076428 1:0.31478 
1 0:8.5247002e-06 1:0.041827999 
1 0:0.0051942999 1:0.40219 
1 0:0.0048361002 1:0.18224999 
1 0:0.083601996 1:0.29826 
1 0:0.0096634002 1:0.10895 
1 0:0.0045448001 1:0.92918998 
1 0:0.046781 1:0.21989 
-1 0:0.0055831 1:0.00019372 
-1 0:0.039317001 1:0.19802999 
-1 0:0.048422001 1:0.072639003 
-1 0:0.092519 1:0.023698 
-1 0:0.018723 1:0.085121997 
-1 0:0.028338 1:0.22914 
-1 0:0.29311001 1:0.024639999 
-1 0:0.0063276002 1:0.49373999 
1 0:0.016233999 1:0.1202 
1 0:0.0079643996 1:0.015765 
1 0:0.038072001 1:0.0012673 
1 0:0.016989 1:0.3211 
1 0:0.034153 1:0.24489 
1 0:0.010902 1:0.059381001 
1 0:0.045724001 1:0.15229 
1 0:0.0032220001 1:0.32157001 
1 0:0.0088865999 1:0.21511 
1 0:0.20815 1:0.023491001 
1 0:0.0087526999 1:0.33285001 
1 0:0.0054555 1:0.28858 
1 0:0.026791001 1:0.083099 
1 0:0.042098001 1:0.25488001 
1 0:0.0043611 1:0.0015643 
1 0:0.019928001 1:0.13175 
1 0:0.037046 1:0.10026 
1 0:0.048602998 1:0.011832 
-1 0:0.46596 1:0.014235 
-1 0:0.022049 1:0.15107 
-1 0:0.23636 1:0.071973003 
-1 0:0.0099579003 1:0.001226 
1 0:0.91162997 1:0.00012673 
1 0:0.044845 1:0.025835 
1 0:0.010064 1:0.10949 
1 0:0.021805 1:0.00028625 
1 0:0.038589999 1:0.16697 
1 0:0.018441999 1:0.065952003 
1 0:0.059130002 1:0.23011 
1 0:0.037925001 1:0.12533 
1 0:0.056906998 1:0.22324 
1 0:0.077981003 1:0.26800001 
1 0:0.032852001 1:0.11459 
1 0:0.020319 1:0.0042249002 
1 0:0.0086717997 1:0.0012721 
1 0:0.0033489 1:0.017594 
1 0:0.089492999 1:0.00016351001 
1 0:0.043414999 1:0.33921999 
1 0:0.028803 1:0.1865 
1 0:0.0043576001 1:0.28591999 
1 0:0.022232 1:0.1709 
1 0:0.0035834 1:0.28279001 
1 0:0.12720001 1:0.0039704 
1 0:0.010646 1:0.23725 
1 0:0.0037883001 1:0.1793 
1 0:0.48629001 1:0.062530003 
1 0:0.048365001 1:0.11746 
1 0:0.036924999 1:0.15831 
1 0:0.091839001 1:0.0036714999 
1 0:0.053583998 1:0.00014893 
1 0:0.031706002 1:0.17394 
1 0:0.0052952999 1:0.12794 
-1 0:0.049764998 1:0.21505 
-1 0:0.026208 1:0.068277001 
-1 0:0.0042396998 1:0.2388 
1 0:0.031902999 1:0.19212 
1 0:0.014726 1:0.2353 
-1 0:0.0050881002 1:0.40858999 
-1 0:0.056389 1:0.00032431001 
-1 0:0.0095250001 1:0.15375 
-1 0:0.028178999 1:0.048916999 
-1 0:0.92317998 1:0.00039161 
-1 0:0.10203 1:0.018756 
1 0:0.031176001 1:0.16914 
1 0:0.019265 1:0.12458 
1 0:0.026678 1:0.29023999 
1 0:0.0069001 1:0.38295999 
1 0:0.015467 1:0.22635999 
1 0:0.18211 1:0.033372 
1 0:0.20472001 1:0.044682 
1 0:0.085258 1:0.0080866003 
1 0:0.0021585999 1:0.42767999 
1 0:0.010295 1:0.12231 
1 0:0.026312999 1:0.16898 
1 0:0.0081700999 1:0.084526002 
-1 0:0.046507999 1:0.23472001 
-1 0:0.051126 1:0.044773001 
-1 0:0.0054695001 1:0.48115 
-1 0:0.076791003 1:0.053429998 
-1 0:0.0062930998 1:0.33625999 
-1 0:0.0041781999 1:0.013575 
-1 0:0.079912998 1:0.037726998 
1 0:0.012617 1:0.047398001 
1 0:0.0082464004 1:0.38049999 
1 0:0.020835999 1:0.16798 
1 0:0.013238 1:0.15636 
1 0:0.0088524995 1:0.33463001 
1 0:0.053481001 1:0.12245 
1 0:0.076132998 1:0.024281001 
1 0:0.019238999 1:0.10766 
1 0:0.01447 1:0.32552001 
1 0:0.041825999 1:0.20198999 
1 0:0.81702 1:0.00011228 
1 0:0.015478 1:0.082566001 
-1 0:0.0070445999 1:0.20263 
1 0:0.057415001 1:0.28810999 
1 0:0.0098628001 1:0.030107999 
1 0:0.0057826 1:0.4016 
1 0:0.014321 1:0.069117002 
-1 0:0.020412 1:0.16444001 
-1 0:0.17531 1:0.078132004 
-1 0:0.034088999 1:0.32411 
-1 0:0.02444 1:0.027107 
-1 0:0.23583999 1:0.03057 
1 0:0.020085 1:0.34461999 
1 0:0.0062214001 1:0.003115 
1 0:0.045676 1:0.28650999 
1 0:0.032072999 1:0.12192 
1 0:0.022445999 1:0.00052172999 
1 0:0.023870001 1:0.13 
1 0:0.046 1:0.19664 
1 0:0.0035567 1:0.16374999 
1 0:0.017837999 1:0.038509 
1 0:0.062881999 1:0.095647 
1 0:0.041035999 1:0.28544 
1 0:0.028584 1:0.00021463999 
1 0:0.019149 1:0.085267998 
1 0:0.34167999 1:0.059131999 
1 0:0.016065 1:0.088064 
1 0:0.075759999 1:0.32973999 
1 0:0.0076013999 1:0.4267 
1 0:0.12605999 1:0.0085829003 
1 0:0.0052898 1:0.39708999 
1 0:0.0065433001 1:0.14692 
1 0:0.015059 1:0.34904 
1 0:0.040537 1:0.16057 
1 0:0.021545 1:0.10248 
1 0:0.0093595004 1:0.25821999 
1 0:0.005653 1:0.22193 
1 0:0.012096 1:0.053723998 
1 0:0.015255 1:0.074624002 
1 0:0.0061996998 1:0.4506 
1 0:0.022573 1:0.047348 
1 0:0.024338 1:0.10831 
-1 0:0.025652001 1:0.17244001 
-1 0:0.0084117996 1:0.037616 
1 0:0.010959 1:0.047201 
1 0:0.039866999 1:0.036178 
1 0:0.16279 1:0.19566999 
1 0:0.015548 1:0.18337999 
-1 0:0.14832 1:0.0081147999 
-1 0:0.020873999 1:0.18731 
-1 0:0.0098997001 1:0.27605999 
-1 0:0.019030999 1:0.039367002 
1 0:0.0076786 1:0.010779 
1 0:0.011094 1:0.039822001 
1 0:0.0090191998 1:0.15575001 
1 0:0.0041661998 1:0.078156002 
1 0:0.10288 1:0.0017355999 
1 0:0.0023457 1:0.074129999 
1 0:0.022028999 1:0.16875 
1 0:0.48662999 1:6.3729999e-06 
1 0:0.092609003 1:0.10876 
1 0:0.018603999 1:0.34439 
1 0:0.061584 1:0.00038971001 
-1 0:0.0058871 1:0.2647 
1 0:0.054972999 1:0.24232 
1 0:0.16793001 1:0.20759 
1 0:0.025323 1:0.15928 
1 0:0.29859999 1:0.085084997 
1 0:0.0093120998 1:0.086622998 
1 0:0.01494 1:0.040998999 
1 0:0.081730001 1:0.32453001 
-1 0:0.026017999 1:0.15764999 
-1 0:0.42796999 1:0.010565 
1 0:0.17728999 1:0.020718999 
1 0:0.022087 1:0.18535 
1 0:0.0064226999 1:0.00021309999 
1 0:0.035084002 1:0.0063669002 
1 0:0.019183001 1:0.070416003 
1 0:0.0026364001 1:0.0058048 
1 0:0.0089426003 1:0.068373002 
1 0:0.0041232998 1:0.93317002 
1 0:0.024727 1:0.096965 
1 0:0.11221 1:0.036474999 
1 0:0.0026127 1:0.084243998 
1 0:0.019392001 1:0.14336 
1 0:0.062933996 1:0.00024360001 
1 0:0.020912001 1:0.074506998 
1 0:0.48613 1:0.0043660998 
1 0:0.23469 1:0.022530001 
1 0:0.030314 1:0.16785 
-1 0:0.80619001 1:8.2919003e-05 
-1 0:0.013734 1:0.34187999 
1 0:0.016216001 1:0.10325 
1 0:0.034880001 1:0.020812999 
1 0:0.019731 1:0.069499999 
1 0:0.035101 1:0.0096805999 
1 0:0.0020427001 1:0.14741001 
1 0:0.025597 1:0.12195 
1 0:0.0096944999 1:0.12579 
-1 0:0.28972 1:0.035944 
1 0:0.22566999 1:0.099170998 
1 0:0.0059278999 1:0.35080999 
1 0:0.006633 1:0.14 
1 0:0.39383999 1:0.020095 
1 0:0.082185999 1:0.051707 
1 0:0.023471 1:0.30562001 
1 0:0.018405 1:0.12681 
1 0:0.084946997 1:0.12163 
1 0:0.0043430999 1:0.16734 
1 0:0.043850999 1:0.10857 
1 0:0.021722 1:0.16211 
1 0:0.42366001 1:0.026229 
1 0:0.0079966001 1:0.11313 
1 0:0.36552 1:0.038376998 
1 0:0.016386 1:0.19159999 
1 0:0.016651001 1:0.25132999 
1 0:0.039568 1:0.14343999 
1 0:0.0032732 1:0.31428 
1 0:0.012749 1:0.26223999 
1 0:0.015581 1:0.012561 
1 0:0.0068573998 1:0.03424 
1 0:0.018944999 1:0.083792001 
-1 0:0.0091886995 1:0.16188 
-1 0:0.23504999 1:0.10258 
-1 0:0.38611999 1:0.014548 
1 0:0.010113 1:0.18658 
1 0:0.0056285001 1:0.047508001 
1 0:0.013577 1:0.30994999 
1 0:0.037455 1:0.061115999 
-1 0:0.020452 1:0.19576 
-1 0:0.47202 1:0.012666 
-1 0:0.064315997 1:0.17846 
1 0:0.012494 1:0.11134 
1 0:0.049484 1:0.018439 
1 0:0.093679003 1:0.31321999 
1 0:0.0061669 1:0.019357 
1 0:0.053821001 1:0.029372999 
1 0:0.019685 1:0.10442 
1 0:0.0046955999 1:0.32029 
1 0:0.0053317002 1:0.040679 
1 0:0.028674999 1:0.026541 
1 0:0.041246999 1:0.18737 
1 0:0.31083 1:0.044468999 
-1 0:0.0052776001 1:0.34422001 
-1 0:0.055272002 1:0.14732 
-1 0:0.035013001 1:0.1434 
-1 0:0.41646001 1:0.015614 
-1 0:0.37233999 1:0.01842 
-1 0:0.058485001 1:0.00024550999 
-1 0:0.034161001 1:0.40384999 
-1 0:0.023055 1:0.1354 
1 0:0.01287 1:0.10177 
1 0:0.017449001 1:0.17470001 
1 0:0.019754 1:0.00053601997 
1 0:0.026791999 1:0.02568 
1 0:0.049862999 1:0.16246 
1 0:0.022289 1:0.077345997 
1 0:0.0076294998 1:0.4601 
1 0:0.031034 1:0.16373 
1 0:0.0087340996 1:0.028601 
1 0:0.0064583002 1:0.21439999 
1 0:0.073430002 1:0.12640999 
1 0:0.22623999 1:0.0036539999 
1 0:0.10856 1:0.016507 
1 0:0.81120002 1:0.00011025 
1 0:0.017459 1:0.2174 
1 0:0.026579 1:0.17109001 
1 0:0.036577001 1:0.02476 
1 0:0.069059998 1:0.0084164003 
-1 0:0.067694999 1:0.099646002 
-1 0:0.16477001 1:0.0085757002 
-1 0:0.0041588 1:0.020229001 
-1 0:0.92879999 1:0.00037706 
1 0:0.040096 1:0.12059 
1 0:0.032855999 1:0.28740999 
1 0:0.019688999 1:0.10295 
1 0:0.022701999 1:0.032198999 
1 0:0.044038001 1:0.1133 
1 0:0.028550001 1:0.11417 
1 0:0.072396003 1:0.16859999 
1 0:0.021491 1:0.10705 
1 0:0.020128001 1:0.13903999 
1 0:0.0086714998 1:0.0025376 
1 0:0.006732 1:0.13861001 
1 0:0.040600002 1:0.25387999 
1 0:0.017891999 1:0.036382999 
1 0:0.98866999 1:0.049509998 
1 0:0.10151 1:0.080692999 
1 0:0.084720999 1:0.26561999 
1 0:0.030609 1:0.052829999 
1 0:0.0046627 1:0.011042 
1 0:0.021322999 1:0.1961 
1 0:0.048971999 1:0.085184 
1 0:0.0050104 1:0.25641 
1 0:0.026605001 1:0.0090378998 
1 0:0.062706001 1:0.33577001 
1 0:0.073269002 1:0.034476999 
1 0:0.012296 1:0.0016636 
1 0:0.018966001 1:0.052336 
1 0:0.0077006002 1:0.0024911 
1 0:0.086943999 1:0.23515999 
1 0:0.38115001 1:0.0012145001 
1 0:0.029517001 1:0.076484002 
-1 0:0.39028999 1:0.035819001 
-1 0:0.0063783 1:0.11867 
-1 0:0.0039714999 1:0.38800001 
1 0:0.068476997 1:0.15451001 
1 0:0.01477 1:0.12135 
-1 0:0.17715999 1:6.4852e-05 
-1 0:0.019672999 1:0.12531 
-1 0:0.0071876999 1:0.090173997 
-1 0:0.016914001 1:0.0077608 
-1 0:0.0041104001 1:0.15838 
1 0:0.0064833001 1:0.21053 
1 0:0.095619999 1:0.0079851002 
1 0:0.0079500005 1:0.00055503001 
1 0:0.029774999 1:0.14534999 
1 0:0.071625002 1:0.35567001 
1 0:0.89662999 1:8.0992002e-05 
1 0:0.0075284 1:0.030480999 
1 0:0.42598 1:0.021995001 
1 0:0.086461 1:0.32308 
1 0:0.024115 1:0.17803 
1 0:0.0068707 1:0.37031001 
-1 0:0.023507001 1:0.015059 
-1 0:0.14579 1:0.070238002 
-1 0:0.045217 1:0.015830001 
-1 0:0.27785999 1:0.034731001 
-1 0:0.0062122 1:0.37261999 
-1 0:0.22528 1:0.023558 
1 0:0.038114998 1:0.28233999 
1 0:0.019816 1:0.15335 
1 0:0.042923 1:0.048020002 
1 0:0.0018011 1:0.0065766 
1 0:0.0080172997 1:0.29396999 
1 0:0.91535997 1:0.00012799 
1 0:0.0044030999 1:0.0021974 
1 0:0.023597 1:0.074634999 
1 0:0.033153001 1:0.15277 
1 0:0.029307 1:0.023112001 
1 0:0.04146 1:0.24369 
1 0:0.022519 1:0.11694 
1 0:0.18303999 1:0.016055999 
-1 0:0.18701001 1:0.053615 
1 0:0.047435001 1:0.14841001 
1 0:0.0078296997 1:0.048356999 
1 0:0.0078191999 1:0.023428001 
1 0:0.020889999 1:0.12281 
-1 0:0.42947999 1:0.048480999 
-1 0:0.03892 1:0.2157 
-1 0:0.026784999 1:0.00047843999 
-1 0:0.043859001 1:0.22635999 
1 0:0.0060744998 1:0.44047001 
1 0:0.044952001 1:0.23148 
1 0:0.013967 1:0.076682001 
1 0:0.0058320002 1:0.52885997 
1 0:0.10354 1:0.19882999 
1 0:0.027563 1:0.095705003 
1 0:0.017114 1:0.0069963001 
1 0:0.091609001 1:0.076696999 
1 0:0.028608 1:0.16419999 
1 0:0.077119999 1:0.0047885999 
1 0:0.0042192 1:0.51086998 
1 0:0.0066359998 1:0.34728 
1 0:0.092275001 1:0.13111 
1 0:0.0047601 1:0.48528001 
1 0:0.050726999 1:0.22816999 
1 0:0.098458998 1:0.1284 
1 0:0.013702 1:0.13471 
1 0:0.0040628002 1:0.065669 
1 0:0.92515999 1:0.00036745 
1 0:0.16116001 1:0.14952999 
1 0:0.068429001 1:0.16931 
1 0:0.018554 1:0.0030284999 
1 0:0.81423998 1:0.0001092 
1 0:0.0093398998 1:0.00031531 
1 0:0.027021 1:0.13304999 
1 0:0.90069002 1:8.3161998e-05 
1 0:0.23056 1:0.031881999 
1 0:0.023686999 1:0.0075367 
1 0:0.023220999 1:0.25815001 
1 0:0.065877996 1:0.14943001 
-1 0:0.33261999 1:0.0038181001 
-1 0:0.30102 1:0.028272999 
1 0:0.034736 1:0.14451 
1 0:0.0040794001 1:0.019807 
1 0:0.053158 1:0.24679001 
1 0:0.023185 1:0.39903 
-1 0:0.18952 1:0.092625998 
-1 0:0.065687001 1:0.11691 
-1 0:0.0075182002 1:0.17730001 
-1 0:0.0059415 1:0.61181003 
1 0:0.02853 1:0.016744999 
1 0:0.034244999 1:0.037007 
1 0:0.023847001 1:0.23695999 
1 0:0.50263 1:0.00031507999 
1 0:0.055176001 1:0.00023955001 
1 0:0.0057999999 1:0.081678003 
1 0:0.059581 1:0.12518001 
1 0:0.0068660998 1:0.27700999 
1 0:0.062849998 1:0.035597 
1 0:0.0044175 1:0.02496 
1 0:0.069934003 1:0.092004001 
1 0:0.041953001 1:0.02712 
1 0:0.0047325999 1:0.34314001 
1 0:0.070418999 1:0.24853 
1 0:0.1168 1:0.082333997 
1 0:0.0063449 1:0.046643998 
1 0:0.013383 1:0.028475 
1 0:0.12884 1:0.0073932 
-1 0:0.0075781001 1:0.15688001 
-1 0:0.023215 1:0.036132999 
1 0:0.016292 1:0.019119 
1 0:0.024947001 1:0.29686999 
1 0:0.24221 1:0.073195003 
1 0:0.01283 1:0.30897 
1 0:0.10301 1:0.00016411 
1 0:0.018688001 1:0.028481999 
1 0:0.00055107003 1:0.00016010999 
1 0:0.0052057998 1:0.27203 
1 0:0.017038001 1:0.087067999 
1 0:0.041884001 1:0.23972 
1 0:0.0054066 1:0.011522 
1 0:0.0081826001 1:0.037859999 
1 0:0.0054998002 1:0.041384999 
1 0:0.031613 1:0.18975 
1 0:0.017104 1:0.18295 
1 0:0.004073 1:0.21563999 
1 0:0.0050051999 1:0.26901001 
1 0:0.033860002 1:0.072454996 
-1 0:0.029309001 1:0.00054898998 
-1 0:0.0030115 1:0.49272999 
1 0:0.022504 1:0.20437001 
1 0:0.047676001 1:0.17485 
1 0:0.039018001 1:0.20174 
1 0:0.0059699998 1:0.45155001 
1 0:0.0036124999 1:0.43796 
1 0:0.017274 1:0.0042309002 
-1 0:0.0028403001 1:0.00065881002 
-1 0:0.050528999 1:0.055884998 
1 0:0.0089526996 1:0.036646001 
1 0:0.39365 1:0.037124999 
1 0:0.036823001 1:0.17321999 
1 0:0.30693001 1:0.0073882998 
1 0:0.011853 1:0.39302 
1 0:0.0044106999 1:0.39105001 
1 0:0.0136 1:0.15103 
1 0:0.0056528999 1:0.25490999 
1 0:0.084184997 1:0.19926 
1 0:0.024036 1:0.11 
1 0:0.098035 1:0.12729999 
1 0:0.045540001 1:0.00027993001 
1 0:0.065559 1:0.23331 
1 0:0.042682 1:0.13361999 
1 0:0.0066157002 1:0.001356 
1 0:0.071942002 1:0.23029999 
1 0:0.0059843999 1:0.34175 
1 0:0.41108 1:0.061983 
1 0:0.046737999 1:0.0042389999 
1 0:0.0055849999 1:0.7227 
1 0:0.0045353998 1:0.9016 
1 0:0.32809001 1:0.052122001 
-1 0:0.019832 1:0.043083001 
-1 0:0.013047 1:0.056712002 
1 0:0.052487999 1:8.1334998e-05 
1 0:0.026874 1:0.15496001 
1 0:0.021157 1:0.0039428999 
1 0:0.044573002 1:0.12891001 
-1 0:0.0090857996 1:0.092883997 
-1 0:0.013865 1:0.29909 
-1 0:0.043646999 1:0.23894 
-1 0:0.039524 1:0.32824999 
1 0:0.030006001 1:0.18795 
1 0:0.026549 1:0.12932 
1 0:0.42377001 1:0.015466 
1 0:0.42390999 1:0.048886001 
1 0:0.019525001 1:0.17042001 
1 0:0.050228 1:0.25725001 
1 0:0.036765002 1:0.16226999 
1 0:0.033659998 1:0.18893 
1 0:0.016229 1:0.19168 
1 0:0.033264 1:0.19084001 
1 0:0.028996 1:0.27994999 
-1 0:0.046650998 1:0.37904999 
-1 0:0.0043942002 1:0.31193 
-1 0:0.0035870001 1:0.035142999 
-1 0:0.045745 1:0.11956 
-1 0:0.063731998 1:0.17072999 
-1 0:0.014719 1:0.13203 
-1 0:0.062848002 1:0.19227999 
-1 0:0.010585 1:0.10213 
1 0:0.036663 1:0.18336999 
1 0:0.029697999 1:0.095022 
1 0:0.027743001 1:0.058150001 
1 0:0.0092925001 1:0.043733001 
1 0:0.088638 1:0.16519 
1 0:0.0054445001 1:0.037679002 
1 0:0.01873 1:0.05573 
1 0:0.00083416002 1:0.014311 
1 0:0.045683999 1:0.024698 
1 0:0.0048068999 1:0.11549 
1 0:0.037048999 1:0.28960001 
1 0:0.01191 1:0.077575997 
1 0:0.00077277003 1:0.0011065 
1 0:0.011596 1:0.1901 
1 0:0.0051040002 1:0.25288001 
1 0:0.0054879002 1:0.38183999 
1 0:0.0044386 1:0.5187 
-1 0:0.065287001 1:0.0033592 
-1 0:0.77473003 1:0.21541999 
-1 0:0.0039296998 1:0.92404997 
-1 0:0.047458999 1:0.25020999 
1 0:0.096986003 1:0.27246001 
1 0:0.10721 1:0.0054794 
1 0:0.052239999 1:0.25497001 
1 0:0.031822 1:0.23404001 
1 0:0.0043767998 1:0.02176 
1 0:0.0068335999 1:0.017501 
1 0:0.027612999 1:0.19675 
1 0:0.0029521 1:0.0023812 
1 0:0.81480998 1:0.00010907 
1 0:0.019688999 1:0.059475001 
1 0:0.0051321001 1:0.050099999 
1 0:0.012423 1:0.19357 
1 0:0.031498 1:0.0042333002 
1 0:0.042291 1:0.010701 
1 0:0.11405 1:0.22803999 
1 0:0.021443 1:0.12419 
1 0:0.0041729002 1:0.26554999 
1 0:0.30057999 1:0.036210001 
1 0:0.014571 1:0.11148 
1 0:0.0074784998 1:0.041802 
1 0:0.061547998 1:0.098901004 
1 0:0.098114997 1:7.1953997e-05 
1 0:0.0066098999 1:0.24386001 
1 0:0.077444002 1:0.018028 
1 0:0.48932999 1:0.053938001 
1 0:0.032768998 1:0.32085001 
1 0:0.4452 1:1.5741e-05 
1 0:0.016848 1:0.21619999 
1 0:0.98762 1:0.0087719001 
1 0:0.029618001 1:0.21137001 
-1 0:0.14589 1:0.019453 
-1 0:0.035953 1:0.13094001 
-1 0:0.068106003 1:0.33632001 
1 0:0.0096744001 1:0.27028 
1 0:0.038587 1:0.055020999 
-1 0:0.0079977997 1:0.0017142 
-1 0:0.074937999 1:0.00069124001 
-1 0:0.088032 1:0.21089999 
-1 0:0.038283002 1:0.17813 
-1 0:0.44222999 1:0.019484 
1 0:0.0039162999 1:0.38608 
1 0:0.017777 1:0.24876 
1 0:0.026023 1:0.1092 
1 0:0.036837 1:0.26210999 
1 0:0.018509001 1:0.23879001 
1 0:0.020329 1:0.26530999 
1 0:0.0051342002 1:0.0083563002 
1 0:0.019742001 1:0.0067535001 
1 0:0.0044812001 1:0.16101 
1 0:0.0045332001 1:0.93175 
1 0:0.19178 1:0.0014418 
1 0:0.0089151002 1:0.089550003 
-1 0:0.023290001 1:0.17124 
-1 0:0.0043680998 1:0.02025 
-1 0:0.0089389998 1:0.056120999 
-1 0:0.044397999 1:0.010552 
-1 0:0.019300999 1:0.1892 
-1 0:0.012816 1:0.16117001 
-1 0:0.0028988 1:0.0038782 
1 0:0.042560998 1:0.11272 
1 0:0.011636 1:0.035425 
1 0:0.035181001 1:0.20398 
1 0:0.0051635001 1:0.64231998 
1 0:0.0067706001 1:0.13909 
1 0:0.0062016002 1:0.62673002 
1 0:0.2577 1:0.028831 
1 0:0.032832 1:0.091688 
1 0:0.046323001 1:0.242 
1 0:0.010504 1:0.32128 
1 0:0.40858001 1:0.080660999 
1 0:0.20998999 1:0.075052001 
1 0:0.02338 1:0.071984999 
-1 0:0.01771 1:0.062394999 
1 0:0.14306 1:0.083719 
1 0:0.029877 1:0.16853 
1 0:0.81269002 1:0.0001085 
1 0:0.021002 1:0.016617 
-1 0:0.0086976001 1:0.10175 
-1 0:0.0066382 1:0.25830999 
-1 0:0.0044446001 1:0.47373 
-1 0:0.02619 1:0.08585 
1 0:0.065153003 1:0.032230001 
1 0:0.093524002 1:0.002012 
1 0:0.0074336999 1:0.42645001 
1 0:0.017535999 1:0.28565001 
1 0:0.075797997 1:0.013636 
1 0:0.049786001 1:0.032097999 
1 0:0.020555001 1:0.1329 
1 0:0.033199999 1:0.2051 
1 0:0.0024122 1:0.090965003 
1 0:0.013988 1:0.011353 
1 0:0.011739 1:0.052046001 
1 0:0.0061228001 1:0.23027 
1 0:0.19189 1:0.0063417 
1 0:0.021052999 1:0.11528 
1 0:0.0029396999 1:0.053383999 
1 0:0.0025338 1:0.011878 
1 0:0.017014001 1:0.022519 
1 0:0.018182 1:0.0012269 
1 0:0.01719 1:0.23983 
1 0:0.0044443998 1:0.063781001 
1 0:0.023799 1:0.16406 
1 0:0.0034105 1:0.24753 
1 0:0.26194 1:0.054632001 
1 0:0.064827003 1:0.23063999 
1 0:0.066404 1:0.14748 
1 0:0.044425 1:0.075911999 
1 0:0.0095411995 1:0.047591001 
1 0:0.015097 1:0.14072999 
1 0:0.89354998 1:7.9409001e-05 
1 0:0.0055212998 1:0.17893 
-1 0:0.0081278998 1:0.038821999 
-1 0:0.070996001 1:0.27526 
-1 0:0.3919 1:0.014535 
1 0:0.11112 1:0.31614 
1 0:0.012554 1:0.1823 
1 0:0.094313003 1:0.00030325001 
1 0:0.0092244996 1:0.13578001 
-1 0:0.19824 1:0.14467999 
-1 0:0.027294001 1:0.016264001 
-1 0:0.0042241998 1:0.46246001 
-1 0:0.0040153 1:0.31178001 
1 0:0.031948 1:0.11435 
1 0:0.038341999 1:0.15180001 
1 0:0.0040301001 1:0.057195999 
1 0:0.067575 1:0.00014528001 
1 0:0.0063527999 1:0.37919 
1 0:0.0061447001 1:0.071667999 
1 0:0.041173998 1:0.28044999 
1 0:0.023202 1:0.073638 
1 0:0.2071 1:0.14498 
1 0:0.050195001 1:0.42421001 
-1 0:0.031169999 1:0.17275999 
1 0:0.035022002 1:0.090962 
1 0:0.031783 1:0.061251 
1 0:0.0069646998 1:0.25169 
1 0:0.0044582998 1:0.27932 
1 0:0.0033016 1:0.048611999 
1 0:0.098323002 1:0.0032633001 
1 0:0.0093502998 1:0.072391003 
1 0:0.0061690998 1:0.19412 
-1 0:0.20640001 1:0.0042674998 
-1 0:0.031915002 1:0.098684996 
1 0:0.0052601998 1:0.021950001 
1 0:0.042916 1:0.023391999 
1 0:0.018091001 1:0.17673001 
1 0:0.011594 1:0.017775999 
1 0:0.036182001 1:0.34417999 
1 0:0.18741 1:0.078396 
1 0:0.078418002 1:0.32121 
1 0:0.020514 1:0.040206999 
1 0:0.017199 1:0.12345 
1 0:0.0065004001 1:0.33778 
1 0:0.32436001 1:0.094315 
1 0:0.0065390002 1:0.36910999 
1 0:0.044188 1:0.23559999 
1 0:0.012997 1:0.47383001 
1 0:0.016414 1:0.29168001 
1 0:0.022169 1:0.20840999 
1 0:0.035133 1:0.0036175 
1 0:0.066399001 1:0.11843 
-1 0:0.22089 1:0.021911001 
1 0:0.11361 1:0.027324 
1 0:0.12518001 1:0.0088163996 
1 0:0.0037481 1:0.26457 
1 0:0.014429 1:0.25251999 
1 0:0.0048504001 1:0.22693001 
1 0:0.012462 1:0.096625999 
1 0:0.016898001 1:0.0087889004 
1 0:0.42995 1:0.035709001 
1 0:0.0090632997 1:0.22187001 
1 0:0.0093205003 1:0.00054061 
1 0:0.025641 1:0.2335 
1 0:0.40608999 1:0.027053 
1 0:0.025025999 1:0.1838 
1 0:0.14098001 1:0.042580001 
1 0:0.0063964999 1:0.00072511 
1 0:0.16857 1:0.13235 
1 0:0.047913 1:0.22743 
1 0:0.053743001 1:0.1628 
1 0:0.098847002 1:0.025773 
1 0:0.0044201999 1:0.16588999 
1 0:0.019254999 1:0.089163996 
1 0:0.036325999 1:0.079905003 
1 0:0.31189001 1:0.0025467 
1 0:0.23366 1:0.027531 
1 0:0.0068562999 1:0.25913 
1 0:0.018763 1:0.14456999 
1 0:0.024556 1:0.037007999 
1 0:0.016333001 1:0.11728 
1 0:0.81326002 1:0.00011367 
1 0:0.037115999 1:0.072555996 
1 0:0.0083205001 1:0.48291999 
1 0:0.1644 1:0.0086420001 
1 0:0.014389 1:0.016215 
1 0:0.027275 1:0.1106 
1 0:0.030647 1:0.078729004 
1 0:0.084618002 1:0.0077638002 
1 0:0.0062008002 1:0.22285999 
-1 0:0.019850999 1:0.36998999 
-1 0:0.055466998 1:0.27866 
-1 0:0.0054071001 1:0.091803998 
1 0:0.022577999 1:0.0019826 
1 0:0.032868002 1:0.27621001 
1 0:0.0076445998 1:0.1691 
1 0:0.097066998 1:0.099584997 
1 0:0.20581 1:0.018199001 
1 0:0.023980999 1:0.052034002 
1 0:0.0092112003 1:0.083343998 
1 0:0.043402001 1:0.18790001 
1 0:0.0053975 1:0.34202 
1 0:0.024738999 1:0.18302 
1 0:0.065182999 1:0.23554 
1 0:0.031810001 1:0.044380002 
-1 0:0.27383 1:0.0041638999 
-1 0:0.015765 1:0.043921001 
-1 0:0.046778999 1:0.073132999 
-1 0:0.016481999 1:0.069729 
-1 0:0.0047301999 1:0.14787 
-1 0:0.021815 1:0.048824001 
-1 0:0.02231 1:0.34792 
1 0:0.089598998 1:0.045350999 
1 0:0.025830001 1:0.15274 
1 0:0.091610998 1:0.032396998 
1 0:0.091704004 1:0.27704999 
1 0:0.022260999 1:0.065699004 
1 0:0.016783999 1:0.16637 
1 0:0.026061 1:0.14284 
1 0:0.087724999 1:0.33026999 
1 0:0.40957001 1:0.0062981001 
1 0:0.81436002 1:0.00011032 
1 0:0.0055732001 1:0.39572001 
1 0:0.014053 1:0.32247999 
1 0:0.0042752 1:0.41988999 
1 0:0.21726 1:0.044844002 
1 0:0.37342 1:0.021007 
1 0:0.024692999 1:0.12786999 
1 0:0.023993 1:0.50743002 
-1 0:0.0027818 1:0.0060478002 
-1 0:0.0070578 1:0.24572 
-1 0:0.0053878999 1:0.24845 
-1 0:0.027706999 1:0.1605 
-1 0:0.010474 1:0.52695 
1 0:0.0090926001 1:5.7488e-05 
1 0:0.047804002 1:0.20236 
1 0:0.0083651999 1:0.33203 
1 0:0.0042349002 1:0.21325 
1 0:0.13618 1:8.1256003e-06 
1 0:0.0052208998 1:0.61303997 
1 0:0.054031 1:0.18858001 
1 0:0.047180001 1:0.26284 
1 0:0.042897999 1:0.25725001 
1 0:0.0099246996 1:0.1551 
1 0:0.0016059 1:0.0028401001 
1 0:0.0049109999 1:0.07519 
1 0:0.0067651998 1:0.14068 
1 0:0.018188 1:0.0020512 
1 0:0.011295 1:0.14387 
1 0:0.049295999 1:0.041127 
1 0:0.022713 1:0.00061113999 
1 0:0.11556 1:0.0003706 
1 0:0.0077108 1:0.018955 
1 0:0.39568001 1:0.027355 
1 0:0.072944999 1:0.28841001 
1 0:0.0097864997 1:0.11767 
1 0:0.0064586001 1:0.2685 
1 0:0.021911999 1:0.17805 
1 0:0.020684 1:0.1912 
1 0:0.0023717 1:0.00057088002 
1 0:0.021268999 1:0.083136 
1 0:0.017735999 1:0.020849001 
1 0:0.020071 1:0.12192 
1 0:0.0053814002 1:0.32488999 
-1 0:0.01028 1:0.1652 
-1 0:0.075971998 1:0.12604 
1 0:0.059888002 1:0.10119 
1 0:0.0029412 1:0.43033999 
1 0:0.0059509999 1:0.095606998 
-1 0:0.0074223001 1:0.65834999 
-1 0:0.81094003 1:0.00011021 
-1 0:0.38145 1:0.089199997 
-1 0:0.024927 1:0.082114004 
-1 0:0.013354 1:0.049490001 
1 0:0.021599 1:0.16514 
1 0:0.51095998 1:0.00031049 
1 0:0.048402999 1:0.28698 
1 0:0.017212 1:0.055868998 
1 0:0.0074033998 1:0.0049584 
1 0:0.0053845998 1:0.19318999 
1 0:0.40753999 1:0.093437999 
1 0:0.058407001 1:0.21056999 
1 0:0.16644999 1:0.075282 
1 0:0.011095 1:0.15614 
1 0:0.038863 1:0.35018 
1 0:0.0025661001 1:0.16804001 
-1 0:0.093069002 1:0.0034916999 
-1 0:0.0062165 1:0.0045504002 
-1 0:0.0046720998 1:0.076535001 
-1 0:0.42677 1:0.042904999 
-1 0:0.01275 1:0.14106999 
-1 0:0.036350999 1:0.079405002 
-1 0:0.0020131001 1:0.010084 
1 0:0.065811999 1:0.038555 
1 0:0.033022001 1:0.078073002 
1 0:0.027612001 1:0.1112 
1 0:0.033293001 1:0.32504001 
1 0:0.084201001 1:0.22363999 
1 0:0.0047964999 1:0.1443 
1 0:0.027561 1:0.14151999 
1 0:0.014559 1:0.33666 
1 0:0.32198 1:0.0017938 
1 0:0.024001 1:0.11107 
1 0:0.019267 1:0.1874 
1 0:0.0063363998 1:0.00025929001 
-1 0:0.043715999 1:0.024266001 
-1 0:0.022732999 1:0.25821 
1 0:0.45851001 1:0.066201001 
1 0:0.013143 1:0.042238999 
1 0:0.015097 1:0.11925 
1 0:0.024474001 1:0.046845 
-1 0:0.095128 1:0.20148 
-1 0:0.052073002 1:0.26265001 
-1 0:0.089783996 1:0.024811 
-1 0:0.031603999 1:0.25156999 
1 0:0.0039853998 1:0.29905 
1 0:0.014042 1:0.051534999 
1 0:0.02403 1:0.099949002 
1 0:0.075281002 1:0.083887003 
1 0:0.22474 1:0.061409999 
1 0:0.018097 1:0.17727 
1 0:0.054903999 1:0.040452 
1 0:0.020734999 1:0.21039 
1 0:0.0055951001 1:0.35104001 
1 0:0.010882 1:0.46737 
1 0:0.0069812001 1:0.26609001 
1 0:0.0042925999 1:0.16381 
1 0:0.15893 1:0.050173 
1 0:0.030471999 1:0.073514998 
1 0:0.021883 1:0.22878 
1 0:0.20725 1:0.017208001 
1 0:0.10047 1:0.27353001 
1 0:0.037730999 1:0.12650999 
1 0:0.02998 1:0.13702001 
1 0:0.057817001 1:0.18883 
1 0:0.014939 1:0.13203999 
1 0:0.052937999 1:0.036125001 
1 0:0.071602002 1:0.081813999 
1 0:0.011904 1:0.14783999 
1 0:0.0050543998 1:0.36728999 
1 0:0.07062 1:0.16008 
1 0:0.039446998 1:0.12219 
1 0:0.045246001 1:0.12886 
1 0:0.0039653 1:0.23280001 
1 0:0.0051270998 1:0.40063 
-1 0:0.10274 1:0.074045002 
-1 0:0.0098818 1:0.00021924 
-1 0:0.0056236 1:0.35578001 
1 0:0.0035615 1:0.14219999 
1 0:0.015343 1:0.19351999 
1 0:0.0082973996 1:0.17217 
1 0:0.121 1:0.017654 
-1 0:0.42050001 1:0.053633999 
-1 0:0.0032692 1:0.86795998 
-1 0:0.038097002 1:0.176 
1 0:0.0065648002 1:0.24435 
1 0:0.033443999 1:0.050537001 
1 0:0.021048 1:0.052111998 
1 0:0.0068949 1:0.22666 
1 0:0.0079122996 1:0.0056778002 
1 0:0.023576001 1:0.0074384999 
1 0:0.071690999 1:0.036403 
1 0:0.046372 1:0.31751999 
1 0:0.035670001 1:0.095928997 
1 0:0.1514 1:0.072185002 
1 0:0.016040999 1:0.42054999 
-1 0:0.019758999 1:0.14032 
1 0:0.034908 1:0.13270999 
1 0:0.1375 1:0.19949999 
1 0:0.018394999 1:0.05308 
1 0:0.15828 1:0.067792997 
1 0:0.0064281002 1:0.10548 
1 0:0.046677001 1:0.038098 
1 0:0.090672001 1:0.00016590999 
-1 0:0.020059001 1:0.071137004 
-1 0:0.01173 1:0.0021162 
1 0:0.0079613002 1:0.18847001 
1 0:0.0061622001 1:0.0080565 
1 0:0.046057001 1:0.2209 
1 0:0.069701001 1:0.2913 
1 0:0.0061804 1:0.22965001 
1 0:0.047499001 1:0.089616999 
1 0:0.0049132998 1:0.0025851 
1 0:0.0095079998 1:0.071966 
1 0:0.10589 1:0.075746 
1 0:0.03692 1:0.060068 
1 0:0.17895 1:0.05204 
1 0:0.011371 1:0.067464001 
1 0:0.0381 1:0.12146 
1 0:0.019734001 1:0.19355001 
1 0:0.0063061998 1:0.22852001 
1 0:0.0038674001 1:0.029584 
1 0:0.0053705 1:0.39484 
-1 0:0.023281001 1:0.31229001 
-1 0:0.0077483002 1:0.23281001 
1 0:0.0073791998 1:0.0029988 
1 0:0.12789001 1:0.019037999 
1 0:0.0037984001 1:0.00063336 
1 0:0.19374999 1:0.0018162 
1 0:0.025348 1:0.1823 
1 0:0.068944 1:0.056699999 
1 0:0.039071999 1:0.18634 
1 0:0.045529999 1:0.21878999 
1 0:0.90248001 1:8.5077998e-05 
1 0:0.0086503997 1:5.6736e-05 
1 0:0.017270001 1:0.00021221 
1 0:0.46112999 1:6.1764999e-06 
1 0:0.014141 1:0.0036700999 
1 0:0.0033100999 1:0.015243 
1 0:0.023768 1:0.051784001 
1 0:0.0074896002 1:0.1639 
1 0:0.024569999 1:0.12444 
1 0:0.060323998 1:0.22708 
1 0:0.0095865997 1:0.017709 
1 0:0.038068 1:0.18260001 
1 0:0.0049423999 1:0.44843999 
1 0:0.0050464999 1:0.20537999 
1 0:0.033890001 1:0.2983 
1 0:0.020524001 1:0.13725001 
1 0:0.019433999 1:0.076347001 
1 0:0.023976 1:0.00094161002 
1 0:0.011419 1:0.22843 
1 0:0.011127 1:0.0021544001 
1 0:0.12474 1:1.1293e-05 
1 0:0.023313999 1:0.2133 
1 0:0.019296 1:0.065131001 
-1 0:0.044920001 1:0.023615999 
1 0:0.018279999 1:0.13101 
1 0:0.0063982001 1:0.43318999 
1 0:0.17585 1:0.0099553997 
1 0:0.010812 1:0.045297999 
1 0:0.0032873 1:0.0047550001 
-1 0:0.0067377002 1:0.13353001 
-1 0:0.038433 1:0.02492 
-1 0:0.0068814 1:0.15523 
-1 0:0.017679 1:0.16688 
1 0:0.024745001 1:0.1011 
1 0:0.019148 1:0.034056 
1 0:0.007671 1:0.59644997 
1 0:0.068286002 1:0.12277 
1 0:0.015196 1:0.11768 
1 0:0.054676998 1:0.34816 
1 0:0.020764999 1:0.28593001 
1 0:0.069043003 1:0.069145001 
1 0:0.0071844002 1:0.34819999 
1 0:0.014229 1:0.1978 
1 0:0.0067600999 1:0.22457001 
1 0:0.046929002 1:0.21403 
-1 0:0.02111 1:0.31318 
-1 0:0.18299 1:0.0030084001 
-1 0:0.023855999 1:0.075622 
-1 0:0.044016 1:0.35016999 
-1 0:0.018671 1:0.12333 
-1 0:0.0030415 1:0.16109 
-1 0:0.22442999 1:0.050082002 
1 0:0.015478 1:0.13906001 
1 0:0.0076120999 1:0.043669999 
1 0:0.051268999 1:0.11035 
1 0:0.016003 1:0.12561999 
1 0:0.018149 1:0.1331 
1 0:0.0078242002 1:0.13823 
1 0:0.045435 1:0.059137002 
1 0:0.0082265995 1:0.18877 
1 0:0.066650003 1:0.13536 
1 0:0.057744 1:0.13999 
1 0:0.0046198 1:0.065009996 
1 0:0.025351999 1:0.075028002 
1 0:0.11033 1:0.00046857999 
1 0:0.0098019 1:0.0034060001 
1 0:0.039464999 1:0.12648 
1 0:0.19983 1:0.032623 
1 0:0.011502 1:0.080444999 
-1 0:0.0090781003 1:0.17626999 
-1 0:0.04944 1:0.17113 
-1 0:0.51960999 1:3.6663001e-05 
-1 0:0.01919 1:0.15468 
-1 0:0.36272001 1:0.00029170999 
1 0:0.042557001 1:0.21761 
1 0:0.018469 1:0.093144 
1 0:0.025970999 1:0.12376 
1 0:0.0095247002 1:0.16899 
1 0:0.041763999 1:0.16942 
1 0:0.027512001 1:0.18771 
1 0:0.069789 1:0.036881 
1 0:0.027446 1:0.23630001 
1 0:0.013216 1:0.059767 
1 0:0.026091 1:0.21822999 
1 0:0.40123999 1:0.025217 
1 0:0.057950001 1:0.28994 
1 0:0.018893 1:0.11507 
1 0:0.0077920998 1:0.44409001 
1 0:0.030911 1:0.064221002 
1 0:0.0039693001 1:0.0049965 
1 0:0.064317003 1:0.15979999 
1 0:0.036731001 1:0.090521999 
1 0:0.0043652002 1:0.26063001 
1 0:0.0066714999 1:0.15620001 
1 0:0.0041526998 1:0.14589 
1 0:0.082144998 1:0.075708002 
1 0:0.0060647 1:0.68032998 
1 0:0.0018921 1:0.085096002 
1 0:0.035066001 1:0.16547 
1 0:0.0021658 1:0.43413001 
1 0:0.023824001 1:0.19628 
1 0:0.026086001 1:0.30094001 
1 0:0.013417 1:0.11057 
1 0:0.0047967001 1:0.37024999 
-1 0:0.018637 1:0.17224 
-1 0:0.04149 1:0.11049 
1 0:0.013189 1:0.34773001 
1 0:0.086754002 1:0.038456 
1 0:0.13770001 1:0.0085373996 
-1 0:0.042342 1:0.17012 
-1 0:0.025753999 1:0.16896001 
-1 0:0.13613001 1:0.083742 
-1 0:0.14225 1:0.16396999 
-1 0:0.00086626998 1:0.073632002 
1 0:0.033323999 1:0.079485998 
1 0:0.81443 1:0.00011445 
1 0:0.50774002 1:1.3022e-06 
1 0:0.3231 1:0.045113999 
1 0:0.0038725 1:0.13782001 
1 0:0.092422999 1:0.23444 
1 0:0.0030255001 1:0.020883 
1 0:0.037709001 1:0.0026191 
1 0:0.011733 1:0.091462001 
1 0:0.028117999 1:0.038844001 
1 0:0.010138 1:0.19257 
1 0:0.045456 1:0.31661999 
-1 0:0.11571 1:0.26822001 
-1 0:0.015602 1:0.061384 
-1 0:0.013046 1:0.0033203999 
-1 0:0.21958999 1:0.020666 
-1 0:0.25071001 1:0.036490001 
-1 0:0.021684 1:0.070901997 
-1 0:0.20023 1:0.014521 
1 0:0.055764999 1:0.0001991 
1 0:0.049102999 1:0.01214 
1 0:0.21324 1:0.027198 
1 0:0.015834 1:0.00024831001 
1 0:0.045437001 1:0.12091 
1 0:0.067864999 1:0.095570996 
1 0:0.22315 1:0.084986001 
1 0:0.41782999 1:0.15383001 
1 0:0.023922 1:0.21479 
1 0:0.0063466998 1:0.42309001 
1 0:0.0040193 1:0.054295 
1 0:0.051835999 1:0.042027 
-1 0:0.27796 1:0.060727999 
1 0:0.45905 1:0.016804 
1 0:0.0047113998 1:0.42813 
1 0:0.0080380002 1:0.00655 
1 0:0.40178999 1:0.15605 
-1 0:0.063446999 1:0.00060615002 
-1 0:0.031744 1:0.16410001 
-1 0:0.0054430999 1:0.41648 
-1 0:0.016255001 1:0.073233001 
1 0:0.028803 1:0.11907 
1 0:0.043288998 1:0.034795001 
1 0:0.017406 1:0.047818001 
1 0:0.16088 1:0.018046999 
1 0:0.087228 1:0.13947999 
1 0:0.0057398998 1:0.50919002 
1 0:0.025215 1:0.24558 
1 0:0.27296001 1:0.11969 
1 0:0.0059419 1:0.11298 
1 0:0.0068180999 1:0.14559001 
1 0:0.16756 1:0.23194 
1 0:0.065658003 1:0.12991001 
1 0:0.0061094002 1:0.26438001 
1 0:0.40272999 1:0.019091999 
1 0:0.056352001 1:0.25966001 
1 0:0.069301002 1:0.15674999 
1 0:0.062856004 1:0.1804 
1 0:0.011964 1:0.089175999 
1 0:0.060146 1:0.22762001 
1 0:0.019827001 1:0.065003999 
1 0:0.16311 1:0.0017682 
1 0:0.0025301001 1:0.85167998 
1 0:0.0082005002 1:0.32831001 
1 0:0.0028981999 1:0.45798999 
1 0:0.011817 1:0.13549 
1 0:0.13274001 1:0.055996999 
1 0:0.026214 1:0.1471 
1 0:0.036750998 1:0.22132 
1 0:0.080636002 1:0.026063001 
1 0:0.039666001 1:0.13484 
-1 0:0.10178 1:0.21653999 
-1 0:0.0066113002 1:0.46827 
-1 0:0.015675001 1:0.13124999 
1 0:0.16841 1:3.9136001e-05 
1 0:0.039097 1:0.055844001 
1 0:0.0061881999 1:0.28740001 
-1 0:0.048834 1:0.00020433 
-1 0:0.0051525999 1:0.50955999 
-1 0:0.0044455999 1:0.25895 
1 0:0.017237 1:0.067317002 
1 0:0.060770001 1:0.00038578999 
1 0:0.11169 1:0.082392998 
1 0:0.027828 1:0.15612 
1 0:0.044806 1:0.24361999 
1 0:0.2485 1:0.050701 
1 0:0.027078999 1:0.18722001 
1 0:0.42916 1:2.6235e-05 
1 0:0.0041180002 1:0.27811 
1 0:0.01342 1:0.15815 
1 0:0.013028 1:0.3326 
-1 0:0.015798001 1:0.034102 
1 0:0.019815 1:0.067413002 
1 0:0.0070544998 1:0.33812001 
1 0:0.034526002 1:0.026657 
1 0:0.031544 1:0.33752999 
1 0:0.026830999 1:0.13635001 
1 0:0.024664 1:0.055353001 
1 0:0.023740999 1:0.29262999 
-1 0:0.22060999 1:0.019540001 
-1 0:0.046728 1:0.11819 
-1 0:0.065688998 1:0.115 
1 0:0.81931001 1:0.00011344 
1 0:0.036074001 1:0.13104001 
1 0:0.070361003 1:0.030923 
1 0:0.060764998 1:0.094664998 
1 0:0.0030522 1:0.0082969004 
1 0:0.028922999 1:0.21534 
1 0:0.0062922998 1:0.22544999 
1 0:0.004642 1:0.38714999 
1 0:0.43911001 1:0.010332 
1 0:0.053808998 1:0.31575 
1 0:0.011844 1:0.10692 
1 0:0.33741999 1:0.0052433 
1 0:0.0075087999 1:0.00033077999 
1 0:0.011884 1:0.081600003 
1 0:0.26161999 1:0.0069424999 
1 0:0.026898 1:0.011356 
1 0:0.068544999 1:0.026134999 
-1 0:0.029407 1:0.061156999 
-1 0:0.046115 1:0.12676001 
1 0:0.049798999 1:0.011548 
1 0:0.069568999 1:0.0043493998 
1 0:0.01545 1:0.10007 
1 0:0.0049883001 1:0.0012538 
1 0:0.026420999 1:0.14835 
1 0:0.02736 1:0.17005999 
1 0:0.014508 1:0.026542 
1 0:0.01664 1:0.054598 
1 0:0.27102 1:0.0011475 
1 0:0.0047847 1:0.28121999 
1 0:0.020562001 1:0.14541 
1 0:0.089593999 1:0.25650001 
1 0:0.01247 1:0.043480001 
1 0:0.013612 1:0.37165001 
1 0:0.099964 1:0.21505 
1 0:0.068857998 1:0.012521 
1 0:0.015736001 1:0.10532 
1 0:0.042337999 1:0.1149 
1 0:0.026256001 1:0.19761001 
1 0:0.026999 1:0.30919001 
1 0:0.033232 1:0.10731 
1 0:0.024536001 1:0.1188 
1 0:0.13262001 1:0.0077785002 
1 0:0.010537 1:0.10568 
1 0:1.8109e-05 1:0.01747 
1 0:0.0082887001 1:0.38312 
1 0:0.014965 1:0.24534 
1 0:0.0045709 1:0.33665001 
1 0:0.032526001 1:0.018515 
1 0:0.0037273001 1:0.0088659003 
1 0:0.11267 1:0.0082152998 
-1 0:0.16106001 1:0.089152999 
1 0:0.078849003 1:0.078775004 
1 0:0.015552 1:0.090916999 
1 0:0.0092553999 1:0.32493001 
1 0:0.0050257002 1:0.69825 
1 0:0.0065990998 1:0.44461 
-1 0:0.01104 1:0.24247999 
-1 0:0.057888001 1:0.38251001 
-1 0:0.023368999 1:0.18747 
1 0:0.080283999 1:0.14877 
1 0:0.058485001 1:0.017557999 
1 0:0.42667001 1:0.082468003 
1 0:0.06882 1:0.32855999 
1 0:0.054786999 1:0.20618001 
1 0:0.028593 1:0.0014911999 
1 0:0.41214001 1:0.016905 
1 0:0.025131 1:0.00024734999 
1 0:0.027768999 1:0.037962999 
1 0:0.011459 1:0.12058 
1 0:0.11576 1:0.0069752 
1 0:0.014816 1:0.037351999 
-1 0:0.0064726998 1:0.20985 
-1 0:0.0039598998 1:0.34018001 
-1 0:0.050044 1:0.17380001 
-1 0:0.15764 1:0.032304998 
-1 0:0.11466 1:0.030479999 
-1 0:0.010901 1:0.060217999 
-1 0:0.057427 1:0.028475 
1 0:0.033248998 1:0.11649 
1 0:0.010576 1:0.015659999 
1 0:0.026562 1:0.11282 
1 0:0.018444 1:0.028506 
1 0:0.0099791 1:0.36089 
1 0:0.022635 1:0.048381001 
1 0:0.34455001 1:0.038837001 
1 0:0.021976 1:0.12378 
1 0:0.046813 1:0.20894 
1 0:0.072989002 1:0.31292999 
1 0:0.24389 1:0.11004 
1 0:0.0026052 1:0.030437 
1 0:0.035905 1:0.23021001 
1 0:0.0039690002 1:0.26995 
1 0:0.0037771999 1:0.21796 
1 0:0.048438001 1:0.14796001 
1 0:0.0052533001 1:0.051846001 
1 0:0.0060345 1:0.27842 
-1 0:0.032019001 1:0.14590999 
-1 0:0.034356002 1:0.17117999 
-1 0:0.025916999 1:0.32993001 
-1 0:0.017383 1:0.2172 
1 0:0.078125998 1:0.19666 
1 0:0.028488999 1:0.37103 
1 0:0.0078123999 1:0.46355999 
1 0:0.13285001 1:0.00022878 
1 0:0.041168999 1:0.18937001 
1 0:0.020052001 1:0.193 
1 0:0.019348999 1:0.051964 
1 0:0.0054985001 1:0.015649 
1 0:0.092597 1:0.25859001 
1 0:0.01161 1:0.2192 
1 0:0.038109999 1:0.12523 
1 0:0.046542 1:0.0047641001 
1 0:0.025281999 1:0.0012325 
1 0:0.053799 1:0.23604 
1 0:0.0082131997 1:0.31782001 
1 0:0.076526999 1:0.27682999 
1 0:0.11922 1:0.018286999 
1 0:0.016187999 1:0.12563001 
1 0:0.01394 1:0.023886001 
1 0:0.046218999 1:0.26887 
1 0:0.00090431998 1:0.0019825001 
1 0:0.0069566998 1:0.27869999 
1 0:0.10265 1:0.17579 
1 0:0.29426 1:0.12589 
1 0:0.0047670999 1:0.52408999 
1 0:0.099241003 1:0.14094999 
1 0:0.019960999 1:0.2075 
1 0:0.043781999 1:0.14454 
1 0:0.22283 1:0.014501 
1 0:0.022812 1:0.19018 
1 0:0.032046001 1:0.11164 
-1 0:0.10454 1:0.17885 
-1 0:0.028409 1:0.02447 
1 0:0.019024 1:0.090278 
1 0:0.010447 1:0.0071780002 
-1 0:0.0050936001 1:0.20175999 
-1 0:0.0054520001 1:0.27715999 
-1 0:0.0199 1:0.14944001 
-1 0:0.010657 1:0.52519 
-1 0:0.0054716002 1:0.40946999 
-1 0:0.036584999 1:0.17295 
1 0:0.0075480002 1:0.29335001 
1 0:0.0098388996 1:0.13798 
1 0:0.031350002 1:0.19572 
1 0:0.28729001 1:3.5023e-05 
1 0:0.0055995001 1:0.26554 
1 0:0.028891999 1:0.14077 
1 0:0.074326001 1:0.10565 
1 0:0.031132 1:0.24527 
1 0:0.0035010001 1:0.30197999 
1 0:0.040375002 1:0.033126 
1 0:0.0058379001 1:0.27195999 
1 0:0.080412999 1:0.089432999 
-1 0:0.0072671999 1:0.23813 
-1 0:0.020036001 1:0.16185001 
-1 0:0.0050770999 1:0.0019894 
-1 0:0.014697 1:0.07198 
-1 0:0.029444 1:0.043234002 
-1 0:0.010798 1:0.11469 
-1 0:0.04769 1:6.2532003e-05 
1 0:0.033070002 1:0.031167001 
1 0:0.0039447001 1:0.011788 
1 0:0.41251999 1:0.030303 
1 0:0.099651001 1:0.023166999 
1 0:0.0031097 1:0.12131 
1 0:0.035245001 1:0.0028768 
1 0:0.031869002 1:0.073027 
1 0:0.0051679001 1:0.34197 
1 0:0.063909002 1:0.10508 
1 0:0.026397999 1:0.16676 
1 0:0.012845 1:0.27963999 
1 0:0.0056794002 1:0.46625 
-1 0:0.079015002 1:0.37020999 
1 0:0.036164999 1:0.38918 
1 0:0.0041601001 1:0.20519 
1 0:0.035137001 1:0.19715001 
1 0:0.069430999 1:0.078353003 
-1 0:0.0075551001 1:0.29674 
-1 0:0.89012998 1:7.7015997e-05 
-1 0:0.02231 1:0.12702 
-1 0:0.0090688001 1:0.39442 
-1 0:0.024917001 1:0.15631001 
1 0:0.33230999 1:0.050174002 
1 0:0.019436 1:0.056527 
1 0:0.016225001 1:0.032512002 
1 0:0.014541 1:0.0028850001 
1 0:0.23338 1:0.015085 
1 0:0.0054527 1:0.31891999 
1 0:0.011482 1:0.19351999 
1 0:0.045976002 1:0.39535999 
1 0:0.055176999 1:0.081294999 
1 0:0.058102001 1:0.19362999 
1 0:0.046358999 1:0.41679001 
1 0:0.042481001 1:0.36643001 
1 0:0.016928 1:0.001212 
1 0:0.022081999 1:0.098011002 
1 0:0.051663999 1:0.10688 
1 0:0.30641001 1:0.0083761998 
1 0:0.0037390001 1:0.45721 
1 0:0.023807 1:0.10002 
1 0:0.015553 1:0.23346999 
1 0:0.50312001 1:0.00030272 
1 0:0.0042411 1:0.1481 
1 0:0.35442999 1:0.10913 
1 0:0.0044887001 1:0.015565 
1 0:0.042709999 1:0.095375001 
1 0:0.0087539004 1:0.27774 
1 0:0.037176002 1:0.058522999 
1 0:0.17821001 1:0.0093892999 
1 0:0.11737 1:0.17614999 
1 0:0.028757 1:0.12568 
1 0:0.29638001 1:0.0019722001 
-1 0:0.052852001 1:0.14572001 
-1 0:0.085038997 1:0.00090217998 
1 0:0.0032238001 1:0.60650003 
1 0:0.018177999 1:0.083086997 
1 0:0.0092943003 1:0.06402 
1 0:0.0049355002 1:0.81770003 
-1 0:0.0090694996 1:0.27704999 
-1 0:0.020878 1:0.22596 
-1 0:0.02146 1:0.30998999 
-1 0:0.054111 1:0.1215 
1 0:0.0092922999 1:0.037822001 
1 0:0.21367 1:0.028881 
1 0:0.049671002 1:0.17216 
1 0:0.0048314999 1:0.62366003 
1 0:0.048788 1:0.14475 
1 0:0.0039972002 1:0.31279001 
1 0:0.35835001 1:0.00096966 
1 0:0.014909 1:0.081442997 
1 0:0.0042658998 1:0.18029 
1 0:0.0053862999 1:0.080664001 
1 0:0.024835 1:0.14556 
-1 0:0.064682998 1:0.16389 
1 0:0.37819001 1:0.086318001 
1 0:0.0081669996 1:0.23878001 
1 0:0.018567 1:0.11644 
1 0:0.0055314 1:0.25731999 
1 0:0.0043533999 1:0.64775997 
1 0:0.082690999 1:0.17459001 
1 0:0.0090311002 1:0.47637999 
-1 0:0.12442 1:0.0052168001 
-1 0:0.0078448998 1:0.085239999 
-1 0:0.25255999 1:0.011444 
1 0:0.021266 1:0.051050998 
1 0:0.049862999 1:0.21546 
1 0:0.018154999 1:0.063371003 
1 0:0.0011413 1:0.0033631001 
1 0:0.0075460002 1:0.34478 
1 0:0.021942001 1:0.10537 
1 0:0.020013999 1:0.14278001 
1 0:0.20848 1:0.025589 
1 0:0.035351999 1:0.036554001 
1 0:0.043834999 1:0.0066008 
1 0:0.027679 1:0.18761 
1 0:0.0049128002 1:0.0046095001 
1 0:0.048145998 1:0.10433 
1 0:0.12621 1:0.00035259 
1 0:0.0044828998 1:0.16669001 
1 0:0.032230001 1:0.020295 
1 0:0.018792 1:0.16134 
-1 0:0.0062344 1:0.36311001 
-1 0:0.047982 1:0.0074121002 
1 0:0.061104 1:0.10738 
1 0:0.015729999 1:0.0030968001 
1 0:0.022953 1:0.19702999 
1 0:0.23079 1:0.067082003 
1 0:0.026071001 1:0.087439001 
1 0:0.015735 1:0.18321 
1 0:0.012307 1:0.058825999 
-1 0:0.22807001 1:0.083476 
1 0:0.042610999 1:0.0040175999 
1 0:0.52454001 1:0.00016294001 
1 0:0.16813999 1:4.6052999e-05 
1 0:0.24275 1:0.033303 
1 0:0.090346001 1:0.2658 
1 0:0.024596 1:0.11945 
1 0:0.020955 1:0.094233997 
1 0:0.036765002 1:0.016419999 
1 0:0.012745 1:0.1072 
1 0:0.37059 1:0.0086837998 
1 0:0.043542001 1:0.0010608 
1 0:0.018678 1:0.22059999 
1 0:0.035944998 1:0.16492 
1 0:0.060562 1:0.14459001 
1 0:0.0048135999 1:0.024103999 
1 0:0.027868001 1:0.11194 
1 0:0.035766002 1:0.0010044 
1 0:0.029653 1:0.10321 
1 0:0.0053045 1:0.28948 
1 0:0.0087457998 1:0.015737001 
1 0:0.016275 1:0.21261001 
1 0:0.0041069002 1:0.28999999 
-1 0:0.077985004 1:0.14143001 
-1 0:0.47215 1:0.13987 
-1 0:0.0028287 1:0.12092 
1 0:0.0046144002 1:0.20546 
1 0:0.068129003 1:0.14154001 
1 0:0.015253 1:0.080646001 
1 0:0.031659 1:0.25915 
-1 0:0.062682003 1:0.049095999 
-1 0:0.088638 1:0.17167 
-1 0:0.017399 1:0.052747 
1 0:0.024969 1:0.067184001 
1 0:0.036433998 1:0.13956 
1 0:0.041005999 1:0.21128 
1 0:0.017108999 1:0.35506999 
1 0:0.018131999 1:0.0069379001 
1 0:0.031036999 1:0.13779999 
1 0:0.0020472 1:0.71151 
1 0:0.0087249996 1:0.21817 
1 0:0.12909 1:0.0010391 
1 0:0.15074 1:0.0063677002 
1 0:0.14413001 1:0.012253 
-1 0:0.013997 1:0.064677998 
-1 0:0.0064123999 1:0.19469 
-1 0:0.031044001 1:0.15335999 
-1 0:0.041538998 1:0.26330999 
-1 0:0.054680001 1:1.3315e-05 
-1 0:0.0070488998 1:0.039751999 
-1 0:0.0051306998 1:0.2367 
-1 0:0.071046002 1:0.18939 
1 0:0.024836 1:0.14150999 
1 0:0.32010001 1:0.011168 
1 0:0.23052 1:0.015137 
1 0:0.015728001 1:0.016589001 
1 0:0.0061872001 1:0.074771002 
1 0:0.20546 1:0.043237001 
1 0:0.1205 1:0.107 
1 0:0.039836999 1:0.18298 
1 0:0.018199001 1:0.29554 
1 0:0.0056456998 1:0.26774001 
1 0:0.021325 1:0.046941999 
1 0:0.075659998 1:0.0065779001 
1 0:0.1071 1:0.19227 
1 0:0.0064006001 1:0.12769 
1 0:0.055496 1:0.15440001 
1 0:0.26381001 1:0.072048001 
1 0:0.041057002 1:0.12098 
1 0:0.0041169999 1:0.00051155 
-1 0:0.0092238002 1:0.50397998 
-1 0:0.13305999 1:0.0020914001 
-1 0:0.0060299998 1:0.58603001 
-1 0:0.036153998 1:0.1266 
1 0:0.042234998 1:0.0070727002 
1 0:0.16449 1:0.0064233998 
1 0:0.04036 1:0.39403 
1 0:0.031319 1:0.19631 
1 0:0.043880001 1:0.17544 
1 0:0.024397001 1:0.00074081001 
1 0:0.033218 1:0.1644 
1 0:0.020659 1:0.19504 
1 0:0.026555 1:0.080353998 
1 0:0.0042130998 1:0.011335 
1 0:0.4077 1:0.01629 
1 0:0.035523001 1:0.16267 
1 0:0.019160001 1:0.061427999 
1 0:0.42120001 1:0.00074398 
1 0:0.82156003 1:0.00011338 
1 0:0.19458 1:0.074078999 
1 0:0.040874001 1:0.38602 
1 0:0.073481001 1:0.33122 
1 0:0.032039002 1:0.27241999 
1 0:0.36570001 1:0.0058713998 
1 0:0.019249 1:0.14452 
1 0:0.010297 1:0.0029116001 
1 0:0.070978001 1:0.33375999 
1 0:0.0091958996 1:0.12694 
1 0:0.080431998 1:0.085114002 
1 0:0.0045805001 1:0.047979999 
1 0:0.016541 1:0.28290999 
1 0:0.012036 1:0.00023607 
1 0:0.0053098998 1:0.0014908999 
1 0:0.041901998 1:0.00017884 
-1 0:0.031890001 1:0.13160001 
-1 0:0.073678002 1:0.20026 
-1 0:0.016912 1:0.012313 
1 0:0.0034822 1:0.097612001 
1 0:0.047428999 1:0.10502 
-1 0:0.040206999 1:0.19505 
-1 0:0.090305001 1:0.0021009 
-1 0:0.37 1:0.0010337 
-1 0:0.22575 1:0.011309 
-1 0:0.0046096002 1:0.47589001 
-1 0:0.076150998 1:0.023605 
1 0:0.022753 1:0.0035885 
1 0:0.14292 1:0.13600001 
1 0:0.017286001 1:0.0044809999 
1 0:0.085242003 1:0.37041 
1 0:0.013647 1:0.28960001 
1 0:0.0043004998 1:0.10972 
1 0:0.30357999 1:0.0093914997 
1 0:0.14129999 1:7.3588002e-05 
1 0:0.052092999 1:0.2687 
1 0:0.027284 1:0.0062229 
1 0:0.021043001 1:0.18545 
1 0:0.54991001 1:0.0022817999 
-1 0:0.10479 1:0.18079001 
-1 0:0.0089536998 1:0.11617 
-1 0:0.0070276 1:0.050503001 
-1 0:0.011877 1:0.1199 
-1 0:0.0033725 1:0.048209 
-1 0:0.020599 1:0.068221003 
-1 0:0.0070525999 1:0.13243 
1 0:0.0059314002 1:0.48846999 
1 0:0.013955 1:0.20898999 
1 0:0.034049001 1:0.12532 
1 0:0.046560001 1:0.021901 
1 0:0.099973001 1:0.015766 
1 0:0.059175 1:0.24818 
1 0:0.1048 1:0.28906 
1 0:0.078429997 1:0.13488001 
1 0:0.034118 1:0.36085001 
1 0:0.40880001 1:0.025993999 
1 0:0.0055300999 1:0.029962 
1 0:0.0048110001 1:0.057342999 
-1 0:0.0063673998 1:0.19351 
1 0:0.029245 1:0.12417 
1 0:0.4693 1:0.021703999 
1 0:0.044826999 1:0.22519 
1 0:0.056301001 1:0.24372999 
-1 0:0.0030006 1:0.0054398002 
-1 0:0.16876 1:0.026569 
-1 0:0.018044 1:0.16723 
-1 0:0.0044955001 1:0.0010774001 
-1 0:0.27919 1:0.0068144999 
1 0:0.0039666998 1:0.041843999 
1 0:0.025529999 1:0.10332 
1 0:0.092207998 1:0.023220001 
1 0:0.016818 1:0.081738003 
1 0:0.15561 1:0.11978 
1 0:0.0043759001 1:0.0012904 
1 0:0.0039364998 1:0.66671002 
1 0:0.0071977 1:0.080435 
1 0:0.013144 1:0.25725001 
1 0:0.24778 1:0.0054250001 
1 0:0.029769 1:0.14040001 
1 0:0.016393 1:0.10079 
1 0:0.047899 1:0.049637999 
1 0:0.023824999 1:0.18658 
1 0:0.001896 1:0.0097131999 
1 0:0.022129999 1:0.13222 
1 0:0.011103 1:0.28904 
1 0:0.019189 1:0.12207 
1 0:0.039280001 1:0.17576 
1 0:0.0041585001 1:0.91854 
1 0:0.027480001 1:0.38512 
1 0:0.011175 1:0.059147 
1 0:0.0089335004 1:0.092637002 
1 0:0.0066995001 1:0.12517001 
1 0:0.043907002 1:0.050946999 
1 0:0.20931999 1:0.031238999 
1 0:0.068380997 1:0.0015989 
1 0:0.11401 1:0.25301999 
1 0:0.036865 1:0.12583999 
1 0:0.029751999 1:0.28972 
-1 0:0.061039999 1:0.24905001 
-1 0:0.039448999 1:0.25314 
1 0:0.0099662002 1:0.082570001 
1 0:0.018203 1:0.16421001 
1 0:0.050664 1:0.27829999 
1 0:0.015776999 1:0.10433 
-1 0:0.0040922002 1:0.24483 
-1 0:0.038490001 1:0.15977 
-1 0:0.084137 1:0.27118999 
-1 0:0.52095997 1:0.00016444 
1 0:0.046433002 1:0.041556999 
1 0:8.3694998e-05 1:0.014232 
1 0:0.12312 1:0.018229 
1 0:0.0085952003 1:0.044047002 
1 0:0.048277002 1:0.14318 
1 0:0.053211 1:0.23763999 
1 0:0.016807999 1:0.15553001 
1 0:0.0082745003 1:0.031946 
1 0:0.007644 1:0.01276 
1 0:0.0063557001 1:0.0029879001 
1 0:0.0075729 1:0.19757999 
-1 0:0.042426001 1:0.17522 
1 0:0.052264001 1:0.12454 
1 0:0.051872998 1:0.093574002 
1 0:0.0050698002 1:0.63251001 
1 0:0.019679001 1:0.0027216 
1 0:0.031702001 1:0.16065 
1 0:0.030537 1:0.024057001 
1 0:0.0059492998 1:0.34887999 
-1 0:0.0029827999 1:0.11975 
-1 0:0.11866 1:0.0034431999 
1 0:0.043939002 1:0.076237999 
1 0:0.014667 1:0.13559 
1 0:0.28290001 1:0.03827 
1 0:0.0093317004 1:0.12842999 
1 0:0.27948999 1:0.0062132999 
1 0:0.027904 1:0.19007 
1 0:0.077174999 1:0.022544 
1 0:0.017936001 1:0.17434999 
1 0:0.042512 1:0.015755 
1 0:0.037639 1:0.0072734002 
1 0:0.038116999 1:0.13744 
1 0:0.0027290999 1:0.94194001 
1 0:0.037834998 1:0.13714001 
1 0:0.22249 1:0.062217999 
1 0:0.0066574002 1:0.0045122998 
1 0:0.0049614999 1:0.020718001 
1 0:0.0061587002 1:0.11061 
-1 0:0.0082743 1:0.14139999 
-1 0:0.1001 1:0.10724 
1 0:0.037714999 1:0.19102 
1 0:0.015399 1:0.1383 
1 0:0.0054965001 1:0.44620001 
1 0:0.0045834002 1:0.061751999 
1 0:0.024342 1:0.22323 
1 0:0.017542999 1:0.00010678 
1 0:0.0078330999 1:0.22172999 
-1 0:0.012223 1:0.10824 
1 0:0.041531999 1:0.21818 
1 0:0.34272 1:0.02617 
1 0:0.02015 1:0.18128 
1 0:0.024981 1:0.11798 
1 0:0.23611 1:0.049277 
1 0:0.006205 1:0.10468 
1 0:0.015268 1:0.25132999 
1 0:0.068818003 1:0.074348003 
1 0:0.013585 1:0.10151 
1 0:0.4851 1:0.036331002 
1 0:0.018815 1:0.32334 
1 0:0.041673001 1:0.006941 
1 0:0.0066426001 1:0.12729 
1 0:0.0085712001 1:0.50601 
1 0:0.014238 1:0.00076276 
1 0:0.031056 1:0.13213 
1 0:0.18911999 1:0.071658999 
1 0:0.0069483002 1:0.50607002 
1 0:0.073330998 1:0.00015511 
1 0:0.013128 1:0.28316 
1 0:0.31884 1:0.035539001 
1 0:0.089809 1:0.0082422998 
-1 0:0.027259 1:0.18313 
-1 0:0.81283998 1:0.00011181 
-1 0:0.055441 1:0.21292999 
1 0:0.017955 1:0.039129 
1 0:0.022121999 1:0.27858001 
1 0:0.10856 1:0.050742 
1 0:0.0061112 1:0.28509 
-1 0:0.019653 1:0.095917001 
-1 0:0.1001 1:0.070230998 
-1 0:0.017121 1:0.077267997 
1 0:0.0085348999 1:0.087015003 
1 0:0.032102998 1:0.13998 
1 0:0.046471 1:0.23206 
1 0:0.0078314999 1:0.053289 
1 0:0.033801999 1:0.17734 
1 0:0.0050146999 1:0.15221 
1 0:0.0044618999 1:0.17146 
1 0:0.042373002 1:0.22144 
1 0:0.016287001 1:0.084110998 
1 0:0.029572001 1:0.057149 
1 0:0.065068997 1:0.16936 
-1 0:0.014836 1:0.16968 
-1 0:0.031927001 1:0.19475 
-1 0:0.24303 1:0.11015 
-1 0:0.033372998 1:0.020612 
-1 0:0.071176998 1:0.0030075 
-1 0:0.044872999 1:0.15854999 
-1 0:0.0091198003 1:0.0028055999 
-1 0:0.27752 1:0.0034568 
1 0:0.053509999 1:0.10855 
1 0:0.035301998 1:0.28996 
1 0:0.014057 1:0.026885999 
1 0:0.017774001 1:0.14456999 
1 0:0.0064050001 1:0.17287 
1 0:0.0075786002 1:0.045256 
1 0:0.0036728999 1:0.0042117001 
1 0:0.013231 1:0.18704 
1 0:0.0064500002 1:0.0094087999 
1 0:0.018035 1:0.12137 
1 0:0.19744 1:0.018538 
1 0:0.20254999 1:0.01159 
1 0:0.0065234001 1:0.30687001 
1 0:0.020903001 1:0.10509 
1 0:0.0040516001 1:0.26546001 
1 0:0.1195 1:0.055822 
1 0:0.0022505999 1:0.44034001 
1 0:0.038077999 1:0.19166 
-1 0:0.022612 1:0.12554 
-1 0:0.28312999 1:0.067851998 
-1 0:0.040669002 1:0.19340999 
-1 0:0.046185002 1:0.0018821 
1 0:0.020044999 1:0.18703 
1 0:0.033572 1:0.0083275 
1 0:0.053619999 1:0.019493001 
1 0:0.022985 1:0.1587 
1 0:0.062661 1:0.27498999 
1 0:0.0047853002 1:0.43020001 
1 0:0.08777 1:0.32778001 
1 0:0.031055 1:0.12087 
1 0:0.0029641001 1:0.42728001 
1 0:0.011107 1:0.020827999 
1 0:0.0054545999 1:0.14391001 
1 0:0.049598999 1:0.16054 
1 0:0.11439 1:0.20486 
1 0:0.022851 1:0.082016997 
1 0:0.12602 1:0.020876 
1 0:0.0087122004 1:0.016411999 
1 0:0.018417001 1:0.001734 
1 0:0.013679 1:0.035711002 
1 0:0.041205 1:0.16276 
1 0:0.0045528002 1:0.27862999 
1 0:0.0033761 1:0.10855 
1 0:0.0055427002 1:0.0038683999 
1 0:0.054547999 1:0.19852 
1 0:0.0050995001 1:0.016342999 
1 0:0.042562999 1:0.12830999 
1 0:0.12589 1:4.2729e-05 
1 0:0.031372 1:0.11459 
1 0:0.0082980003 1:0.30697 
1 0:0.0063490998 1:0.25026 
1 0:0.027928 1:0.23784 
-1 0:0.022325 1:0.18096 
-1 0:0.011684 1:0.07265 
-1 0:0.39693999 1:0.0013511 
1 0:0.052636001 1:0.13433 
1 0:0.45480001 1:0.059615001 
-1 0:0.069752 1:0.088693999 
-1 0:0.018278001 1:0.16314 
-1 0:0.0057012001 1:0.28253001 
-1 0:0.034768 1:0.0035744 
-1 0:0.073381998 1:0.091569997 
1 0:0.0067361002 1:0.45454001 
1 0:0.021015 1:0.023796 
1 0:0.0085091004 1:0.038485002 
1 0:0.42197999 1:0.040902 
1 0:0.014137 1:0.046712 
1 0:0.036157001 1:0.25330001 
1 0:0.99017 1:0.15993001 
1 0:0.019531 1:0.28964001 
1 0:0.050965 1:0.20439 
1 0:0.050128002 1:0.027624 
1 0:0.031388 1:0.21213999 
1 0:0.10817 1:0.22946 
-1 0:0.010417 1:0.079469003 
-1 0:0.037517998 1:0.0040353001 
-1 0:0.019582 1:0.34432 
-1 0:0.056102 1:0.00042910999 
-1 0:0.033135999 1:0.030383 
-1 0:0.091992997 1:0.0073366002 
1 0:0.071416996 1:0.26453999 
1 0:0.027739 1:0.078264996 
1 0:0.039726999 1:0.26137999 
1 0:0.33248001 1:0.064765997 
1 0:0.10335 1:0.10306 
1 0:0.024273001 1:0.23125 
1 0:0.1021 1:0.18725 
1 0:0.02754 1:0.11772 
1 0:0.0044278 1:0.11292 
1 0:0.0057012001 1:0.41666001 
1 0:0.032563999 1:0.12752999 
1 0:0.0020468 1:0.76029998 
1 0:0.0061364002 1:0.35332999 
-1 0:0.0068970998 1:0.00030541999 
1 0:0.071709 1:0.0065337 
1 0:0.078287996 1:0.050014 
1 0:0.15465 1:0.0020159001 
1 0:0.025932999 1:0.15792 
-1 0:0.0051440001 1:0.39610001 
-1 0:0.018657999 1:0.020032 
-1 0:0.021473 1:0.20987999 
-1 0:0.054253999 1:0.25650001 
1 0:0.070779003 1:0.060178 
1 0:0.0016974 1:0.0013230999 
1 0:0.26299 1:0.028119 
1 0:0.21588001 1:0.19326 
1 0:0.019683 1:0.20731001 
1 0:0.057627998 1:0.19306 
1 0:0.010214 1:0.047775999 
1 0:0.035471998 1:0.25365001 
1 0:0.0039300001 1:0.17262 
1 0:0.020011 1:0.038454998 
1 0:0.049091998 1:0.17146 
1 0:0.027636999 1:0.086198002 
1 0:0.050570998 1:0.00082279003 
1 0:0.0039496999 1:0.26073 
1 0:0.049210999 1:0.22326 
1 0:0.1221 1:0.047037002 
1 0:0.017067 1:0.23012 
1 0:0.0082066003 1:0.0070079002 
1 0:0.13868 1:0.01221 
1 0:0.29705 1:0.0084603 
1 0:0.052193999 1:0.26873001 
1 0:0.0040973001 1:0.0015766 
1 0:0.024884 1:0.053994 
1 0:0.074074998 1:0.098150998 
1 0:0.48302001 1:0.00031542001 
1 0:0.027155001 1:0.40825 
1 0:0.015353 1:0.10199 
1 0:0.15177 1:0.011365 
1 0:0.0071366001 1:0.13789 
1 0:0.39839 1:0.0076108999 
-1 0:0.0081804004 1:0.47205999 
-1 0:0.014937 1:0.050042 
-1 0:0.074533999 1:0.12696999 
1 0:0.022388 1:0.18818 
1 0:0.23158 1:0.0049363002 
1 0:0.035181999 1:0.041912999 
1 0:0.037742 1:0.089782 
-1 0:0.27256 1:0.012445 
-1 0:0.01589 1:0.0097607002 
-1 0:0.027163001 1:0.13981 
-1 0:0.020151 1:0.14395 
1 0:0.0055860002 1:0.10059 
1 0:0.040603999 1:0.098554999 
1 0:0.017114 1:0.0012843 
1 0:0.26589999 1:0.043845002 
1 0:0.042977002 1:0.18928 
1 0:0.017782001 1:0.042268001 
1 0:0.076834001 1:0.054731999 
1 0:0.045589998 1:0.034791 
1 0:0.0052558002 1:0.48681 
1 0:0.071046002 1:0.32223001 
1 0:0.065454997 1:0.097220004 
1 0:0.12921 1:0.017897001 
1 0:0.34198999 1:0.028444 
1 0:0.31073999 1:0.017219 
1 0:0.067290999 1:0.13209 
1 0:0.03356 1:0.36892 
1 0:0.016584 1:0.13772 
1 0:0.025277 1:0.089239001 
-1 0:0.011746 1:0.17177001 
-1 0:0.028867001 1:0.22857 
1 0:0.0055697998 1:0.0021279999 
1 0:0.064540997 1:0.039535999 
1 0:0.012015 1:3.1263e-05 
1 0:0.13819 1:0.075837001 
1 0:0.10251 1:0.26183999 
1 0:0.020081 1:0.030657001 
1 0:0.02083 1:0.43485999 
1 0:0.020291001 1:0.01501 
1 0:0.0049765999 1:0.47793999 
1 0:0.89894998 1:8.6253996e-05 
1 0:0.054545999 1:0.071064003 
1 0:0.007123 1:0.0011007 
1 0:0.0051744999 1:0.17144001 
1 0:0.52691001 1:0.00030551001 
1 0:0.039012998 1:0.21765 
1 0:0.018650001 1:0.13514 
1 0:0.026534 1:0.085639998 
1 0:0.02619 1:0.14881 
-1 0:0.13828 1:0.0033384 
-1 0:0.80905002 1:0.00010588 
1 0:0.24649 1:0.025119999 
1 0:0.040685002 1:0.16282 
1 0:0.021987 1:0.096111998 
1 0:0.084564999 1:0.21213999 
1 0:0.16754 1:0.022187 
1 0:0.0066632 1:0.13111 
-1 0:0.046286002 1:0.014412 
-1 0:0.0060584 1:0.62756997 
1 0:0.0063385 1:0.11898 
1 0:0.019734999 1:0.039478999 
1 0:0.047555 1:0.011998 
1 0:0.0026358999 1:0.0014324 
1 0:0.44758999 1:0.0088611003 
1 0:0.020932 1:0.10562 
1 0:0.023138 1:0.081142999 
1 0:0.078212999 1:0.062616996 
1 0:0.32946 1:0.037760001 
1 0:0.036417 1:0.017310999 
1 0:0.027675999 1:0.064952999 
1 0:0.0048639001 1:0.25238001 
1 0:0.038888998 1:0.18257999 
1 0:0.021725999 1:0.1057 
1 0:0.092646003 1:0.053863 
1 0:0.028689001 1:0.11415 
1 0:0.029224001 1:0.11455 
1 0:0.054062001 1:0.21529 
1 0:0.008618 1:0.16542999 
1 0:0.041188002 1:0.36059001 
1 0:0.019056 1:0.28048 
1 0:0.011149 1:0.0068887002 
-1 0:0.032446001 1:0.31022 
-1 0:0.020546 1:0.17618001 
1 0:0.20558999 1:0.013135 
1 0:0.039315 1:0.20715 
1 0:0.019975999 1:0.040688001 
1 0:0.019051 1:0.34617001 
-1 0:0.018728999 1:0.086832002 
-1 0:0.0045345998 1:0.039303001 
-1 0:0.058885001 1:0.00012774 
-1 0:0.027887 1:0.24534 
1 0:0.016794 1:0.2274 
1 0:0.012498 1:0.049082 
1 0:0.040481001 1:0.24397001 
1 0:0.013188 1:0.18824001 
1 0:0.0091102999 1:0.32383999 
1 0:0.025924999 1:0.17766 
1 0:0.0046933 1:0.51332998 
1 0:0.054623999 1:0.23322999 
1 0:0.029859999 1:0.048338 
1 0:0.040157001 1:0.001076 
1 0:0.024372 1:0.2113 
-1 0:0.045322001 1:0.14729001 
-1 0:0.11847 1:0.37270999 
-1 0:0.020617001 1:0.24697 
-1 0:0.0029058999 1:0.39258999 
-1 0:0.025999 1:0.18437 
-1 0:0.010225 1:0.027775999 
-1 0:0.0095181996 1:0.35644001 
-1 0:0.026583999 1:0.12722 
1 0:0.0026233001 1:0.0022124001 
1 0:0.014762 1:0.058460999 
1 0:0.020935001 1:0.079921998 
1 0:0.0083418004 1:0.16117001 
1 0:0.011866 1:0.089845002 
1 0:0.004952 1:0.014435 
1 0:0.0072487998 1:0.39416 
1 0:0.044447001 1:0.20235001 
1 0:0.0072452002 1:0.11962 
1 0:0.15990999 1:0.096134 
1 0:0.023621 1:0.11395 
1 0:0.0045936001 1:0.41058001 
1 0:0.012075 1:0.0020858 
1 0:0.01508 1:0.14845 
1 0:0.012024 1:0.033606 
1 0:0.024959 1:0.066211 
1 0:0.057427999 1:0.17207 
-1 0:0.034208 1:0.15328 
-1 0:0.12083 1:0.011167 
-1 0:0.0074753999 1:0.41214001 
-1 0:0.046572998 1:0.19220001 
-1 0:0.0024963 1:0.97565001 
1 0:0.022981999 1:0.16209 
1 0:0.024808001 1:0.078537002 
1 0:0.0037718001 1:0.37496001 
1 0:0.026769999 1:0.13090999 
1 0:0.0052097999 1:0.34832001 
1 0:0.10825 1:0.063228004 
1 0:0.022287 1:0.28802001 
1 0:0.092046998 1:0.17697001 
1 0:0.022671999 1:0.071229003 
1 0:0.0036611001 1:0.010389 
1 0:0.043763999 1:0.0083555998 
1 0:0.0053448002 1:0.46314999 
1 0:0.034972999 1:0.19915999 
1 0:0.018518001 1:0.19097 
1 0:0.035583001 1:0.057161 
1 0:0.12005 1:0.023093 
1 0:0.011682 1:0.18134999 
1 0:0.046298999 1:0.21559 
1 0:0.034333002 1:0.10875 
1 0:0.073574997 1:0.24965 
1 0:0.017061001 1:0.11237 
1 0:0.0055501 1:0.26794001 
1 0:0.019432999 1:0.18776999 
1 0:0.026557 1:0.17293 
1 0:0.015204 1:0.020625999 
1 0:0.0081498995 1:0.43524 
1 0:0.039772999 1:0.22107001 
1 0:0.019818 1:0.098100998 
1 0:0.025356 1:0.070863999 
1 0:0.013351 1:0.24646001 
-1 0:0.0062122 1:0.45868999 
-1 0:0.0027888 1:0.027830999 
-1 0:0.19526 1:0.087025002 
1 0:0.023224 1:0.14738999 
1 0:0.027353 1:0.26839 
-1 0:0.029933 1:0.011633 
-1 0:0.096795 1:0.23079 
-1 0:0.030352 1:0.22398999 
-1 0:0.11923 1:0.040798999 
-1 0:0.023061 1:0.14146 
1 0:0.018579001 1:0.17549001 
1 0:0.0048551001 1:0.0011021 
1 0:0.043246001 1:0.14696001 
1 0:0.47624999 1:0.063377 
1 0:0.10137 1:0.049803998 
1 0:0.01674 1:0.28825 
1 0:0.15764 1:0.070937999 
1 0:0.042734999 1:0.16825999 
1 0:0.027332 1:0.013519 
1 0:0.024483001 1:0.090241998 
1 0:0.012821 1:0.15685 
1 0:0.072664998 1:0.098480999 
-1 0:0.038396999 1:0.22901 
-1 0:0.068626001 1:0.16456001 
-1 0:0.0060169999 1:0.25929999 
-1 0:0.099040002 1:0.29506001 
-1 0:0.038217999 1:0.18218 
-1 0:0.020400001 1:0.14292 
-1 0:0.38800001 1:0.050236002 
1 0:0.0068041999 1:0.006788 
1 0:0.074974999 1:0.096744999 
1 0:0.018580001 1:0.13065 
1 0:0.0055121998 1:0.33526999 
1 0:0.014943 1:0.014195 
1 0:0.015666001 1:0.039944001 
1 0:0.35523999 1:0.070758 
1 0:0.027660999 1:0.11133 
1 0:0.021356 1:0.13448 
1 0:0.020281 1:0.0026177 
1 0:0.17378999 1:0.029496999 
1 0:0.16143 1:0.050205 
-1 0:0.0051794001 1:0.51551002 
1 0:0.042614002 1:0.29712999 
1 0:0.022526 1:0.1903 
1 0:0.025041999 1:0.33162999 
1 0:0.095541999 1:0.061462 
-1 0:0.081877999 1:0.00017345 
-1 0:0.022861 1:0.21258999 
-1 0:0.063694 1:0.0098278001 
-1 0:0.062217001 1:0.15257999 
1 0:0.0043645999 1:0.71868002 
1 0:0.0075653 1:0.018735001 
1 0:0.27408001 1:0.084683999 
1 0:0.81839001 1:0.00011139 
1 0:0.006023 1:0.47775999 
1 0:0.37444001 1:0.028136 
1 0:0.030941 1:0.00018007 
1 0:0.28295001 1:0.034019999 
1 0:0.010437 1:0.13098 
1 0:0.0049550999 1:0.31299001 
1 0:0.043120999 1:0.21514 
1 0:0.072654001 1:0.023899 
1 0:0.0045328001 1:0.27821001 
1 0:0.91969001 1:0.00036559001 
1 0:0.033704001 1:0.30188 
1 0:0.0054203998 1:0.28643 
1 0:0.02688 1:0.06701 
1 0:0.038677 1:0.13744 
1 0:0.0058617 1:0.19306 
1 0:0.0083804997 1:0.15054999 
1 0:0.058880001 1:0.22114 
1 0:0.0075352001 1:0.31597999 
1 0:0.022678001 1:0.093539998 
1 0:0.066827998 1:0.10463 
1 0:0.096809998 1:0.21483 
1 0:0.01402 1:0.0066618999 
1 0:0.011854 1:0.0064524999 
1 0:0.0094235996 1:0.054235 
1 0:0.12124 1:0.071388997 
1 0:0.025002001 1:0.22081999 
-1 0:0.022435 1:0.012084 
-1 0:0.044376001 1:0.28856 
-1 0:0.36599001 1:0.034591999 
1 0:0.0077772001 1:0.042374998 
1 0:0.011189 1:0.18127 
1 0:0.058605 1:0.1312 
1 0:0.042305999 1:0.33399999 
-1 0:0.041242 1:0.020750999 
-1 0:0.085153997 1:0.20843001 
-1 0:0.016577 1:0.071749002 
-1 0:0.071057998 1:0.029225999 
1 0:0.023895999 1:0.041026998 
1 0:0.011177 1:0.027006 
1 0:0.057859 1:0.051948 
1 0:0.028634001 1:0.26078999 
1 0:0.034602001 1:0.13225999 
1 0:0.023345999 1:0.058423001 
1 0:0.0087099997 1:0.0028748 
1 0:0.031941999 1:0.16772 
1 0:0.032044999 1:0.046914998 
1 0:0.19847 1:0.068103001 
-1 0:0.046473999 1:0.27454999 
1 0:0.15296 1:0.034074999 
1 0:0.010651 1:0.17335001 
1 0:0.011006 1:0.00098295999 
1 0:0.91619003 1:0.00012678 
1 0:0.17048 1:0.082385004 
1 0:0.028291 1:0.014156 
1 0:0.015623 1:0.11957 
1 0:0.010212 1:0.12785999 
-1 0:0.011743 1:0.021644 
-1 0:0.083273999 1:0.041818 
1 0:0.0061991001 1:0.28303999 
1 0:0.022588 1:0.24054 
1 0:0.034681998 1:0.24429999 
1 0:0.0094317999 1:0.068302996 
1 0:0.019098001 1:0.074525997 
1 0:0.024056001 1:0.13639 
1 0:0.0050300001 1:0.52588999 
1 0:0.21702 1:0.061172999 
1 0:0.0059551001 1:0.0042351 
1 0:0.015252 1:0.0070023998 
1 0:0.0042089 1:0.38361001 
1 0:0.010114 1:0.19596 
1 0:0.0032297999 1:0.56676 
1 0:0.0081110001 1:0.00032046999 
1 0:0.0022594 1:0.24316999 
1 0:0.043618001 1:0.27686 
1 0:0.13273001 1:0.044438999 
-1 0:0.073501997 1:0.0034572999 
1 0:0.040268 1:0.19458 
1 0:0.042493999 1:0.12986 
1 0:0.054416999 1:0.29339001 
1 0:0.19172999 1:0.021961 
1 0:0.026217001 1:0.13842 
1 0:0.023670999 1:0.082443997 
1 0:0.0049672001 1:0.43178999 
-1 0:0.013441 1:0.08202 
-1 0:0.034109998 1:0.39155999 
1 0:0.0089937001 1:0.01524 
1 0:0.0034393 1:0.016372999 
1 0:0.050161999 1:0.16875 
1 0:0.0018013 1:0.023076 
1 0:0.057151001 1:0.16303 
1 0:0.012035 1:0.045405999 
1 0:0.028726 1:0.16508999 
1 0:0.010227 1:0.030623 
1 0:0.1691 1:0.017778 
1 0:0.012444 1:0.001743 
1 0:0.020416999 1:0.090576001 
1 0:0.18904001 1:0.10317 
1 0:0.030618001 1:0.1139 
1 0:0.057597 1:0.28303 
1 0:0.055326 1:0.398 
1 0:0.023 1:0.044139002 
1 0:0.041694 1:0.078314997 
1 0:0.094622001 1:0.0097180996 
1 0:0.024878999 1:0.022236001 
1 0:0.0069861002 1:0.040832002 
1 0:0.0042172 1:0.011781 
1 0:0.021121999 1:0.15458 
-1 0:0.021103 1:0.21439999 
-1 0:0.029948 1:0.31922001 
1 0:0.025683001 1:0.15888 
1 0:0.11954 1:0.029464001 
1 0:0.011923 1:0.18576001 
1 0:0.049208 1:0.084302999 
-1 0:0.018468 1:0.11724 
-1 0:0.0042568999 1:0.91358 
-1 0:0.012269 1:0.095848002 
-1 0:0.0024806999 1:0.0085953996 
1 0:0.066762 1:0.22827999 
1 0:0.0061730999 1:0.38001001 
1 0:0.020718001 1:0.1655 
1 0:0.021837 1:0.13123 
1 0:0.026418 1:0.086393997 
1 0:0.25130001 1:0.068786003 
1 0:0.0064237001 1:0.43581 
1 0:0.048579 1:0.19558001 
1 0:0.048059002 1:0.23021001 
1 0:0.3759 1:0.0017938 
1 0:0.0052033002 1:0.14292 
-1 0:0.076924004 1:0.097818002 
-1 0:0.32486001 1:0.094540998 
-1 0:0.23624 1:0.12809999 
-1 0:0.15301999 1:0.0027029 
-1 0:0.013852 1:0.022867 
-1 0:0.072502002 1:0.26245001 
-1 0:0.079516001 1:0.086373001 
-1 0:0.0060649998 1:0.0057799001 
1 0:0.012303 1:0.061905999 
1 0:0.16665 1:0.082149997 
1 0:0.013202 1:0.00022864999 
1 0:0.095499001 1:0.146 
1 0:0.0059870998 1:0.21682 
1 0:0.0040906998 1:0.067580998 
